552 700
20 -131734.23 99851.42 7164.584 54214.402 -4552.6943 -13277.854 -17390.943 -90779.08 -59553.61 32159.148 -92055.586 327168.1 -28797.707 -57904.66 40468.055 -64397.34 39320.72 -44155.01 -293684.9 -164972.48 -191879.66 36595.29 -99587.305 -42075.5 -93036.266 -25076.617 14106.342 10696.945 118455.14 118464.36 -10236.488 -87680.54 -30201.473 61850.598 -9132.054 22345.611 101046.49 49640.43 -46816.027 168389.78 97227.45 -38550.363 121034.95 49562.1 -299205.8 -24920.994 -63903.754 132199.45 52330.73 -61614.46 113814.95 74886.47 101939.08 -7432.255 -70915.87 -55947.027 181929.1 -68955.65 -35968.99 63774.727 52957.563 -42694.77 -20529.787 95796.6 -1724.178 -68096.78 10404.867 60331.11 97519.19 27483.18 56801.754 167653.45 -67463.54 59035.27 109075.3 53408.36 -182859.5 41538.703 38775.453 -22963.838 75183.61 72525.02 25377.166 -147806.27 84399.56 74399.99 74220.06 151657.28 -108756.26 84519.41 43053.117 98032.3 -15068.921 28885.24 83274.97 9667.784 -232702.63 -177180.67 -2204.0952 28927.549 10916.894 32756.063 68960.1 4639.007 -119882.79 173900.52 6293.406 83473.87 -110605.086 -80627.44 -186091.08 -41127.87 49880.008 46909.973 47137.547 -98828.555 107047.07 48870.94 2050.3872 -9446.318 -238590.28 -15061.896 -123615.86 -241152.56 -79341.08 109730.164 -19474.96 -236799.88 -6537.9375 -56680.62 -79543.72 52021.535 37217.254 185246.28 -14894.19 107260.03 -40791.063 -35691.676 -177587 -52334.48 25614.475 35366.023 -13639.149 -12179.933 -46085.43 -20524.36 55807.258 33805.86 -153783.14 220101.08 -126491.24 -99484.625 -22792.367 148230.27 126378.84 21891.69 134586.95 14150.381 -143414.97 -239555.67 156359.08 111399.945 -73475.84 103498.18 73554.06 -67155.11 57118.848 4898.279 -120271.05 -15187.823 173429.86 -40106.344 82083.266 69852.14 61184.117 51124.965 23537.682 -99865.555 33597.3 50464.53 33307.86 -39463.35 -33032.22 -4166.5596 16055.772 110155.29 -11471.074 -45120.563 -15141.144 8204.967 -14947.481 -60396.95 -173861.55 106044.03 132530.75 23098.406 -96141.19 194128.17 44444.375 81.20618 -59390.52 -30812.098 -43843.02 -130596.336 51339.563 -69744.05 -58286.207 13181.594 229850.9 -33474.977 122567.086 -144729.39 54641.5 -126680.984 -201544.25 93592.96 -152871.97 70693.11 110600.53 134.33592 -92698.23 7235.322 -9612.606 -68848.69 -123125.51 -89163.53 -69935.414 -68877.89 347.1495 -42001.64 105231.86 83645.055 -84287.48 -25546.637 -168840.14 5019.698 -187516.69 -14476 -22717.08 -98864.56 -14111.993 -275.5923 -51218.23 112172.84 -80900.484 -60434.02 154019.66 80716.87 -10291.802 -110731.71 57498.05 -168282.48 -112999.46 -42085.387 140483.45 -26888.27 -94213.65 13691.466 -140549.61 109438.12 87197.68 65077.83 -14216.476 155956.98 -75059.53 92638.14 -174402.1 -131486.94 -25052.184 -90760.52 50378.695 -27376.43 -111068.805 59863.4 -228026 178670.63 37354.04 78882.21 -97174.79 -37110.758 -4369.9756 -77605.38 -14293.926 58392.49 108921.766 -44683.613 -64463.94 62250.477 -132139.23 -62327.9 19110.799 -87331.75 -14906.092 12133.127 45294.684 -82155.445 -84112.28 24359.602 14736.084 -4053.519 4946.997 118642.055 33471.86 -148083.1 141793.88 -180120.6 -95596.87 -46392.086 69556.08 -118526.86 -202732.9 -114824.81 -5551.744 -62086.21 -3877.4268 -30789.553 50342.84 153708.4 56424.01 14605.267 -102282.19 -105343.91 -34346.723 -122326.12 96783.47 -17069.082 75996.79 -24295.393 -80903.086 -106788.78 142682.23 42337.773 -87579.125 -56247.49 -71124.71 -153483.27 236675.73 -846.70465 -76555.55 150882.84 94948.46 33786.504 46944.02 -7701.7803 116142.13 18586.91 -61474.066 61860.43 14984.589 -114338.08 -56202.29 -85291.2 -10800.082 -72354.99 87733.63 81816.03 -48428.746 65167.484 -83128.586 -22677.338 117311.65 113640.62 123067.586 45462.47 34841.598 25894.303 -32101.795 113741.695 8986.836 135461.1 -21321.904 -81808.38 24496.406 -176656.22 74436.56 -67761.74 84377.62 142281.13 87557.94 112929.625 231760.52 -58444.645 -66362.54 -112225.62 18231.447 -48561.91 -67386.53 -16070.898 -32420.178 -33668.395 43883.816 596.25085 33114.703 -88334.96 -57786.406 108457.82 -47553.24 -37246.645 5950.8335 -129323.34 -117440.195 -7145.142 34807.13 44261.184 -252800.39 -72714.27 -47534.984 -135849.67 208146.36 144622.42 -7403.306 26759.904 -58259.2 -52790.113 -97288.72 -34448.04 -97907.12 48266.367 2812.0415 54821.074 100504.14 -64380.984 24633.715 -159351.14 -119058.79 -3000.62 65462.74 72655.97 -33119.293 -83108.21 -151481.84 32304.744 115322.53 16426.768 -282105.94 89816.516 -73558.56 -167026.02 -8529.034 21.648762 -43897.496 208076.33 -30659.701 94614.42 -84982.984 -53096.08 -65236.87 -68430.65 38524.7 58268.027 -189321.13 -136436.23 196119.19 -176453.88 -110810.64 -37772.285 32799.496 -41586.76 -94038.83 45696.99 59962.246 36643.285 -103596.69 -41161.445 43002.902 53346.098 21853.916 45329.93 -67783.15 16284.05 -44686.977 -36108 16908.734 32788.863 -74942.875 21130.033 -6004.1343 -78879.99 -18005.549 150503 -103832.26 67923.875 19815.576 -18745.934 -84938.62 -112053.516 62937.11 14358.313 79535.516 69619.516 -5546.2456 170417.63 -50600.367 33927.082 122994.67 32731.143 35574.62 -37581.71 -74839.23 -180585.66 41201.125 42058.813 -54291.93 -12734.4 10059.713 150087.95 6955.2803 31806.865 -88253.77 -38979.668 -107221.805 71714.03 16202.281 10576.705 91738.88 34413.355 -68921.055 55518.105 148571.56 36798.824 -1883.4464 86474.73 76533.99 65176.063 60468.434 -112913.375 -54437.19 -104167.016 55932.574 -5228.4697 -28240.066 179197.3 -65463.38 -58822.85 53483.91 -93662.95 31327.668 75792.47 35774.402 -53798.938 13046.293 23769.895 46632.836 51337.387 102461.77 43757.04 -28249.66 3435.399 90178.83 -45906.824 -99230.9 115582.93 69995.51 -85960.33 150171.8 -54291.83 -166676.36 55731.695 67559.086 29153.838 -148150.94 -74190.63 60292.105 86105.51 -18042.45 -111367.914 -113857.375 25785.072 -43367.125 -39865.758 -48795.39 3778.2476 142650.97 15434.424 -96979.37 -103834.195 93251.3 13341.839 67551.6 98144.586 -62550.824 165077.14 -46600.23 15300.559 -10118.457 -91155.31 93183.19 -47693.21 144213.23 -8594.854 -54054.875 24511.879 -465.8866 -189913.56 -47181.477 -6490.1035 138971.33 -41641.4 -167100.55 -63766.64 -6890.3438 485.573 -17874.059 51158.848 -170496.4 13874.919 -116971.65 -94358.734 106055 10012.089 -108409.97 97919.17 -166370.06 14842.41 -74606.25 97133.24 10586.693 -56818.46 -20921.873 32767.906 -129442.66 111308.98 172249.55 -70546.91 1045.0485 -64717.258 605.6894 30465.014 146446.3 -91045.56 -4349.899 18568.719 28828.402 -40315.22 -20700.727 66716.625 -32950.848 47601.46 -2734.2764 90277.84 137527.3 -293922.78 -89038.57 44891.297 122566.03 -313983.66 247611.27 -38897.844 18598.63 157155.17 -60434.3 176273.77 -71521.49 -311749.53 -9692.604 -94604.195 -16452.42 -159222.08 39668.11 -52811.563 17709.19 172586.53 -145213.3 -71586.63 30221.32 -5225.39 117911.96 -25787.86 18022.78 -52097.832 152674.94 -43145.023 -88879.94 36091.957 -45916.684 -155773.69 -47982.688 -75113.85 -59256.598 -77378.2 35116.445 32322.99 148572.64 -216847.69 -56399.88 48321.895 -76100.414 58126.137 -53038.89 -11060.99 101382.03 19633.605 -44161.355 15418.476 -12725.798 -59313.59 -106672.445 91096.75 -65710.805 90603.67
30 -72155.85 54691.832 3924.1863 29695.059 -2493.439 -7272.558 -9525.481 -49722.574 -32619.4 17614.803 -50422.84 179201.53 -15773.359 -31716.463 22166.033 -35273.01 21536.834 -24185.498 -160861.6 -90361.16 -105099.17 20044.31 -54548.113 -23046.072 -50959.625 -13735.128 7726.6978 5859.0093 64882.527 64887.348 -5606.7485 -48026.48 -16542.676 33877.875 -5001.2856 12239.543 55347.086 27190.34 -25642.602 92232.77 53254.87 -21115.316 66295.98 27146.656 -163886.5 -13649.899 -35002.55 72410.76 28663.777 -33747.86 62340.94 41017.805 55836.156 -4071.0583 -38842.86 -30643.97 99649.6 -37769.652 -19701.01 34931.855 29006.324 -23386.148 -11244.766 52470.68 -944.0949 -37299.11 5698.808 33045.3 53414.85 15053.637 31112.646 91830.555 -36952.008 32336.074 59744.68 29253.666 -100159.42 22752.49 21238.926 -12578.709 41181.06 39724.76 13900.72 -80959.06 46228.594 40751.805 40652.953 83068.07 -59569.742 46294.047 23582.291 53696.57 -8253.746 15821.775 45612.773 5295.137 -127459.51 -97048.67 -1207.3767 15844.469 5979.703 17942.266 37772.027 2540.5237 -65663.96 95252.336 3447.2292 45721.52 -60582.496 -44163.086 -101929.62 -22527.297 27320.922 25694.182 25819.55 -54132.465 58633.42 26768.553 1122.8512 -5174.247 -130684.64 -8249.752 -67709.43 -132088.69 -43458.137 60103.027 -10666.791 -129704.44 -3581.0283 -31045.424 -43568.855 28494.252 20385.512 101466.695 -8157.668 58750.2 -22342.873 -19550.033 -97271.22 -28665.3 14030.379 19371.268 -7470.651 -6671.454 -25242.328 -11242.268 30567.727 18516.744 -84232.63 120557.16 -69283.914 -54491.3 -12484.293 81191.41 69222.7 11990.911 73718.766 7751.2407 -78553.98 -131213.77 85643.94 61018.008 -40245.363 56689.895 40287.96 -36783.05 31285.846 2683.1646 -65876.3 -8318.389 94994.516 -21968.148 44960.086 38260.168 33512.86 28003.516 12892.862 -54700.277 18402.74 27641.709 18244.215 -21615.75 -18092.748 -2282.1052 8794.069 60335.82 -6283.4116 -24714.197 -8293.388 4494.7085 -8186.544 -33081.89 -95230.055 58084.906 72591.8 12652.467 -52659.96 106331.34 24343.545 44.730255 -32530.596 -16877.088 -24014.41 -71532.31 28120.219 -38202.094 -31925 7220.361 125897.586 -18335.592 67134.61 -79274.14 29928.912 -69387.78 -110392.77 51264.816 -83733.625 38720.805 60579.695 74.24502 -50773.992 3963.1343 -5265.645 -37710.75 -67440.24 -48837.656 -38306.445 -37727.367 190.1558 -23006.29 57638.75 45815.508 -46167.406 -13993.577 -92480.64 2749.4082 -102710.055 -7929.1523 -12443.122 -54152.49 -7729.2305 -150.72026 -28053.754 61440.816 -44311.71 -33101.887 84362.15 44211.65 -5636.947 -60652.16 31494.205 -92174.92 -61893.855 -23052.086 76948.14 -14727.619 -51604.51 7499.2744 -76983.76 59943.207 47761.69 35645.254 -7787.166 85423.414 -41113.34 50741 -95526.01 -72020.23 -13721.846 -49712.758 27594.617 -14995.573 -60836.39 32789.66 -124898.8 97864.48 20460.771 43206.766 -53226.457 -20326.549 -2393.6875 -42507.61 -7829.5645 31983.709 59660.65 -24474.713 -35309.586 34096.746 -72377.86 -34138.85 10467.354 -47834.438 -8165.03 6645.9033 24809.486 -44999.715 -46071.703 13342.825 8071.1924 -2220.094 2709.6755 64984.42 18333.977 -81111.1 77665.66 -98658.7 -52362.1 -25410.64 38097.938 -64921.656 -111044.234 -62893.65 -3041.3645 -34007.266 -2123.5056 -16864.258 27574.986 84192.3 30905.12 7999.7144 -56024.313 -57701.063 -18812.584 -67002.47 53012.094 -9349.954 41626.117 -13307.728 -44313.69 -58491.785 78152.09 23189.93 -47970.32 -30808.6 -38957.906 -84068.39 129635.95 -464.00577 -41932.418 82644.2 52007.055 18506.193 25712.633 -4218.1426 63615.574 10181.165 -33671.305 33883.434 8207.058 -62627.504 -30784.025 -46717.402 -5915.8286 -39631.48 48054.605 44813.156 -26526.238 35694.277 -45532.324 -12421.111 64256.492 62245.785 67409.125 24901.824 19084.613 14183.219 -17583.047 62300.47 4922.0127 74197.05 -11678.8125 -44809.2 13417.971 -96761.42 40772.176 -37115.52 46216.2 77932.36 47959.387 61856.094 126943.51 -32011.89 -36349.13 -61470.39 9985.602 -26598.877 -36910.32 -8802.84 -17757.674 -18441.69 24036.518 326.75928 18137.863 -48384.81 -31651.352 59406.21 -26046.45 -20401.475 3259.6396 -70835.71 -64326.76 -3913.159 19065.514 24243.436 -138468.53 -39827.88 -26037.057 -74410.01 114009.766 79215.28 -4055.1233 14657.563 -31910.89 -28915.332 -53288.926 -18868.135 -53626.926 26437.602 1540.4292 30027.74 55050.598 -35263.72 13493.538 -87282.79 -65212.652 -1643.6443 35856.367 39795.96 -18141.053 -45521.86 -82971.81 17694.877 63166.863 8997.487 -154520.34 49195.99 -40290.92 -91486.05 -4671.3477 12.213779 -24044.5 113971.91 -16793.988 51823.574 -46548.21 -29082.852 -35732.875 -37481.77 21101.227 31914.977 -103698.5 -74730.88 107422.016 -96650.79 -60695.297 -20688.95 17965.129 -22778.53 -51508.773 25029.492 32843.87 20071.111 -56743.69 -22546.074 23554.064 29218.998 11970.118 24828.57 -37127.293 8919.688 -24476.895 -19778.209 9261.096 17959.654 -41049.195 11573.474 -3288.76 -43205.895 -9862.164 82436.555 -56872.414 37204.19 10853.845 -10268.12 -46524.23 -61376.332 34472.96 7864.6147 43565.133 38133.613 -3037.7844 93343.52 -27715.666 18583.547 67368.54 17927.932 19485.824 -20584.564 -40992.203 -98913.34 22566.9 23036.818 -29737.525 -6975.2314 5510.001 82209.234 3809.6162 17421.297 -48340.04 -21350.877 -58729.313 39280.543 8875.062 5792.99 50248.598 18849.21 -37750.895 30409.81 81378.61 20156.023 -1032.2927 47365.484 41920.52 35698.97 33120.434 -61846.727 -29816.967 -57055.73 30636.861 -2864.0408 -15467.987 98152.75 -35856.293 -32219.191 29295.5 -51302.48 17159.52 41514.15 19594.635 -29468.389 7145.8535 13019.519 25542.729 28119.502 56122.055 23967.441 -15473.17 1881.6274 49394.508 -25145.479 -54352.445 63309.047 38338.95 -47083.43 82254.43 -29737.697 -91294.89 30526.178 37004.305 15968.579 -81147.695 -40636.78 33024.406 47162.918 -9882.474 -61000.664 -62364.438 14123.803 -23753.426 -21835.77 -26727.113 2069.2913 78135.82 8454.017 -53119.574 -56874.168 51077.203 7307.7783 37001.074 53757.707 -34261.258 90419.14 -25525.115 8380.385 -5541.5845 -49929.07 51040.516 -26123.98 78991.04 -4707.756 -29607.705 13425.574 -255.10542 -104022.766 -25843.193 -3554.3894 76119.55 -22807.906 -91527.25 -34927.395 -3774.0125 266.16846 -9790.372 28021.545 -93386.836 7599.646 -64069.74 -51684.09 58090.887 5483.4756 -59380.54 53633.707 -91126.99 8129.5757 -40864.633 53203.453 5798.8306 -31121.621 -11460.081 17948.217 -70900.82 60968.19 94347.25 -38641.65 572.8807 -35447.45 332.07248 16686.916 80213.914 -49868.56 -2382.9622 10170.491 15790.463 -22081.742 -11338.77 36543.63 -18048.809 26073.16 -1497.378 49448.914 75328.73 -160992.53 -48770.195 24588.48 67134.23 -171980.97 135626.33 -21305.447 10187.465 86079.37 -33102.29 96551.62 -39174.883 -170757.03 -5308.702 -51818.24 -9011.062 -87211.914 21727.34 -28927.072 9700.466 94531.89 -79539.055 -39210.13 16553.324 -2861.6106 64584.547 -14125.075 9872.229 -28536.625 83625.64 -23632.902 -48683.387 19769.633 -25149.957 -85322.91 -26282.213 -41142.32 -32457.496 -42383.27 19235.346 17704.838 81378.39 -118775.56 -30892.445 26467.926 -41683.266 31838.123 -29051.842 -6058.9443 55530.695 10754.479 -24189.246 8445.096 -6970.194 -32488.176 -58428.617 49897.098 -35992.676 49626.902
50 -89709.24 67996.54 4879.1675 36918.934 -3100.5403 -9041.377 -11843.429 -61818.12 -40554.582 21899.771 -62688.02 222794.72 -19611.355 -39431.74 27557.389 -43854.016 26776.283 -30068.98 -199993.58 -112343.37 -130665.68 24920.635 -67816.875 -28652.42 -63355.992 -17076.6 9605.494 7284.833 80666.33 80672.53 -6970.798 -59708.66 -20566.324 42119.918 -6218.246 15216.27 68810.94 33804.22 -31880.586 114669.6 66210.336 -26251.938 82422.69 33750.598 -203754.11 -16970.932 -43516.934 90025.42 35636.453 -41958.016 77506.39 50996.313 69418.87 -5061.376 -48292.367 -38098.484 123890.32 -46957.625 -24493.713 43429.375 36062.86 -29074.512 -13980.089 65235.594 -1174.0968 -46372.688 7085.279 41084.332 66408.59 18715.232 38680.742 114169.266 -45940.996 40202.156 74278.414 36369.977 -124523.92 28286.885 26405.477 -15638.202 51198.453 49388.234 17281.965 -100653.266 57474.04 50665.137 50542.348 103275.734 -74061.51 57555.477 29318.598 66758.375 -10261.364 19670.525 56708.496 6583.611 -158465.88 -120657.24 -1501.1525 19698.51 7433.9272 22306.121 46960.36 3159.2185 -81637.79 118423.1 4284.998 56844.45 -75320.484 -54905.65 -126724.72 -28007.697 33967.984 31945.264 32100.441 -67300.65 72897.54 33280.324 1395.4562 -6433.581 -162475.98 -10257.381 -84180.46 -164220.34 -54029.918 74723.55 -13262.454 -161256.03 -4452.4126 -38598.516 -54168.203 35425.703 25344.152 126149.805 -10142.683 73041.59 -27777.7 -24305.178 -120933.695 -35639.15 17443.297 24083.398 -9288.021 -8294.228 -31383.242 -13976.5625 38003.277 23021.799 -104723.2 149884.34 -86138.42 -67747.266 -15520.4375 100942.59 86061.32 14907.216 91651.41 9635.794 -97662.29 -163132.83 106477.33 75861.89 -50035.81 70480.52 50088.867 -45731.613 38896.82 3335.6663 -81902.36 -10342.365 118102.8 -27311.693 55897.61 47567.688 41665.426 34815.566 16028.564 -68005.91 22878.854 34365.188 22682.182 -26873.908 -22494.23 -2837.8936 10933.237 75013.01 -7811.6973 -30726.875 -10310.496 5587.343 -10178.836 -41129.36 -118396.93 72214.05 90250.66 15729.418 -65470.406 132198.05 30266.195 55.310745 -40443.887 -20982.383 -29856.879 -88933.7 34961.324 -47495.016 -39691.895 8976.211 156523.58 -22795.96 83466.27 -98558.38 37209.664 -86267.055 -137247.53 63735.457 -104103.27 48139.984 75316.89 91.45158 -63125.33 4927.3975 -6546.0156 -46885.25 -83846.43 -60718.438 -47625.215 -46904.848 237.03886 -28602.102 71660.87 56961.195 -57398.02 -17396.85 -114977.35 3418.0085 -127695.83 -9857.607 -15470.079 -67324.77 -9609.702 -187.91635 -34878.48 76387.69 -55091.04 -41154.51 104884.484 54967.09 -7008.8823 -75405.8 39154.906 -114597.59 -76950.32 -28659.443 95665.91 -18310.617 -64157.793 9323.799 -95711.62 74524.83 59379.76 44316.742 -9681.296 106203.75 -51114.035 63085.125 -118763.9 -89539.625 -17059.56 -61806.42 34307.047 -18642.424 -75635.66 40765.492 -155281.34 121671.38 25437.775 53716.926 -66173.74 -25270.992 -2975.9424 -52847.664 -9733.2295 39764.78 74174.15 -30428.14 -43898.977 42391.832 -89984.68 -42443.707 13014.075 -59470.88 -10151.228 8262.318 30844.453 -55946.023 -57279.004 16588.865 10034.554 -2759.9993 3369.2996 80793.5 22793.705 -100841.74 96558.984 -122658.62 -65099.67 -31592.482 47365.58 -80713.89 -138057.8 -78193.27 -3780.5522 -42279.926 -2640.683 -20966.465 34282.74 104672.28 38423.43 9945.514 -69652.6 -71736.69 -23389.219 -83301.29 65907.71 -11624.318 51751.867 -16544.168 -55093.18 -72720.836 97164.15 28831.162 -59639.42 -38303.44 -48434.887 -104518.6 161171.83 -576.71277 -52132.61 102748.22 64657.793 23007.78 31968.06 -5244.8765 79090.57 12657.446 -41862.383 42126.18 10204.027 -77862.58 -38272.78 -58081.973 -7354.883 -49271.875 59745.082 55714.86 -32978.992 44378.063 -56609.465 -15442.519 79886.914 77387.586 83806.36 30958.74 23727.107 17633.588 -21860.43 77456.28 6119.6426 92247.05 -14519.208 -55709.914 16682.176 -120300 50689.777 -46145.063 57459.934 96891.11 59626.023 76903.26 157824.63 -39799.934 -45191.63 -76423.94 12415.218 -33069.813 -45889.496 -10943.5625 -22077.887 -22927.9 29884.043 405.78223 22550.523 -60154.543 -39351.316 73857.38 -32382.543 -25364.248 4053.0767 -88067.27 -79974.92 -4865.5493 23703.354 30140.643 -172151.75 -49516.69 -32370.012 -92511.42 141742.97 98485.375 -5041.2983 18223.125 -39673.7 -35949.047 -66252.11 -23458.158 -66672.83 32868.793 1915.3694 37331.887 68441.35 -43841.76 16775.285 -108515.016 -81076.63 -2042.9325 44578.977 49477.53 -22554.127 -56595.277 -103155.75 21999.041 78532.55 11186.528 -192109.11 61163.605 -50091.824 -113742.016 -5807.8545 14.872615 -29893.818 141696.38 -20878.596 64430.406 -57871.31 -36157.31 -44424.56 -46599.977 26234.469 39679.047 -128924.25 -92910.45 133552.97 -120161.6 -75459.86 -25722.406 22335.387 -28319.51 -64039.387 31118.453 40833.09 24952.781 -70547.734 -28030.615 29284.068 36327.11 14882.263 30869.29 -46159.16 11089.117 -30430.947 -24589.262 11514.123 22328.164 -51034.33 14389.161 -4088.623 -53715.918 -12260.773 102490.23 -70707.625 46255.246 13493.625 -12765.712 -57842.258 -76306.15 42858.535 9777.433 54162.633 47409.98 -3776.7217 116050.66 -34458.1 23104.441 83756.82 22288.826 24226.332 -25592.01 -50964.11 -122975.69 28057.162 28641.252 -36971.55 -8672.321 6850.278 102207.82 4736.515 21659.252 -60099.473 -26543.842 -73016.5 48836.133 11033.8545 7202.2495 62472.453 23434.938 -46934.07 37807.336 101174.555 25058.84 -1282.6563 58887.453 52118.875 44383.71 41177.938 -76892.06 -37070.766 -70935.695 38089.508 -3560.7388 -19230.98 122029.76 -44579.58 -40057.51 36421.91 -63781.99 21333.809 51612.934 24361.607 -36636.39 8884.589 16186.489 31755.398 34960 69774.51 29797.814 -19237.41 2339.2026 61410.2 -31261.84 -67574.2 78709.33 47666.184 -58536.965 102264.07 -36971.926 -113503.195 37952.156 46006.055 19853.33 -100887.77 -50522.887 41057.66 58635.684 -12287.148 -75839.2 -77535.18 17559.363 -29532.443 -27147.44 -33228.52 2572.2632 97143.13 10510.198 -66041.305 -70709.086 63502.59 9085.097 46001.88 66834.88 -42595.926 112414.97 -31733.572 10419.812 -6889.9863 -62074.586 63455.734 -32478.248 98206.98 -5852.811 -36810.418 16691.607 -316.6 -129327.19 -32129.611 -4420.0176 94636.62 -28356.758 -113792.03 -43423.66 -4692.1357 331.05594 -12172.309 34838.535 -116104.45 9448.449 -79655.36 -64256.46 72221.89 6818.202 -73825.49 66680.87 -113295.12 10107.066 -50805.96 66145.24 7209.3857 -38692.785 -14247.702 22314.613 -88147.59 75799.22 117298.6 -48041.082 711.4014 -44070.844 413.18924 20746.068 99727.2 -62000.36 -2962.1626 12645.091 19631.271 -27453.191 -14097.013 45433.08 -22438.855 32415.623 -1862.1143 61477.637 93654.26 -200156.42 -60633.266 30570.563 83464.93 -213816.61 168618.45 -26488.715 12665.359 107019.85 -41154.547 120038.78 -48704.6 -212295.17 -6600.223 -64423.145 -11203.515 -108426.99 27013.008 -35963.207 12059.696 117528.586 -98887.71 -48748.65 20580.477 -3557.8738 80295.305 -17560.824 12273.234 -35477.945 103968.75 -29381.342 -60526.04 24578.334 -31268.258 -106078.414 -32674.807 -51150.66 -40353.332 -52693.035 23913.902 22011.225 101175.23 -147668.84 -38407.293 32906.125 -51822.867 39583.09 -36119.16 -7532.233 69039.76 13370.202 -30072.564 10499.313 -8665.952 -40391.84 -72642.48 62034.625 -44748.297 61699.715
8 -27178.166 20600.635 1478.0674 11185.327 -939.4702 -2739.0542 -3588.3735 -18728.102 -12286.035 6635.003 -18991.938 67497.484 -5941.154 -11946.493 8348.952 -13285.94 8112.49 -9109.25 -60589.61 -34035.387 -39586.543 7550.094 -20546.053 -8680.573 -19194.729 -5173.628 2910.1538 2206.7036 24438.414 24440.191 -2111.6638 -18089.426 -6230.498 12760.144 -1884.0367 4609.5283 20846.66 10241.214 -9658.424 34740.152 20058.668 -7952.8667 24970.344 10225.446 -61728.88 -5141.6924 -13183.642 27273.588 10796.589 -12711.081 23481.244 15449.753 21031.096 -1533.0082 -14630.5205 -11541.943 37533.133 -14225.927 -7420.6187 13157.884 10925.209 -8808.6455 -4235.698 19763.688 -356.07092 -14049.095 2146.3843 12446.606 20119.09 5670.332 11718.451 34588.145 -13918.042 12179.62 22503.75 11018.417 -37725.88 8569.293 8000.042 -4738.0425 15511.604 14962.871 5235.216 -30494.332 17412.604 15349.626 15312.371 31288.646 -22437.299 17437.084 8882.631 20224.75 -3108.7373 5959.011 17180.322 1994.5327 -48009.203 -36553.76 -454.83575 5968.004 2252.6072 6758.3184 14227.37 957.47626 -24732.818 35877.55 1298.5608 17221.568 -22819.3 -16634.355 -38391.926 -8484.705 10290.754 9678.281 9725.451 -20389.256 22084.781 10082.203 422.5321 -1949.36 -49223.06 -3107.1687 -25503.396 -49752.44 -16368.384 22637.896 -4017.9895 -48853.95 -1348.7068 -11693.352 -16410.59 10732.991 7678.7373 38217.992 -3072.727 22128.81 -8415.484 -7363.067 -36638.16 -10797.127 5284.688 7296.0884 -2814.177 -2512.7502 -9508.049 -4234.061 11513.248 6974.9785 -31726.352 45408.6 -26096.229 -20525.064 -4702.4785 30581.145 26073.055 4516.6978 27766.852 2919.84 -29587.95 -49422.48 32258.285 22983.258 -15158.499 21352.752 15175.29 -13855.102 11784.036 1010.7129 -24813.309 -3133.4998 35780.504 -8274.711 16934.922 14411.204 12622.934 10547.952 4855.6504 -20602.72 6931.2773 10411.473 6871.308 -8141.4067 -6814.365 -859.2283 3312.853 22725.828 -2366.6506 -9309.151 -3124.1704 1693.0322 -3083.3123 -12460.581 -35869.273 21877.873 27342.275 4765.7305 -19834.758 40050.55 9169.03 16.449322 -12252.538 -6356.314 -9044.998 -26943.467 10591.985 -14388.874 -12025.163 2719.131 47420.14 -6905.722 25286.318 -29858.86 11272.736 -26135.445 -41580.418 19309.377 -31539.002 14584.181 22818.441 27.79077 -19124.693 1493.0374 -1983.4878 -14203.862 -25401.652 -18394.979 -14428.241 -14210.158 71.24439 -8665.045 21710.002 17256.941 -17389.568 -5270.491 -34833.273 1035.3333 -38686.29 -2986.6543 -4686.449 -20397.074 -2911.6309 -56.33307 -10566.698 23142.266 -16690.48 -12467.879 31775.803 16652.38 -2123.6025 -22845.496 11862.465 -34717.953 -23312.994 -8683.183 28982.684 -5547.7427 -19437.494 2824.484 -28996.807 22578.32 17989.52 13426.305 -2932.5662 32175.572 -15485.825 19112.102 -35980.773 -27127.21 -5168.268 -18724.625 10393.8 -5647.9614 -22914.275 12350.157 -47043.703 36861.508 7706.1426 16274.099 -20048.229 -7656.5674 -901.86804 -16010.194 -2948.7998 12046.617 22471.309 -9218.205 -13299.416 12842.8125 -27261.38 -12859.003 3942.767 -18017.492 -3075.117 2503.3303 9344.898 -16949.352 -17353.51 5025.5273 3040.5178 -835.7339 1020.40564 24477.012 6905.365 -30550.723 29253.418 -37160.66 -19722.793 -9571.553 14350.119 -24452.855 -41825.74 -23689.037 -1144.998 -12808.911 -799.7622 -6352.401 10386.565 31711.521 11640.436 3013.1353 -21102.24 -21733.234 -7086.0845 -25237.037 19966.89 -3521.0999 15678.703 -5012.6343 -16690.502 -22031.658 29436.523 8735.05 -18068.521 -11604.794 -14674.106 -31665.29 48828.54 -174.38112 -15794.298 31128.777 19588.715 6970.821 9684.836 -1589.4203 23960.818 3835.1418 -12682.667 12762.644 3091.8909 -23589.38 -11595.262 -17596.615 -2227.951 -14927.179 18099.707 16879.004 -9991.625 13445.106 -17149.916 -4678.1587 24202.451 23445.188 25390.287 9379.778 7188.0503 5341.9785 -6623.233 23466.34 1854.2484 27946.674 -4398.6987 -16878.258 5054.3076 -36445.61 15357.082 -13979.706 17408.07 29354.002 18063.758 23298.684 47814.043 -12057.228 -13690.648 -23153.37 3761.561 -10019.218 -13902.897 -3315.6113 -6688.65 -6946.534 9053.164 123.15616 6831.3564 -18223.947 -11921.67 22376.26 -9810.655 -7684.48 1227.5972 -26680.357 -24229.418 -1473.943 7180.9043 9131.789 -52155.426 -15002.036 -9807.366 -28027.02 42942.92 29836.79 -1527.776 5520.914 -12019.779 -10890.9375 -20071.377 -7106.944 -20198.643 9957.94 580.624 11310.073 20735.078 -13282.714 5081.79 -32875.777 -24562.36 -618.6968 13506.118 14989.936 -6833.2637 -17145.773 -31252.049 6665.2207 23792.607 3388.7744 -58200.605 18530.004 -15176.195 -34459.41 -1759.4353 4.565045 -9056.701 42927.83 -6325.567 19520.26 -17532.742 -10953.708 -13459.209 -14118.264 7948.4956 12021.355 -39059.145 -28148.018 40461.348 -36404.25 -22861.207 -7792.9834 6767.038 -8579.356 -19401.287 9427.703 12370.667 7559.463 -21372.648 -8492.361 8871.382 11005.682 4508.9717 9351.846 -13983.903 3360.0928 -9219.312 -7449.212 3488.722 6764.9053 -15461.012 4359.8584 -1238.887 -16274.136 -3714.4878 31050.629 -21421.08 14013.307 4088.3545 -3867.5935 -17523.428 -23117.844 12984.822 2961.901 16409.422 14363.42 -1144.063 35158.39 -10439.48 6999.072 25375.338 6752.3433 7339.38 -7753.1143 -15440.145 -37256.9 8500.444 8676.858 -11201.118 -2627.1895 2075.373 30964.807 1435.0338 6561.8228 -18207.088 -8042.2056 -22120.832 14795.11 3342.3308 2182.4065 18926.959 7100.037 -14219.549 11453.927 30652.12 7592.3135 -388.39746 17840.9 15790.138 13446.779 12475.504 -23295.047 -11230.58 -21490.418 11539.098 -1078.4675 -5826.1646 36970.215 -13505.298 -12135.727 11033.943 -19323.828 6462.766 15636.758 7380.4297 -11099.173 2691.7783 4904.317 9621.184 10590.944 21138.56 9027.262 -5827.883 708.9051 18604.627 -9471.146 -20472.27 23846.225 14441.107 -17734.627 30981.707 -11200.605 -34386.703 11498.368 13937.888 6014.4233 -30564.469 -15306.372 12438.683 17763.879 -3722.362 -22975.738 -23489.662 5320.1196 -8946.664 -8224.425 -10067.385 778.9014 29430.234 3184.293 -20008.207 -21422.313 19239.059 2752.485 13936.462 20248.51 -12904.702 34056.88 -9613.598 3156.2239 -2087.0461 -18806.115 19224.635 -9839.48 29752.273 -1773.1802 -11152.073 5056.615 -95.78651 -39181.344 -9734.38 -1339.2296 28671.256 -8591.228 -34474.336 -13155.432 -1421.2399 100.19472 -3687.2366 10554.137 -35174.46 2862.914 -24132.71 -19466.672 21880.146 2065.7659 -22366.428 20201.52 -34323.523 3062.397 -15392.498 20039.084 2184.1396 -11721.838 -4316.8154 6760.783 -26704.752 22964.572 35536.25 -14554.978 215.57715 -13351.577 124.56264 6285.0903 30213.598 -18783.334 -897.7642 3830.7502 5947.6484 -8317.133 -4271.0586 13764.034 -6797.8955 9820.907 -564.1458 18625.295 28373.19 -60638.99 -18369.896 9261.388 25286.541 -64777.977 51084.973 -8025.24 3836.911 32422.945 -12468.011 36366.598 -14755.331 -64316.242 -2000.0665 -19518.11 -3394.0774 -32848.555 8184.2344 -10895.683 3653.5442 35606.457 -29959.002 -14768.889 6235.008 -1077.5693 24326.695 -5320.2046 3718.35 -10747.952 31498.62 -8901.484 -18336.92 7446.3096 -9472.949 -32137.168 -9899.678 -15497.031 -12225.248 -15964.317 7245.031 6668.6113 30651.668 -44737.586 -11636.304 9969.484 -15700.633 11991.76 -10942.375 -2281.5815 20916.066 4050.3203 -9110.644 3180.9724 -2625.0762 -12237.058 -22007.682 18793.893 -13557.185 18692.74
a -5719594.5 4335290.5 311090.25 2353840.8 -197662.39 -576476.25 -755083.9 -3941382.8 -2585673.5 1396252 -3996836.8 14204792 -1250335 -2514065 1757008.9 -2795980.3 1707184.3 -1917094.3 -12751059 -7162686 -8330902 1588867.5 -4323842 -1826830.1 -4039417.8 -1088760.5 612446.56 464452.03 5143051.5 5143434 -444430.63 -3806881 -1311272.3 2685416.8 -396470.8 970170.75 4387199.5 2155278 -2032643.9 7311049.5 4221386 -1673746.6 5255034.5 2151861.5 -12990785 -1081989.1 -2774528 5739758.5 2272084.8 -2675125.8 4941586 3251380.3 4425964.5 -322689.84 -3078993.5 -2429065 7898894.5 -2993868.3 -1561664.8 2768960 2299272.3 -1853708.4 -891334.2 4159223.8 -74849.51 -2956587 451754.56 2619432 4234025 1193258.1 2466188 7279105.5 -2929093.5 2563153.3 4735792 2318836.8 -7939322 1803497.8 1683517.3 -997046.25 3264305.5 3148842.3 1101833.6 -6417388 3664421 3230244 3222466 6584582.5 -4721937 3669598.5 1869259.6 4256325.5 -654240.9 1254111.3 3615564.8 419766.13 -10103352 -7692752 -95703.74 1255938.1 473992.5 1422204.6 2994056.3 201409.86 -5204986 7550335.5 273222.38 3624230.8 -4802214.5 -3500639.5 -8079619.5 -1785663 2165679.5 2036721 2046615.5 -4290885.5 4647719.5 2121841.8 89001.54 -410155.94 -10358990 -653968.4 -5367096.5 -10470250 -3444795.5 4764204.5 -845552.06 -10281251 -283851.16 -2460908 -3453596.3 2258650.3 1615889.5 8042949.5 -646650.1 4656955 -1771054.4 -1549638 -7710378 -2272242.3 1112118.6 1535502.9 -592167.4 -528819.75 -2000910.1 -891137.94 2423012.8 1467781.9 -6676859 9556223 -5491907 -4319366 -989565.2 6435788 5487030.5 950459.8 5843424.5 614378.8 -6226695.5 -10400917 6788716.5 4836718.5 -3190134.8 4493617.5 3193538.5 -2915706 2479974 212670.11 -5221846.5 -659405.44 7529903 -1741307.3 3563852 3032788.3 2656461.8 2219723.8 1021959 -4335901.5 1458697.6 2191038.5 1446139.1 -1713383.3 -1434172.5 -180918.63 697091.75 4782645 -498059.25 -1959034.8 -657400 356256.16 -648961.5 -2622273.3 -7548620.5 4604171.5 5754163.5 1002893.3 -4174205.3 8428556 1929678.4 3543.7734 -2578588.5 -1337775.5 -1903571.5 -5670161.5 2229018.8 -3028126.3 -2530629.5 572303.7 9979513 -1453397 5321553.5 -6283777 2372379.3 -5500160 -8750542 4063586.8 -6637304.5 3069293.5 4802014 5850.9067 -4024715.8 314136.4 -417358.1 -2989254.5 -5345798 -3871236.3 -3036421.5 -2990516.5 15088.677 -1823604.3 4568879.5 3631670.3 -3659525.8 -1109190 -7330641.5 217934.33 -8141487.5 -628502.2 -986320.06 -4292460 -612706.44 -11950.531 -2223756.8 4870254 -3512483.3 -2623910.5 6687160 3504537.8 -446862.7 -4807690 2496424 -7306396.5 -4906159 -1827264.6 6099434 -1167425.4 -4090500.8 594434.3 -6102284.5 4751519 3785901 2825512.8 -617231.8 6771272 -3258918 4022100.5 -7572096 -5708833.5 -1087692.6 -3940610.5 2187306 -1188616.9 -4822336 2599105 -9900327 7757421.5 1621834.4 3424868 -4219083.5 -1611237.1 -189727.56 -3369417.3 -620594.7 2535266.8 4729121 -1940038.1 -2798881 2702766.3 -5737165 -2706115 829747.44 -3791715.3 -647197.75 526778.6 1966565.3 -3566974.5 -3651938.8 1057648.4 639806.4 -175972.6 214800.63 5151135.5 1453280.6 -6429391 6156313 -7820370.5 -4150558.3 -2014218.5 3019928.3 -5146116 -8802153 -4985422 -241048.78 -2695623.3 -168358.36 -1336786.8 2185760 6673622 2449779.8 634120.56 -4440843 -4573758.5 -1491227.4 -5311079 4202087 -741114.1 3299578 -1054840.4 -3512590 -4636494.5 6194898 1838201.5 -3802462.3 -2442134.5 -3088052.3 -6663847 10275824 -36779.316 -3323833.8 6550980.5 4122411.8 1466915.8 2038188.5 -334390.7 5042575.5 806999.4 -2669052.5 2685822 650584.4 -4964271 -2440162.5 -3703117.5 -468931.03 -3141471.3 3809155.5 3552243 -2102657.5 2829403 -3609242.8 -984586.7 5093368 4934011 5343280 1973874.1 1512747.4 1124284.4 -1393777.9 4938388.5 390190.63 5881402.5 -925728.2 -3551891.5 1063591.1 -7669964 3231869.3 -2942047.5 3663454 6177486.5 3801565.3 4903116 10062477 -2537513.3 -2881281.3 -4872560 791558.4 -2108434.5 -2925771.5 -697745.9 -1407613.5 -1461817.1 1905314.8 25875.219 1437750.6 -3835293.3 -2508946.8 4708945 -2064641.8 -1617163.8 258381.47 -5614907 -5098951 -310221.53 1511253.1 1921689.6 -10975946 -3157059.3 -2063854.6 -5898245.5 9037171 6279136.5 -321421.6 1161837.3 -2529459 -2292019 -4224033.5 -1495627.5 -4250865 2095613.4 122105.09 2380191.8 4363655.5 -2795250.5 1069552.3 -6918603.5 -5169213.5 -130275.766 2842238.5 3154530 -1437958.1 -3608355.5 -6576938.5 1402586.1 5007034 713199.6 -12248317 3899601 -3193734.8 -7251859.5 -370318.6 945.34485 -1905925.5 9034150 -1331169.4 4107924.5 -3689735.3 -2305285 -2832406.8 -2971095.5 1672644.3 2529836.3 -8219837 -5923711 8514979 -7661180 -4811132 -1639982.4 1424070.5 -1805573.5 -4082942.3 1984049.3 2603408.8 1590951.3 -4497902 -1787145.6 1867071.3 2316138.3 948822.25 1968121.9 -2942973.3 707027.25 -1940195.5 -1567738.4 734113.2 1423610 -3253814.8 917419 -260681.31 -3424778.3 -781733.7 6534465 -4508134 2949099 860327.6 -813897 -3687841.8 -4865080.5 2732567 623405.25 3453236 3022725.8 -240805.19 7399091 -2196941.3 1473049.3 5340125 1421101.8 1544574.4 -1631702.3 -3249337.8 -7840587.5 1788824.8 1826094.5 -2357216 -552893.9 436769.2 6516469 301993.1 1380960 -3831741.5 -1692390.9 -4655304.5 3113667.5 703460.9 459196.5 3983085.3 1494138.3 -2992381.5 2410465.3 6450616.5 1597697.5 -81790.84 3754528.5 3322924.8 2829766.8 2625376.8 -4902413.5 -2363523 -4522673.5 2428470.3 -227004.23 -1226121.6 7780282 -2842241.3 -2553949.8 2322132 -4066601 1360177.1 3290720.5 1553212.3 -2335826.5 566435.25 1032028.5 2024666.8 2228945.3 4448646 1899813.1 -1226536.8 149150.31 3915329.8 -1993175.6 -4308364 5018320.5 3039050.8 -3732175.8 6520068.5 -2357212.8 -7236644.5 2419751.8 2933245.5 1265777.8 -6432321.5 -3221180.5 2617709 3738482.5 -783372.3 -4835313 -4943428 1119536 -1882898.3 -1730851.1 -2118576.3 164025.05 6193563 670123.8 -4210609 -4508218.5 4048742.3 579265.3 2932935 4261179 -2715794.3 7167235 -2023267.6 664318.06 -439297.72 -3957733 4045792.5 -2070734.9 6261384 -373179.84 -2346911.8 1064228.4 -20213.387 -8245573.5 -2048496.6 -281782.1 6033764 -1807944.8 -7255096.5 -2768585 -299164.8 21090.07 -776059.9 2221200 -7402502 602428.9 -5078601.5 -4096806.8 4604655 434686.66 -4706898 4251398 -7223392.5 644426.8 -3239234.5 4217261 459661 -2466928.5 -908395.2 1422715.8 -5620066.5 4832759 7478627 -3062986.5 45380.117 -2809844.5 26317.451 1322695.6 6358338 -3952970.8 -188853.31 806186.56 1251661.4 -1750363.6 -898768.2 2896688.3 -1430648.5 2066737.8 -118727.82 3919619.5 5971111 -12761407 -3865836 1949078.6 5321519.5 -13632397 10750665 -1688822.1 807500.6 6823258 -2623915 7653362.5 -3105280.5 -13535363 -420832.7 -4107455.3 -714305.9 -6913014.5 1722295.6 -2292934 768902.44 7493283 -6304792 -3108098.5 1312122.8 -226855.1 5119418.5 -1119660 782517.3 -2261970.8 6628757 -1873268 -3858956 1567040.6 -1993570.9 -6763293.5 -2083286.1 -3261237.5 -2572788.8 -3359578.8 1524684.5 1403372.1 6450648 -9414989 -2448744 2098032.5 -3304100.5 2523684 -2302831.3 -480238.6 4401772.5 852453.6 -1917369.4 669426.3 -552538.1 -2575268.5 -4631467.5 3955170.3 -2853014.8 3933776.3
about -996174.6 755072.56 54182.195 409965.88 -34427.26 -100403.73 -131512.83 -686465.94 -450344.34 243183.22 -696124.1 2474031.5 -217769.4 -437871.88 306016.22 -486972.47 297338.3 -333898.13 -2220834.3 -1247518 -1450984.5 276730.7 -753079.2 -318176.78 -703540.44 -189627.95 106669.21 80892.88 895758.7 895826.8 -77405.914 -663041 -228382.64 467716.4 -69053.18 168973.61 764113.8 375382.6 -354024.06 1273355.9 735234.6 -291514.03 915264.9 374787.6 -2262592.8 -188448.89 -483237.1 999687.25 395726.03 -465923.78 860668.8 566289.25 770864.25 -56202.06 -536264.1 -423069.13 1375741.6 -521439.25 -271993.3 482267.2 400462.06 -322858.84 -155243.08 724407.94 -13036.864 -514945.28 78680.984 456223.5 737437 207827.92 429533.13 1267792.9 -510157.6 446422.28 824827 403868.88 -1382780.8 314113.1 293216.47 -173654.84 568540.25 548430.25 191905.06 -1117710.8 638227.1 562607.94 561253.7 1146829 -822414.6 639130.7 325566.63 741320 -113948.43 218427.17 629720.3 73110.37 -1759690.6 -1339837.5 -16669.002 218745.55 82554.664 247704.53 521471.97 35079.133 -906547.6 1315034.8 47586.563 631228.4 -836395.2 -609702.5 -1407218 -311007.1 377193.1 354734.2 356456.3 -747340.25 809488.7 369558.97 15500.777 -71436.46 -1804211.9 -113900.73 -934782.9 -1823588.9 -599976.56 829774.5 -147269.34 -1790676.9 -49437.668 -428614.47 -601508.44 393386.7 281437.8 1400829.5 -112626.305 811097.25 -308462.53 -269898.94 -1342909.1 -395754.94 193696.47 267436.72 -103136.96 -92104.03 -348496.5 -155208.73 422014.4 255642.2 -1162900.9 1664398.8 -956521.06 -752299.7 -172351.38 1120914.8 955672.3 165541.02 1017743.3 107005.68 -1084497.6 -1811516.8 1182382.6 842405.1 -555623.25 782648.94 556214.94 -507825.38 431933.66 37040.594 -909483.8 -114847.875 1311476 -303282.1 620711.3 528216.56 462673.28 386607.25 177993.4 -755179.1 254059.69 381610.72 251872.73 -298418.1 -249788.53 -31510.217 121412.37 832988 -86746.445 -341202.25 -114498.49 62048.395 -113029.21 -456718.6 -1314737 801903.7 1002196.44 174672.84 -727015.9 1467991.5 336090.2 616.64996 -449109.13 -232999.45 -331543.03 -987565.9 388225.16 -527405.06 -440756.9 99677.85 1738125.3 -253136.63 926848.56 -1094440.1 413194.8 -957956.25 -1524069.8 707750 -1156012.9 534576.25 836360.44 1019.41125 -700980.5 54713.19 -72690.9 -520634.94 -931072.44 -674249.75 -528851.7 -520854.25 2627.9768 -317616.16 795756.4 632523.75 -637376.1 -193186.81 -1276768.9 37957.027 -1417995.9 -109465.984 -171785.88 -747614 -106714.79 -2081.3147 -387308.4 848245.75 -611764.9 -457002.88 1164695.3 610380.3 -77829.45 -837350.7 434799.97 -1272547.8 -854500.2 -318252.88 1062328.9 -203329.11 -712437.56 103532.016 -1062831.1 827566.1 659386 492117.13 -107502.38 1179345.9 -567602.2 700525.7 -1318823.1 -994301 -189442.06 -686331 380961.13 -207019.55 -839901.7 452683.75 -1724329.1 1351102.3 282472.88 596506.9 -734833.8 -280627.06 -33045.336 -586849.3 -108087.94 441564.53 823667.6 -337894.16 -487478.38 470738.25 -999236.94 -471320.97 144515.94 -660399 -112721.43 91748.22 342514.88 -621256.8 -636054.2 184209.55 111434.12 -30649.203 37411.582 897167.44 253116.23 -1119801.6 1072238.9 -1362064.6 -722899.2 -350814.75 525977.75 -896293.2 -1533061.4 -868304.9 -41982.99 -469493.88 -29322.5 -232826.84 380691 1162339.9 426675.16 110444.38 -773456.2 -796606.1 -259724.97 -925023.5 731871.94 -129079.37 574684.25 -183720.9 -611784.9 -807533.25 1078958.6 320158.06 -662270.56 -425343.78 -537843.2 -1160633.5 1789731.8 -6405.9053 -578907.75 1140974 717994.94 255490.83 354989.38 -58240.83 878260.6 140554.44 -464866.3 467785.75 113311.45 -864622.06 -425000.4 -644969.94 -81673.34 -547146.1 663436.6 618688.7 -366217.72 492795.06 -628618.6 -171484.88 887109.6 859350.6 930634.06 343787.7 263473.6 195814.92 -242753.02 860113.5 67958.586 1024356.06 -161232.81 -618630.7 185244.94 -1335871.9 562890.75 -512414.03 638060.25 1075925.9 662115.2 853970.6 1752567.4 -441956.9 -501829.13 -848648.56 137865.05 -367224.22 -509578.97 -121526.11 -245162.86 -254602.75 331847.22 4506.315 250412.06 -667987.75 -436979.3 820152.7 -359595.34 -281660.03 45001.61 -977941.94 -888080.6 -54030.85 263213.9 334698.9 -1911669.4 -549860.75 -359458.97 -1027290.9 1573994 1093630.1 -55981.61 202355.73 -440553.16 -399198.72 -735695.3 -260491.73 -740369.3 364990.84 21267.203 414555.88 760013.25 -486846.16 186283.34 -1205007.1 -900316.44 -22689.662 495030.3 549420.9 -250447.88 -628463.3 -1145501.3 244286.88 872069.6 124217.16 -2133277.3 679189.94 -556249.8 -1263047.6 -64497.98 164.69644 -331953.8 1573470.9 -231848.19 715472.7 -642637.25 -401509.22 -493317.25 -517472.44 291323.78 440619.2 -1431640.4 -1031727.2 1483044.8 -1334339.9 -837951.75 -285633.16 248029.27 -314473.9 -711121.5 345559.03 453433.13 277093.75 -783396.3 -311264.25 325185.6 403398.72 165254.69 342785.2 -512575.6 123142.305 -337922.03 -273051.44 127859.555 247948.44 -566714.5 159785.89 -45402.563 -596489.9 -136153.89 1138100.8 -785176.6 513640.78 149842.36 -141755.06 -642306.2 -847346.6 475928.56 108578.14 601447.7 526464.44 -41940.33 1288691.3 -382638.47 256558.88 930082 247512.27 269017.34 -284191.94 -565933.4 -1365586.9 311557.84 318049.25 -410554.6 -96296.86 76071.8 1134964.1 52597.098 240520.34 -667370.8 -294761.28 -810810.56 542302.94 122521.45 79977.77 693730.4 260232.58 -521180.72 419828.94 1123497.3 278269.6 -14245.22 653923.2 578750.06 492858 457258.78 -853848.7 -411653 -787708.56 422963.44 -39537.4 -213551.86 1355083.6 -495030.16 -444820 404443.03 -708274.2 236901.02 573141.06 270521.66 -406828.75 98654.86 179746.81 352633.94 388212.28 774816.56 330887.84 -213624.05 25977.723 681929.5 -347149.56 -750383.2 874035.75 529307.75 -650028.5 1135591.8 -410553.8 -1260399.8 421444.44 510879.5 220459.23 -1120311.5 -561029.3 455924.03 651126.3 -136439.31 -842160.94 -860989.9 194988.61 -327942.13 -301460.53 -368990.47 28568.246 1078724.9 116715.07 -733356.6 -785191.94 705165.75 100889.555 510826.8 742165.3 -473007.63 1248311.9 -352390.66 115703.016 -76512.016 -689313.4 704652.3 -360657.25 1090537.3 -64996.043 -408758.66 185356.11 -3520.498 -1436124 -356784.34 -49077.254 1050894.5 -314887.53 -1263612.5 -482201.84 -52105.62 3673.3154 -135165.86 386864.44 -1289286.6 104924.25 -884535.75 -713536.94 801987.56 75709.25 -819795.9 740462.4 -1258090.8 112238.99 -564174.4 734516.2 80059.125 -429662 -158214.3 247792.9 -978840 841718.44 1302544.9 -533477.56 7904.3315 -489388.56 4583.6655 230372.08 1107422.8 -688483.94 -32891.957 140412.88 218000.66 -304858.94 -156537.52 504512.75 -249174.03 359961.34 -20678.406 682676 1039980.8 -2222638.3 -673308.3 339469.7 926843 -2374334.8 1872430.6 -294141.1 140641.9 1188400 -457003.66 1332979.6 -540843.3 -2357440 -73296.375 -715391.4 -124410.46 -1204035 299971.3 -399358.13 133919.1 1305098 -1098101.3 -541334.8 228530.95 -39510.895 891642.56 -195009.02 136290.45 -393964.84 1154524.4 -326264.7 -672111.1 272929.94 -347217.47 -1177955.1 -362843.38 -568007.1 -448099.78 -585133.6 265553.03 244424.55 1123501.9 -1639796 -426494.38 365412.34 -575471.7 439548.06 -401081.6 -83643.24 766651.1 148470.81 -333946.6 116593.03 -96234.69 -448531.88 -806657.2 688868.06 -496906.47 685140.9
actually -30419.984 23058.04 1654.8093 12518.884 -1051.1807 -3066.026 -4015.5503 -20962.553 -13752.135 7426.3784 -21257.256 75549.66 -6650.185 -13370.797 9344.747 -14871.075 9079.292 -10195.951 -67816.836 -38095.2 -44308.85 8450.744 -22996.578 -9716.615 -21483.645 -5791.032 3257.1533 2469.9211 27354.072 27356.139 -2363.5088 -20247.156 -6974.0425 14282.681 -2108.499 5159.4727 23333.77 11463.024 -10810.622 38884.27 22451.828 -8901.931 27949.297 11445.192 -69091.86 -5754.5156 -14756.111 30526.99 12083.859 -14227.984 26282.363 17292.932 23539.547 -1715.7864 -16375.806 -12919.566 42011.086 -15922.69 -8305.658 14726.633 12228.742 -9858.741 -4740.9146 22121.166 -398.4163 -15724.718 2402.8223 13931.309 22518.58 6346.768 13116.647 38714.45 -15578.31 13632.066 25187.156 12332.844 -42226.117 9591.941 8953.765 -5303.0513 17361.219 16747.08 5860.291 -34131.258 19489.648 17179.89 17139.254 35020.95 -25114.443 19516.53 9942.063 22637.104 -3479.3567 6669.887 19229.873 2232.7437 -53735.184 -40914.836 -509.17435 6679.6865 2520.5793 7563.635 15924.467 1071.7114 -27682.746 40157.46 1452.666 19275.42 -25540.842 -18618.654 -42972.285 -9497.63 11518.763 10831.994 10885.227 -22821.414 24718.99 11285.028 473.48367 -2180.9507 -55095.23 -3478.4204 -28545.627 -55686.77 -18321.332 25338.982 -4496.659 -54681.938 -1509.8911 -13088.183 -18368.607 12012.624 8594.533 42776.668 -3439.4243 24768.688 -9419.285 -8241.865 -41008.348 -12085.265 5914.93 8166.6772 -3149.6875 -2812.6687 -10641.5 -4740.064 12887.015 7806.3403 -35511.07 50825.246 -29209.133 -22973.09 -5263.1763 34229.62 29183.354 5055.481 31078.717 3267.331 -33117.01 -55317.832 36106.145 25724.193 -16966.5 23899.922 16984.986 -15507.778 13189.661 1130.7322 -27772.32 -3506.8857 40048.793 -9261.514 18954.92 16130.464 14128.146 11805.704 5435.703 -23060.754 7758.315 11653.555 7691.257 -9112.769 -7627.6206 -962.0027 3707.1414 25436.393 -2649.469 -10419.625 -3496.0889 1895.0347 -3451.5923 -13946.31 -40147.84 24487.943 30603.854 5334.136 -22201.115 44827.555 10262.777 18.624722 -13714.248 -7115.437 -10124.692 -30156.926 11855.012 -16105.543 -13459.674 3044.115 53076.37 -7729.6865 28303.459 -33420.24 12618.108 -29252.926 -46540.21 21611.99 -35300.703 16324.478 25539.725 31.164717 -21405.305 1671.0813 -2220.0032 -15898.083 -28432.014 -20589.527 -16149.491 -15904.988 80.251015 -9698.807 24299.791 19314.836 -19463.809 -5899.281 -38988.72 1159.3738 -43300.902 -3342.4988 -5245.899 -22830.107 -3258.9512 -63.910683 -11826.927 25902.531 -18681.8 -13955.148 35566.43 18638.65 -2376.5088 -25570.217 13277.804 -38859.453 -26094.15 -9718.117 32440.582 -6208.9614 -21755.602 3161.6497 -32454.998 25271.707 20135.5 15027.49 -3283.0251 36013.793 -17333.041 21392.234 -40272.75 -30362.4 -5785.2017 -20958.875 11633.544 -6321.435 -25647.686 13823.291 -52655.195 41258.75 8625.539 18215.137 -22439.898 -8569.095 -1009.3578 -17920.975 -3300.5154 13484.333 25151.71 -10318.223 -14886.357 14374.525 -30513.78 -14392.245 4412.71 -20166.398 -3441.7385 2802.205 10459.266 -18971.24 -19422.719 5625.279 3402.8975 -935.80115 1142.3506 27396.463 7729.2827 -34194.805 32742.324 -41592.89 -22074.889 -10712.453 16062.135 -27370.17 -46814.51 -26515.068 -1282.3198 -14337.305 -895.9004 -7110.125 11625.178 35494.277 13029.744 3373.0886 -23619.156 -24326.088 -7931.12 -28246.96 22348.547 -3941.2524 17549.377 -5610.4326 -18681.72 -24659.293 32947.785 9776.771 -20223.785 -12988.346 -16424.04 -35441.867 54653.258 -196.05635 -17677.879 34841.332 21925.266 7801.428 10839.977 -1778.2665 26819.248 4292.1694 -14196.012 14284.797 3460.3044 -26402.67 -12978.535 -19695.547 -2494.2834 -16707.754 20258.83 18892.738 -11183.227 15048.42 -19196.018 -5236.886 27089.965 26242.045 28418.607 10498.514 8045.505 5979.5356 -7412.504 26264.803 2075.5852 31280.52 -4923.6294 -18891.299 5657.083 -40793.51 17188.959 -15647.467 19484.36 32855.367 20218.848 26077.174 53518.313 -13496.354 -15324.254 -25914.707 4209.59 -11213.479 -15560.832 -3710.8403 -7486.9717 -7775.2046 10133.279 137.13605 7646.958 -20398.414 -13343.592 25044.469 -10980.998 -8600.713 1374.4069 -29863.525 -27119.543 -1649.4585 8037.302 10220.875 -58375.92 -16790.523 -10976.795 -31370.129 48064.926 33395.523 -1709.4445 6179.576 -13452.761 -12189.818 -22465.357 -7954.7573 -22608.139 11145.801 649.15436 12659.434 23208.309 -14867.007 5688.433 -36796.86 -27493.098 -693.2258 15116.264 16778.027 -7648.1006 -19191.143 -34980.246 7460.0454 26630.35 3793.3743 -65143.324 20740.582 -16985.932 -38569.613 -1969.155 4.984563 -10136.319 48049.313 -7079.9326 21848.502 -19624.27 -12261.066 -15064.393 -15801.877 8896.214 13455.353 -43717.43 -31505.766 45287.234 -40746.62 -25588.85 -8722.612 7574.294 -9603.131 -21715.87 10552.73 13846.873 8461.4375 -23922.703 -9505.229 9930.627 12319.021 5046.6743 10467.203 -15652.632 3760.437 -10318.813 -8338.191 3904.5137 7571.376 -17305.299 4879.7744 -1386.7258 -18214.627 -4157.659 34753.914 -23977.188 15685.319 4575.8276 -4329.2446 -19613.604 -25875.455 14533.509 3315.575 18365.865 16076.744 -1280.9064 39352.563 -11684.377 7834.3496 28401.842 7558.075 8215.071 -8677.88 -17282.299 -41700.836 9513.523 9712.467 -12536.611 -2940.4668 2322.9207 34658.63 1606.4398 7345.1704 -20379.383 -9001.453 -24759.463 16559.77 3741.8171 2442.063 21184.299 7947.1123 -15914.964 12819.816 34308.32 8497.719 -434.51813 19969.014 17673.334 15050.445 13963.549 -26074.158 -12570.266 -24053.994 12915.62 -1207.7849 -6520.7686 41379.9 -15116.36 -13583.586 12350.678 -21628.313 7234.14 17501.43 8261.148 -12423.373 3012.341 5488.859 10767.921 11855.002 23660.783 10104.671 -6523.39 793.1802 20824.271 -10600.589 -22914.72 26689.805 16163.368 -19849.93 34677.797 -12537.2 -38488.76 12869.377 15600.643 6732.5806 -34210.31 -17131.666 13922.016 19883.47 -4166.2686 -25717.213 -26291.94 5953.86 -10014.742 -9206.041 -11267.326 872.2257 32940.53 3563.9336 -22394.732 -23977.225 21533.293 3080.638 15598.566 22663.77 -14444.211 38119.375 -10760.691 3533.0764 -2336.6714 -21049.186 21517.408 -11013.337 33301.28 -1984.3801 -12482.446 5660.1914 -107.32065 -43854.766 -10894.729 -1499.0526 32091.463 -9615.875 -38586.613 -14724.442 -1590.9402 112.46066 -4127.756 11813.687 -39371.184 3204.4429 -27010.734 -21789.475 24490.607 2312.1023 -25033.627 22611.326 -38417.816 3427.0898 -17228.293 22429.46 2445.1306 -13120.045 -4831.5386 7567.1875 -29891.055 25703.697 39775.938 -16291.077 241.58095 -14944.03 139.95352 7034.8047 33816.92 -21024.371 -1004.78424 4287.9565 6656.789 -9309.853 -4780.4424 15406.331 -7609.1514 10992.314 -631.5665 20846.428 31758.066 -67872.32 -20560.59 10366.024 28303.314 -72504.37 57178.043 -8982.553 4294.736 36289.633 -13955.833 40705.02 -16516.023 -71988.7 -2238.5647 -21845.498 -3798.6296 -36767.5 9160.39 -12194.828 4089.2441 39854.043 -33532.453 -16530.408 6978.4463 -1206.3634 27227.639 -5955.229 4161.8755 -12030.495 35255.12 -9963.039 -20524.504 8334.826 -10603.052 -35971.24 -11079.635 -17345.604 -13683.099 -17868.406 8109.6255 7463.765 34307.992 -50074.273 -13023.321 11158.711 -17572.752 13422.549 -12247.316 -2554.4082 23411.11 4534.302 -10197.319 3560.3865 -2939.1384 -13696.325 -24632.707 21035.354 -15174.399 20921.771
afford -80305.53 60868.85 4368.138 33049.207 -2775.2131 -8093.7817 -10601.262 -55338.316 -36304.066 19604.107 -56116.92 199441.27 -17554.953 -35298.875 24669.482 -39256.84 23969.385 -26916.742 -179029.78 -100567.36 -116969.36 22307.898 -60708.742 -25649.66 -56714.863 -15287.105 8599.192 6521.324 72210.84 72215.445 -6239.5264 -53450.707 -18411.021 37704.227 -5566.67 13621.579 61598.34 30261.098 -28538.814 102649.63 59269.586 -23500.54 73782.516 30213.367 -182395.72 -15191.276 -38955.27 80588.46 31900.57 -37559.934 69381.92 45650.434 62142.758 -4530.981 -43230 -34105.34 110904.16 -42035.313 -21926.895 38877.523 32283.066 -26026.947 -12514.902 58397.184 -1050.4364 -41511.88 6342.34 36777.633 59447.363 16754.055 34626.02 102201.336 -41125.906 35988.22 66492.71 32557.826 -111471.164 25321.795 23636.758 -13999.306 45831.875 44211.332 15469.793 -90102.46 51450.25 45353.95 45244.793 92449.82 -66298.38 51522.734 26245.314 59760.633 -9185.437 17607.94 50764.094 5893.9585 -141855.52 -108009.6 -1343.6963 17633.47 6655.3384 19967.918 42037.7 2828.2317 -73079.63 106009.586 3836.321 50885.707 -67424.92 -49150.52 -113441.266 -25071.645 30406.688 28596.453 28734.924 -60245.98 65255.684 29791.594 1249.6987 -5759.003 -145444.44 -9181.807 -75356.74 -147006.63 -48365.906 66891.14 -11872.364 -144352.95 -3985.1995 -34552.508 -48490.246 31712.594 22688.203 112926.29 -9079.172 65385.996 -24866.197 -21757.068 -108256.445 -31903.07 15614.125 21558.967 -8314.186 -7424.9326 -28093.922 -12512.033 34020.133 20608.154 -93745.305 134173.73 -77108.83 -60645.92 -13893.538 90361.61 77040.234 13345.312 82043.91 8626.275 -87425.27 -146033.36 95316.586 67909.14 -44791.223 63091.98 44838.246 -40938.203 34819.582 2985.7927 -73316.984 -9258.226 105723.22 -24448.426 50037.46 42581.883 37297.844 31166.281 14348.643 -60877.406 20480.877 30762.943 20304.285 -24056.97 -20136.541 -2540.4578 9787.469 67150.734 -6992.5664 -27505.338 -9230.518 5001.5474 -9112.092 -36817.746 -105986.31 64644.85 80791.18 14080.81 -58607.71 118340.42 27092.994 49.754265 -36204.227 -18782.783 -26727.33 -79610.93 31296.479 -42516.125 -35530.777 8034.999 140116.39 -20405.934 74716.88 -88226.41 33309.098 -77224.75 -122861.49 57054.28 -93190.17 43094.625 67421.914 82.37337 -56508.37 4410.3677 -5860.132 -41970.727 -75056.73 -54354.02 -42632.887 -41987.62 212.13448 -25604.596 64149.375 50989.777 -51381.535 -15573.704 -102924.87 3060.2546 -114310.11 -8823.934 -13848.792 -60268.4 -8602.855 -167.46916 -31222.615 68380.445 -49316.51 -36840.93 93890.13 49204.742 -6273.749 -67502.414 35050.54 -102584.95 -68884.58 -25655.611 85638.29 -16391.135 -57432.07 8346.391 -85678.86 66713.53 53155.938 39671.188 -8666.226 95071.31 -45756.73 56472.395 -106315.47 -80154.586 -15271.596 -55328.027 30710.732 -16688.504 -67707.83 36492.38 -139004.38 108917.766 22770.727 48086.086 -59237.29 -22622.365 -2663.4849 -47307.586 -8713.066 35595.727 66398.984 -27239.4 -39297.75 37948.29 -80552.53 -37994.62 11649.841 -53237.383 -9087.267 7396.3643 27611.152 -50081.58 -51274.227 14849.951 8983.479 -2470.8413 3015.6875 72323.89 20405.092 -90271.16 86437.09 -109801.46 -58275.395 -28280.613 42400.813 -72253.76 -123585.34 -69997.13 -3384.3838 -37847.74 -2364.111 -18768.53 30689.082 93700.28 34395.527 8902.82 -62351.69 -64217.914 -20937.23 -74569.25 58999.28 -10405.945 46327.316 -14810.78 -49317.773 -65097.938 86979.414 25808.984 -53387.75 -34288.71 -43357.332 -93562.78 144276.56 -516.4468 -46667.535 91978.555 57880.098 20595.889 28616.996 -4694.78 70799.91 11330.189 -37474.44 37710.254 9134.18 -69700.836 -34260.867 -51993.043 -6583.6943 -44107.21 53482.367 49874.97 -29522.404 39725.727 -50675.53 -13824.453 71512.91 69275.47 75021.6 27714.209 21239.479 15785.246 -19569.62 69337.46 5478.653 82577.55 -12997.227 -49870.01 14932.954 -107689.24 45376.65 -41307.45 51436.28 86734.85 53375.824 68842.25 141281.22 -35627.84 -40454.273 -68413.23 11113.885 -29603.691 -41079.3 -9796.894 -19763.328 -20524.453 26751.28 363.326 20186.342 -53849.254 -35226.44 66115.99 -28988.338 -22705.145 3627.4773 -78835.15 -71591.03 -4356.063 21218.676 26981.598 -154106.38 -44326.516 -28976.984 -82814.195 126886.03 88161.21 -4512.6577 16312.6 -35514.46 -32181.396 -59306.895 -20999.223 -59683.875 29423.07 1714.7325 33418.82 61267.27 -39246.645 15017.078 -97140.51 -72578.19 -1828.6328 39906.574 44291.14 -20189.984 -50662.53 -92343.125 19693.283 70300.33 10013.4 -171971.7 54752.117 -44841.51 -101819.27 -5199.1836 12.856355 -26759.496 126843.09 -18689.832 57676.836 -51805.18 -32367.453 -39768.152 -41715.04 23484.893 35520.17 -115410.24 -83171.12 119554.195 -107565.85 -67550.695 -23026.469 19994.361 -25350.48 -57326.215 27857.262 36553.234 22337.555 -63152.7 -25092.447 26214.402 32519.783 13321.345 27633.46 -41320.934 9927.068 -27241.352 -22011.506 10307.17 19988.154 -45684.664 12880.8545 -3660.4563 -48084.82 -10976.31 91746.05 -63296.418 41406.47 12079.013 -11427.688 -51778.844 -68308.11 38366.434 8752.826 48484.855 42440.445 -3381.0461 103886.375 -30845.492 20682.125 74977.45 19952.662 21686.469 -22909.684 -45621.863 -110085.29 25116.137 25638.807 -33096.586 -7762.869 6132.6294 91493.5 4239.727 19389.363 -53799.086 -23761.664 -65362.746 43716.902 9876.888 6447.8076 55924.168 20978.71 -42014.24 33843.93 90569.62 22432.428 -1148.4702 52715.38 46655.67 39731.086 36861.75 -68831.57 -33185.344 -63500.066 34097.113 -3187.3452 -17215.389 109238.1 -39906.715 -35858.39 32603.904 -57096.51 19096.959 46203.082 21807.89 -32796.33 7952.989 14490.418 28427.092 31295.201 62460.516 26673.605 -17220.844 2094.3079 54972.9 -27984.555 -60491.08 70458.97 42668.99 -52401.492 91543.86 -33095.957 -101605.19 33973.92 41184.215 17771.701 -90312.38 -45226.707 36753.65 52489.707 -10998.59 -67890.14 -69407.17 15719.098 -26436.777 -24301.867 -29745.283 2303.1821 86959.73 9408.626 -59119.105 -63297.047 56846.063 8133.431 41179.96 59828.387 -38130.758 100631.1 -28407.537 9327.391 -6168.127 -55568.137 56804.137 -29074.26 87912.64 -5239.8203 -32951.086 14941.73 -283.82983 -115770.87 -28761.305 -3956.2483 84716.65 -25383.816 -101864.01 -38871.887 -4199.9575 296.35333 -10896.127 31186.162 -103933.7 8458.074 -71305.67 -57520.734 64651.047 6102.8726 -66086.41 59691.05 -101419.805 9047.713 -45479.906 59212.156 6454.0938 -34636.227 -12754.001 19975.793 -78908.305 67854.01 105002.88 -43005.953 637.6161 -39451.22 369.98 18570.736 89273.664 -55501.535 -2651.7017 11319.323 17573.709 -24575.352 -12619.26 40670.766 -20086.633 29017.398 -1666.6442 55033.004 83836.41 -179174.95 -54277.7 27366.16 74716.35 -191404.05 150943.77 -23711.877 11337.271 95801.27 -36840.332 107456.375 -43599.586 -190041.98 -5908.822 -57670.156 -10029.469 -97061.7 24181.627 -32193.873 10795.647 105208.53 -88522.41 -43639.313 18423.04 -3184.74 71878.61 -15720.132 10987.191 -31759.076 93070.59 -26301.611 -54181.426 22001.61 -27990.37 -94959.32 -29250.23 -45789.24 -36122.957 -47169.973 21407.162 19703.832 90569.3 -132190.38 -34381.62 29456.793 -46390.957 35433.855 -32333.209 -6742.9653 61802.773 11968.844 -26920.22 9399.285 -7757.893 -36157.355 -65027.863 55531.797 -40057.668 55232.094
after -103826.195 78697.85 5646.646 42728.836 -3587.8376 -10464.805 -13707.12 -71546.79 -46937.395 25346.117 -72553.875 257856 -22697.145 -45636.863 31895.037 -50755.152 30989.883 -34800.8 -231466.53 -130022.36 -151229.03 28842.486 -78489.31 -33161.54 -73326.695 -19763.725 11117.483 8430.892 93360.414 93367.02 -8068.11 -69105.875 -23803.033 48747.34 -7197.1035 17611.781 79639.65 39124.367 -36897.945 132715.08 76629.65 -30382.814 95393.31 39061.746 -235818.69 -19641.344 -50365.77 104192.46 41244.445 -48560.746 89702.984 59021.68 80343.016 -5857.835 -55891.91 -44094.03 143386.38 -54346.746 -28348.03 50263.742 41738.2 -33649.547 -16180.432 75501.13 -1359.1799 -53670.5 8200.727 47550.223 76859.375 21660.8 44768.188 132135.75 -53171.414 46527.906 85967.23 42093.594 -144120.78 32738.488 30560.71 -18099.494 59255.586 57160.547 20000.99 -116493.61 66519.54 58637.375 58496.645 119528.74 -85716.3 66613.76 33931.89 77263.82 -11876.599 22765.629 65633.016 7619.961 -183403.6 -139644.89 -1737.565 22798.914 8604.685 25817.258 54350.223 3656.32 -94485.195 137059.73 4959.581 65789.336 -87173.484 -63546.582 -146666.84 -32414.88 39312.867 36972.063 37151.38 -77891.35 84369.164 38517.1 1615.816 -7445.816 -188043.78 -11871.46 -97427.78 -190063.27 -62532.836 86483.375 -15349.328 -186633.03 -5152.291 -44672.51 -62692.56 41000.605 29332.984 146001.61 -11738.787 84536.664 -32149.707 -28130.29 -139965.1 -41247.145 20187.57 27873.148 -10749.838 -9599.385 -36321.543 -16176.488 43984.742 26643.875 -121203.734 173472.06 -99693.71 -78408.05 -17963.852 116827.59 99605.18 17253.582 106074.336 11152.518 -113031.39 -188805.63 123233.76 87799.53 -57910.203 81571.29 57971.91 -52927.805 45017.957 3860.5833 -94790.88 -11970.281 136688.48 -31609.416 64693.832 55053.594 48222.543 40294.133 18551.781 -78708.234 26479.809 39773.77 26251.258 -31102.842 -26034.074 -3284.592 12654.619 86818.55 -9040.99 -35562.215 -11933.3545 6467.4097 -11780.051 -47601.824 -137028.48 83578.05 104454.266 18204.938 -75773.06 153001.55 35028.98 64.12159 -46808.37 -24283.842 -34555.402 -102929.48 40462.492 -54968.42 -45938.242 10388.506 181155.77 -26383.082 96600.83 -114068.01 43065.418 -99842.766 -158845.9 73765.42 -120485.54 55715.74 87169.33 105.7955 -73059.59 5702.433 -7576.4463 -54263.24 -97041.22 -70273.26 -55119.855 -54285.74 273.69812 -33103.77 82937.55 65924.65 -66430.16 -20135 -133071.55 3956.5203 -147790.27 -11408.817 -17904.584 -77920.11 -11122.644 -216.87949 -40367.563 88408.805 -63761.21 -47631.395 121390.52 63616.668 -8112.213 -87273.19 45316.934 -132631.11 -89060.36 -33169.418 110721.25 -21191.88 -74254.02 10790.655 -110773.34 86253.125 68724.7 51290.72 -11204.301 122917.414 -59157.805 73012 -137454.28 -103630.39 -19744.432 -71532.336 39705.563 -21576.6 -87538.72 47180.945 -179718.4 140818.67 29440.482 62170.492 -76587.734 -29248.125 -3443.9844 -61164.43 -11265.167 46021.86 85846.31 -35216.934 -50807.457 49062.64 -104145.62 -49123.76 15062.695 -68830.52 -11748.518 9562.803 35699.03 -64750.273 -66293.23 19199.1 11614.701 -3193.9167 3899.5125 93507.11 26380.588 -116710.945 111754.15 -141960.92 -75344.23 -36563.61 54820.152 -93416.36 -159783.08 -90498.63 -4375.5444 -48932.816 -3055.9417 -24266.701 39677.02 121144.82 44470.566 11510.618 -80613.3 -83026.47 -27070.303 -96410.32 76279.27 -13453.195 59896.383 -19148.584 -63763.438 -84164.8 112454.08 33368.344 -69025.11 -44331.305 -56057.086 -120967.27 186535.16 -667.2435 -60336.617 118918.164 74833.164 26628.021 36998.94 -6070.4224 91536.58 14648.854 -48450.344 48754.695 11810.305 -90115.25 -44295.3 -67222.39 -8512.402 -57025.926 69146.48 64483.273 -38169.04 51361.887 -65517.75 -17872.648 92458.695 89566.36 96995.27 35830.99 27460.406 20409.045 -25301.379 89645.37 7083.1855 106763.86 -16804.412 -64476.758 19307.566 -139231.44 58666.918 -53406.27 66501.625 112138.44 69009 89005.06 182661.72 -46063.395 -52303.625 -88450.06 14369.293 -38273.93 -53111.094 -12666.474 -25552.01 -26535.902 34586.55 470.0526 26098.783 -69620.69 -45543.895 85480.836 -37478.43 -29355.877 4690.1733 -101925.71 -92560.6 -5630.9736 27433.555 34883.746 -199243.9 -57309.65 -37464.926 -107069.234 164050 113983.09 -5834.346 21090.084 -45916.227 -41606.93 -76677.836 -27150.205 -77165.41 38040.98 2216.8416 43206.723 79212.57 -50741.18 19415.62 -125591.64 -93835.66 -2365.3254 51594.293 57263.184 -26102.506 -65501.734 -119390.086 25461.193 90891.08 12946.625 -222340.53 70788.14 -57975.383 -131641.52 -6722.3076 17.523232 -34597.816 163995.45 -24164.107 74570.13 -66978.766 -41847.04 -51415.97 -53933.574 30362.658 45923.95 -149213.19 -107532.14 154569.84 -139070.95 -87335.305 -29770.385 25850.559 -32776.316 -74116.78 36015.71 47258.965 28880.396 -81649.17 -32441.357 33892.66 42044.66 17224.123 35726.805 -53422.746 12834.3 -35219.586 -28458.926 13326.118 25842.355 -59066.137 16654.129 -4731.978 -62168.848 -14191.1045 118618.39 -81835.09 53533.84 15617.666 -14774.111 -66944.45 -88314.25 49604.164 11316.294 62685.375 54870.234 -4370.9736 134313.56 -39880.508 26739.646 96938.03 25796.648 28038.104 -29619.768 -58984.9 -142327.94 32472.533 33148.24 -42790.195 -10036.468 7928.459 118291.35 5482.48 25068.436 -69556.66 -30721.701 -84506.73 56521.18 12770.19 8335.906 72303.81 27122.748 -54319.68 43756.176 117096.95 29002.426 -1484.4568 68155.37 60320.35 51368.445 47658.246 -88992.01 -42904.914 -82098.68 44083.47 -4120.854 -22257.701 141233.55 -51594.273 -46361.484 42152.66 -73820.11 24691.154 59735.387 28195.205 -42401.723 10282.106 18734.041 36753.426 40461.27 80755.125 34486.652 -22264.484 2707.3833 71073.664 -36181.85 -78208.38 91096.766 55167.45 -67749.445 118356.97 -42789.47 -131365.13 43925.03 53246.605 22977.344 -116764.11 -58472.793 47519.1 67863.72 -14220.873 -87773.734 -89736.984 20322.78 -34179.684 -31419.502 -38458.496 2977.011 112430.19 12164.83 -76434.16 -81836.09 73495.46 10515.686 53240.957 77351.58 -49298.695 130105.01 -36727.805 12059.653 -7974.7603 -71843.625 73441.86 -37589.098 113660.9 -6774.535 -42602.613 19319.016 -366.7444 -149679.39 -37185.78 -5114.7607 109529.375 -32818.91 -131700.11 -50256.97 -5430.2505 382.3561 -14087.126 40321.117 -134375.75 10935.77 -92190.625 -74368.57 83586.7 7890.267 -85442.86 77174.57 -131124.86 11698.285 -58801.043 76554.89 8344.398 -44781.207 -16490.23 25825.816 -102019.24 87728.266 135757.77 -55601.363 823.4412 -51006.95 477.62292 24010.295 115421.37 -71756.88 -3428.4946 14634.975 22721.01 -31773.463 -16314.736 52582.434 -25970.11 37517.4 -2155.1519 71151.97 108392.3 -231654.53 -70175.85 35381.418 96600.51 -247465.27 195153.67 -30656.313 14658.842 123861.18 -47630.82 138929.98 -56369.117 -245704.55 -7639.621 -74561.44 -12966.279 -125490.375 31264.102 -41623.32 13957.672 136024.3 -114449.586 -56420.227 23818.832 -4118.1333 92931.766 -20325.375 14204.383 -41060.547 120330.35 -34004.676 -70051.266 28445.813 -36188.324 -122772.77 -37817.336 -59200.6 -46702.69 -60985.5 27677.775 25475.2 117096.7 -170907.47 -44451.473 38085.08 -59978.41 45811.9 -41802.613 -8718.065 79904.45 15473.947 -34805.508 12151.756 -10030.39 -46748.25 -84073.81 71797.37 -51789.773 71409.06
again -114946.516 87125.71 6252.0933 47304.527 -3972.392 -11585.14 -15174.95 -79209.99 -51963.758 28060.572 -80324.16 285472.47 -25128.197 -50524.88 35310.473 -56190.227 34309.51 -38527.816 -256256.77 -143948.31 -167425.95 31930.842 -86895.64 -36713.316 -81180.125 -21880.604 12308.07 9333.592 103359.2 103366.9 -8931.303 -76506.35 -26352.563 53968.72 -7967.8857 19497.78 88168.85 43314.18 -40849.887 146929.67 84836.89 -33636.83 105609.81 43246.15 -261075.02 -21744.727 -55759.848 115351.97 45661.78 -53761.285 99310.03 65342.953 88948.21 -6485.32 -61877.73 -48817.227 158743.44 -60167.137 -31385.129 55647.89 46208.2 -37253.973 -17913.068 83587.555 -1504.205 -59418.184 9078.607 52642.613 85090.89 23980.535 49562.79 146287.8 -58866.184 51511.49 95175.1 46601.59 -159555.8 36244.703 33833.6 -20037.705 65602.484 63281.535 22143.879 -128970.055 73643.98 64918.51 64761.73 132329.81 -94896.016 73747.88 37566.04 85538.75 -13148.207 25203.559 72661.45 8436.042 -203047.06 -154600.89 -1923.6703 25240.158 9526.034 28582.11 60171.65 4048.224 -104604.02 151738.64 5491.371 72835.945 -96509.32 -70352.41 -162375.1 -35886.477 43523.23 40932.07 41131.098 -86234.234 93405.06 42642.863 1788.2594 -8242.369 -208183.44 -13142.266 -107862.336 -210419.5 -69229.96 95746.234 -16992.578 -206621.34 -5704.694 -49456.473 -69406.19 45392.04 32474.068 161638.05 -12995.805 93590.27 -35593.18 -31142.568 -154954.72 -45665.152 22350.193 30859.37 -11900.614 -10627.634 -40212.47 -17909.506 48694.855 29497.906 -134184.39 192051.11 -110370.76 -86806.375 -19886.746 129339.84 110272.68 19101.484 117435.17 12347.346 -125137.09 -209026.38 136432.72 97203.2 -64112.055 90308.17 64179.926 -58596.395 49839.516 4274.0454 -104943.07 -13251.628 151328.34 -34994.566 71622.67 60949.99 53386.74 44609.25 20538.008 -87137.836 29315.838 44032.953 29063.244 -34433.797 -28822.24 -3635.5974 14009.766 96116.125 -10009.905 -39370.816 -13211.965 7159.5313 -13042.006 -52699.69 -151704.73 92529.664 115640.94 20155.273 -83888.98 169387.83 38780.855 71.106094 -51821.48 -26885.334 -38256.203 -113952.484 44796.33 -60855.93 -50857.703 11501.168 200558.44 -29209.154 106946.56 -126284.73 47677.188 -110535.89 -175858.47 81665.16 -133389.48 61683.344 96505.305 117.77316 -80884.41 6312.8223 -8387.395 -60074.51 -107434.07 -77799.805 -61023.02 -60100.566 303.66934 -36649.14 91820.51 72985.11 -73545.516 -22291.512 -147322.88 4379.482 -163618.78 -12630.476 -19822.127 -86265.63 -12313.816 -240.03694 -44690.805 97876.9 -70589.945 -52732.766 134391.2 70430.836 -8980.342 -96620.31 50170.313 -146836.31 -98598.63 -36722.656 122579.42 -23461.943 -82206.28 11946.828 -122637.164 95490.62 76085.44 56783.953 -12404.784 136082.34 -65494.426 80831.71 -152175.31 -114729.61 -21858.97 -79194.23 43958.406 -23887.188 -96913.98 52234.242 -198965.92 155900.31 32593.682 68829.01 -84791.125 -32380.975 -3812.557 -67715.22 -12471.654 50951.117 95040.94 -38989.113 -56248.688 54317.61 -115299.375 -54385.07 16675.25 -76201.96 -13006.55 10587.0625 39521.984 -71685.78 -73393.01 21255.875 12857.6455 -3536.2727 4316.921 103521.7 29206.12 -129211.11 123723.46 -157165.63 -83413.65 -40479.38 60691.05 -103421.61 -176896.16 -100191.38 -4844.6396 -54173.457 -3383.4175 -26865.152 43926.836 134120.02 49233.414 12744.11 -89247.44 -91918.125 -29969.35 -106736.15 84449.016 -14894.041 66311.88 -21199.371 -70592.4 -93178.91 124498.48 36942.51 -76417.81 -49078.94 -62059.918 -133922.66 206512.88 -738.8778 -66798.47 131653.88 82847.336 29480.031 40961.72 -6720.6646 101340.27 16218.081 -53640.168 53976.516 13074.423 -99766.625 -49039.793 -74421.72 -9424.486 -63133.61 76552.78 71388.94 -42257.023 56862.84 -72535.086 -19787.48 102360.86 99157.94 107383.68 39669.332 30402.012 22594.451 -28010.303 99246.48 7841.263 118197.86 -18603.992 -71382.27 21375.09 -154142.7 64950.836 -59125.715 73623.99 124148.81 76399.6 98537.766 202224.19 -50995.953 -57904.453 -97923.39 15907.998 -42372.63 -58799.36 -14022.881 -28289.057 -29378.432 38291.406 520.32196 28894.459 -77077.45 -50422.387 94635.81 -41492.45 -32499.918 5192.394 -112841.84 -102473.86 -6234.4375 30371.445 38619.563 -220582.95 -63446.766 -41477.5 -118536.43 181619.3 126190.94 -6460.002 23348.996 -50834.44 -46062.527 -84889.83 -30057.656 -85429.4 42115.64 2453.4988 47834.72 87695.66 -56175.914 21494.412 -139043.4 -103884.93 -2618.2034 57120.582 63396.457 -28899.006 -72517.31 -132176.31 28187.416 100626.51 14332.907 -246153.52 78370.48 -64184.43 -145739.67 -7442.3833 19.098703 -38303.313 181559 -26752.666 82556.73 -74152.13 -46329.48 -56923.094 -59709.605 33615.34 50841.617 -165194.05 -119048.875 171125.48 -153966.42 -96688.836 -32958.53 28619.902 -36286.89 -82055.06 39873.082 52320.637 31972.766 -90393.97 -35916.34 37521.934 46547.285 19068.13 39552.875 -59145.156 14208.941 -38992.31 -31507.215 14753.342 28610.188 -65391.645 18437.525 -5239.1514 -68827.1 -15710.5625 131322.78 -90599.26 59267.305 17289.818 -16356.838 -74114.35 -97773.41 54916.426 12528.333 69399.71 60747 -4839.638 148699.44 -44151.24 29603.346 107319.695 28560.125 31041.457 -32792.48 -65301.26 -157571.64 35949.68 36698.645 -47372.45 -11111.816 8777.798 130961.01 6068.682 27753.14 -77006.195 -34012.105 -93557.74 62575.383 14137.087 9228.465 80047.76 30027.936 -60138.258 48443.44 129637.555 32109.186 -1644.2333 75454.74 66780.586 56869.637 52761.65 -98523.055 -47499.695 -90891.87 48805.168 -4562.0166 -24641.324 156359.4 -57120.09 -51326.305 46668.188 -81726.266 27335.723 66133 31214.979 -46943.3 11383.262 20740.69 40689.61 44794.438 89403.85 38180.074 -24650.037 2997.1475 78686.53 -40057.156 -86584.44 100852.984 61075.977 -75004.805 131033.49 -47372.266 -145434.02 48629.945 58949.688 25438.557 -129270.09 -64735.39 52607.867 75131.48 -15743.634 -97174.43 -99347.42 22499.738 -37839.996 -34784.633 -42576.75 3296.1526 124471.734 13467.18 -84620.14 -90601.22 81367.164 11641.555 58943.152 85636.38 -54579.21 144039.75 -40661.695 13350.583 -8828.227 -79538.73 81307.62 -41615.043 125834.65 -7500.21 -47165.56 21388.146 -405.77966 -165711.02 -41168.313 -5662.8535 121260.59 -36334.2 -145805.56 -55640.105 -6012.713 423.71326 -15596.246 44639.395 -148767.47 12106.553 -102064.2 -82333.695 92538.93 8736.282 -94594.18 85440.266 -145168.38 12951.016 -65098.824 84754.57 9238.03 -49577.563 -18255.53 28592.408 -112945.6 97123.914 150297.38 -61556.9 911.5104 -56469.02 528.395 26581.854 127783.164 -79442.36 -3795.033 16201.92 25154.465 -35177.277 -18062.195 58214.363 -28751.674 41535.316 -2385.6125 78772.875 120001.13 -256464.89 -77691.13 39170.504 106946.1 -273969.2 216055.17 -33940.31 16227.966 137127.06 -52733.008 153809.66 -62407.07 -272019.66 -8457.081 -82547.09 -14355.688 -138930.14 34612.46 -46080.637 15452.184 150591.77 -126707.35 -62463.65 26369.746 -4559.5244 102884.375 -22501.943 15725.958 -45459.184 133217.73 -37647.375 -77553.234 31492.719 -40064.953 -135921.2 -41867.816 -65541.18 -51705.1 -67517.3 30642.002 28203.76 129637.95 -189212.61 -49212.03 42163.66 -66402.4 50718.402 -46279.664 -9651.142 88461.62 17131.275 -38532.81 13453.16 -11103.996 -51755.21 -93078.21 79486.31 -57336.77 79057.125
ago -51131.605 38757.02 2780.5718 21042.654 -1766.9377 -5154.0576 -6750.4946 -35235.473 -23115.268 12482.017 -35730.555 126987.5 -11177.537 -22475.572 15707.315 -24995.338 15261.865 -17138.527 -113991.67 -64032.5 -74476.65 14204.36 -38654.17 -16331.767 -36111.24 -9733.652 5474.6577 4152.4023 45977.6 45981.22 -3973.499 -34033.15 -11722.546 24006.617 -3544.5554 8673.246 39221.023 19267.307 -18171.645 65359.555 37738.64 -14962.693 46978.555 19237.604 -116135.266 -9672.593 -24803.98 51312.082 20312.191 -23915.215 44176.707 29066.533 39567.293 -2884.751 -27525.213 -21715.57 70613.984 -26764.258 -13961.092 24754.363 20555.035 -16571.38 -7968.712 37182.723 -669.0565 -26430.854 4038.249 23417.125 37851.203 10667.329 22047.578 65074.07 -26185.508 22913.848 42336.645 20729.47 -70976.21 16122.411 15050.101 -8912.942 29181.848 28149.568 9850.378 -57370.25 32759.373 28877.63 28808.295 58864.84 -42213.598 32804.934 16711.219 38050.84 -5848.8696 11211.582 32321.969 3752.9421 -90322.336 -68771.484 -855.6736 11228.337 4237.4546 12713.811 26766.598 1800.124 -46531.586 67498.664 2442.98 32399.36 -42930.805 -31295.127 -72230.234 -15962.97 19361.17 18207.701 18296.549 -38359.96 41549.895 18969.072 795.9071 -3666.6714 -92607.52 -5846.7705 -47980.64 -93601.75 -30795.273 42590.57 -7558.5527 -91912.19 -2537.6028 -22000.094 -30874.814 20191.512 14445.813 71902.04 -5780.742 41631.95 -15832.88 -13853.222 -68929.66 -20313.617 9942.421 13727 -5293.9893 -4727.7983 -17887.805 -7966.4077 21661.396 13121.253 -59689.45 85430.49 -49096.957 -38613.766 -8846.711 57535.086 49052.87 8496.57 52238.5 5492.4697 -55665.656 -92982.055 60689.426 43238.836 -28518.9 40172.33 28549.451 -26066.246 22170.354 1900.8805 -46682.28 -5894.5347 67315.98 -15567.214 31859.652 27112.459 23748.023 19843.459 9136.505 -38762.336 13040.528 19587.23 12927.792 -15317.147 -12821.524 -1617.2179 6232.1924 42755.38 -4452.7847 -17513.285 -5877.3916 3184.9626 -5801.486 -23442.568 -67483.625 41160.52 51440.902 8966.108 -37316.26 75349.625 17251.12 31.511366 -23051.977 -11959.042 -17017.633 -50689.723 19927.281 -27070.389 -22623.482 5115.9214 89215.13 -12993.455 47573.973 -56176.055 21208.148 -49170.54 -78227.81 36327.176 -59335.598 27439.047 42928.68 51.903515 -35979.93 2807.9734 -3730.7673 -26723.146 -47790.164 -34608.492 -27145.205 -26734.436 135.13048 -16302.832 40844.727 32465.86 -32715.543 -9915.532 -65534.164 1947.8536 -72783.64 -5618.372 -8817.211 -38373.375 -5477.003 -107.288185 -19880.158 43539.133 -31400.662 -23456.717 59781.965 31330.23 -3995.2856 -42979.95 22316.996 -65317.523 -43860.465 -16335.347 54527.25 -10436.57 -36568.465 5314.371 -54553.23 42477.945 33844.984 25259.21 -5517.524 60533.863 -29134.01 35956.656 -67692.8 -51035.293 -9723.894 -35228.42 19553.848 -10626.066 -43110.4 23235.475 -88507.266 69349.81 14498.898 30617.967 -37717.754 -14403.8955 -1695.807 -30121.908 -5547.629 22665.2 42277.574 -17343.678 -25021.82 24161.691 -51289.24 -24192.512 7418.157 -33896.65 -5786.0415 4709.685 17580.715 -31887.816 -32647.896 9455.376 5719.2617 -1573.1099 1920.5717 46050.215 12991.928 -57477.06 55035.72 -69912.12 -37105.133 -18006.98 26997.729 -46004.92 -78689.66 -44568.293 -2155.2 -24097.986 -1505.4451 -11950.817 19540.395 59660.953 21900.105 5669.381 -39699.707 -40888.605 -13331.439 -47479.984 37565.992 -6625.6797 29497.234 -9429.998 -31401.43 -41449.574 55380.7 16433.121 -33993.234 -21832.098 -27606.402 -59573.535 91863.875 -328.8604 -29713.824 58563.91 36853.742 13113.706 18220.543 -2989.141 45079.324 7214.827 -23860.852 24010.963 5816.1084 -44379.246 -21814.219 -33105.6 -4192.485 -28083.959 34052.887 31756.031 -18797.262 25294.602 -32265.95 -8801.717 45533.5 44109.406 47767.953 17646.473 13523.172 10050.563 -12460.029 44147.84 3488.5205 52578.313 -8275.618 -31753.648 9508.628 -68567.84 28892.283 -26301.434 32750.79 55225.74 33985.36 43833.07 89956.305 -22684.895 -25757.973 -43559.31 7076.6133 -18849.162 -26155.652 -6237.4053 -12584 -13068.287 17032.951 231.06158 12853.022 -34287.063 -22429.871 42097.453 -18456.996 -14456.963 2309.5042 -50195.727 -45583.793 -2773.2053 13510.09 17179.602 -98122.59 -28223.277 -18450.4 -52729.477 80790.07 56134.04 -2873.3093 10386.333 -22612.479 -20490.2 -37762.074 -13370.3955 -38001.63 18734.629 1091.1302 21278.203 39009.85 -24988.553 9561.915 -61850.45 -46211.887 -1165.0454 25409.441 28200.59 -12854.554 -32258.121 -58796.31 12538.805 44761.418 6375.9766 -109497.01 34861.746 -28551.05 -64829.613 -3311.0022 8.811452 -17038.438 80763.92 -11900.447 36724.207 -32985.113 -20608.8 -25320.871 -26560.947 14952.754 22616.102 -73483.23 -52956.527 76122.05 -68489.38 -43010.9 -14661.208 12731.37 -16141.132 -36500.92 17736.684 23273.854 14222.52 -40210 -15976.953 16690.863 20705.404 8482.468 17594.867 -26309.383 6320.517 -17344.748 -14014.949 6563.08 12726.594 -29088.771 8201.728 -2330.6138 -30616.477 -6988.717 58416.9 -40301.37 26364.037 7691.2915 -7276.199 -32968.965 -43493.156 24428.996 5573.4614 30871.445 27022.016 -2152.2993 66146.3 -19640.531 13168.574 47739.54 12704.14 13808.322 -14586.951 -29048.584 -70093.04 15991.674 16325.27 -21072.666 -4942.309 3904.6003 58255.33 2700.0488 12345.689 -34254.65 -15129.886 -41617.51 27835.158 6288.4243 4105.5776 35607.664 13357.34 -26751.775 21548.605 57667.266 14283.414 -730.7988 33565.1 29705.928 25297.922 23469.928 -43826.895 -21129.045 -40431.96 21709.453 -2029.8325 -10961.104 69553.58 -25409.05 -22831.459 20759.861 -36354.38 12159.31 29418.496 13885.582 -20882.04 5063.7896 9226.002 18099.861 19926.709 39769.695 16984 -10964.875 1333.3203 35002.152 -17818.637 -38515.49 44862.707 27168.504 -33364.438 58287.473 -21072.738 -64694.22 21632.21 26222.191 11316.196 -57503.367 -28796.695 23401.611 33421.266 -7003.245 -43226.984 -44192.887 10008.135 -16832.342 -15473.848 -18939.77 1466.5541 55368.81 5990.293 -37641.895 -40302.76 36194.992 5178.573 26219.744 38093.813 -24278.51 64073.656 -18087.396 5938.6665 -3927.6848 -35381.105 36168.523 -18512.205 55975.375 -3335.9253 -20980.592 9513.914 -180.40143 -73714.03 -18313.18 -2518.669 53940.203 -16163.065 -64858.875 -24750.969 -2674.4514 188.34619 -6937.826 19857.055 -66176.64 5385.2095 -45402.05 -36624.723 41164.586 3886.1577 -42078.39 38006.707 -64575.207 5761.145 -28957.75 37701.17 4109.35 -22053.484 -8121.0317 12718.914 -50242.324 43203.742 66857.08 -27382.818 406.18298 -25119.404 235.6954 11824.898 56841.676 -35339.047 -1688.464 7207.1494 11189.728 -15648.021 -8034.9824 25895.268 -12790.017 18476.37 -1061.4246 35040.11 53379.973 -114083.65 -34559.65 17424.77 47573.695 -121870.38 96109.08 -15097.314 7219.31 60998 -23457.05 68419.516 -27760.547 -121002.82 -3762.632 -36719.36 -6385.729 -61800.53 15396.9795 -20498.303 6874.0425 66987.94 -56363.875 -27785.746 11730.251 -2027.7427 45765.996 -10009.471 6996.0215 -20221.578 59259.55 -16747.002 -34497.97 14008.791 -17822.35 -60462.438 -18623.928 -29154.373 -22999.668 -30033.646 13630.397 12546.207 57667.67 -84168.11 -21891.014 18756.373 -29537.803 22560.918 -20586.807 -4292.753 39350.47 7620.8247 -17140.537 5984.344 -4939.333 -23022.781 -41404.324 35357.92 -25504.857 35167.52
air -36832.008 27917.668 2003.4554 15157.995 -1272.4298 -3712.4768 -4862.277 -25380.455 -16650.314 8991.631 -25737.555 91473.11 -8052.1675 -16189.793 11314.891 -18004.822 10993.207 -12345.667 -82111.46 -46124.375 -53647.676 10231.567 -27844.281 -11764.531 -26012.684 -7011.235 3943.5835 2991.0244 33119.047 33121.99 -2861.5222 -24514.92 -8443.934 17293.014 -2552.8335 6247.1357 28252.17 13879.1455 -13089.864 47080.35 27184.568 -10778.746 33840.4 13857.16 -83655.4 -6968.0625 -17866.588 36961.543 14631.593 -17226.828 31821.719 20937.314 28501.092 -2078.426 -19827.531 -15642.18 50865.9 -19279.07 -10056.778 17831.158 14806.842 -11937.16 -5739.949 26784.166 -481.88242 -19039.33 2908.7593 16867.822 27265.262 7684.1167 15881.585 46874.46 -18862.143 16505.29 30496.863 14931.971 -51125.746 11613.892 10840.802 -6420.102 21020.71 20277.486 7095.4404 -41325.1 23597.059 20801.594 20750.926 42402.008 -30407.14 23630.674 12037.694 27409.209 -4212.7114 8075.579 23282.465 2702.6643 -65062.066 -49538.223 -616.66223 8088.082 3052.2822 9158.497 19280.348 1296.8982 -33518.207 48621.695 1759.3687 23338.225 -30923.896 -22543.092 -52029.67 -11498.668 13946.251 13115.621 13179.249 -27631.281 29929.018 13663.941 573.33105 -2641.3855 -66707.445 -4211.1953 -34561.824 -67424.14 -22183.115 30679.115 -5445.159 -66207.5 -1828.37 -15847.372 -22239.736 14544.488 10405.455 51793.336 -4164.0903 29988.584 -11405.32 -9978.675 -49651.5 -14631.909 7161.127 9887.862 -3812.8289 -3405.1997 -12884.981 -5738.1016 15603.694 9451.422 -42996.727 61538.04 -35365.547 -27814.727 -6372.4507 41443.906 35334.492 6120.5264 37629.72 3956.55 -40097.574 -66977.54 43716.457 31146.229 -20543.402 28937.172 20565.457 -18775.508 15969.602 1369.4757 -33626.37 -4246.746 48489.96 -11213.122 22949.5 19529.707 17106.498 14293.942 6580.6563 -27921.785 9393.768 14109.02 9312.382 -11033.785 -9235.703 -1165.1635 4488.5435 30798.16 -3207.4385 -12615.847 -4233.2944 2294.5352 -4178.7407 -16886.064 -48610.45 29649.44 37054.586 6457.936 -26880.059 54276.96 12426.655 22.784513 -16605.219 -8615.227 -12257.913 -36513.3 14353.847 -19500.219 -16296.1 3685.0156 64263.76 -9359.246 34268.223 -40464.777 15276.838 -35419.098 -56350.113 26168.072 -42741.547 19765.508 30922.61 38.097015 -25917.145 2023.2698 -2688.0598 -19249.39 -34425.27 -24929.635 -19553.154 -19258.168 97.31832 -11742.922 29422.223 23386.625 -23565.7 -7143.1606 -47206.64 1403.7415 -52427.742 -4047.604 -6351.892 -27642.152 -3945.1016 -76.92644 -14320.077 31362.033 -22619.055 -16897.318 43062.727 22567.912 -2877.6274 -30959.803 16075.789 -47050.605 -31593.953 -11766.849 39277.96 -7518.101 -26341.426 3827.8472 -39296.047 30598.115 24379.34 18195.318 -3974.5488 43604.04 -20986.232 25900.74 -48761.71 -36762.56 -7004.3164 -25375.857 14085.045 -7654.0796 -31053.709 16737.043 -63754.44 49954.57 10443.516 22055.184 -27169.35 -10375.272 -1221.9187 -21697.303 -3996.4998 16325.929 30453.87 -12493.172 -18023.79 17404.484 -36945.21 -17426.166 5343.53 -24417.027 -4167.8335 3391.768 12664.172 -22970.188 -23517.559 6811.1816 4120.3447 -1133.3696 1383.0067 33171.637 9358.418 -41402.33 39643.883 -50360.086 -26727.691 -12970.307 19446.736 -33139.176 -56682.492 -32103.72 -1552.0027 -17359.064 -1084.3491 -8608.246 14075.648 42975.25 15775.809 4083.0432 -28596.797 -29453.69 -9602.957 -34201.6 27059.93 -4772.2104 21247.867 -6792.3574 -22620 -29857.691 39892.56 11837.206 -24486.639 -15726.674 -19886.09 -42912.957 66172.73 -236.97498 -21404.295 42185.633 26546.564 9446.217 13125.539 -2153.6594 32472.6 5197.1094 -17188.139 17295.861 4189.7773 -31968.445 -15713.261 -23846.703 -3019.9263 -20229.613 24529.686 22874.967 -13540.006 18220.73 -23242.18 -6340.0107 32799.508 31773.307 34408.32 12710.629 9741.772 7239.541 -8975.525 31801.463 2512.4495 37873.78 -5960.8364 -22873.096 6849.538 -49391.8 20811.646 -18945.54 23591.418 39780.465 24480.525 31574.031 64798.043 -16341.053 -18554.473 -31377.55 5097.525 -13577.876 -18840.33 -4493.3755 -9064.529 -9413.42 12269.297 166.49753 9258.943 -24697.506 -16156.898 30324.164 -13295.496 -10414.201 1664.188 -36157.88 -32835.72 -1997.701 9731.571 12374.48 -70681.086 -20330.031 -13289.912 -37982.37 58196.27 40435.55 -2070.0264 7481.4893 -16289.2295 -14760.138 -27200.842 -9631.161 -27374.037 13495.381 786.2919 15327.997 28100.406 -18000.271 6887.808 -44553.54 -33288.098 -839.1888 18303.205 20313.47 -9259.965 -23235.973 -42353.17 9031.884 32243.06 4592.2437 -78874.125 25111.902 -20566.033 -46698.766 -2384.8862 5.7526584 -12273.487 58176.063 -8572.334 26452.947 -23760.57 -14845.088 -18239.947 -19132.488 10771.252 16290.915 -52932.363 -38146.453 54833.3 -49335.195 -30981.832 -10560.932 9170.015 -11627.57 -26292.746 12776.085 16765.053 10244.848 -28964.64 -11508.043 12023.545 14914.975 6109.9873 12673.984 -18951.234 4552.9473 -12493.948 -10095.964 4727.12 9167.072 -20952.822 5908.2534 -1678.2291 -22054.215 -5033.719 42079.65 -29030.99 18991.137 5539.91 -5241.5376 -23748.594 -31328.814 17596.904 4014.239 22237.387 19464.676 -1550.598 47647.406 -14147.657 9486.032 34387.77 9151.753 9946.589 -10507.425 -20924.598 -50490.313 11519.266 11759.752 -15179.626 -3559.998 2812.7322 41963.695 1944.808 8892.448 -24675.313 -10898.091 -29978.75 20050.66 4529.78 2956.9717 25649.885 9621.173 -19269.336 15522.432 41539.27 10288.169 -526.26404 24177.559 21398.584 18222.168 16906.617 -31569.736 -15219.986 -29124.066 15638.474 -1461.9495 -7895.6753 50101.836 -18302.66 -16446.793 14953.389 -26187.297 8758.829 21191.145 10001.844 -15041.408 3647.8604 6646.032 13038.035 14353.96 28647.08 12233.866 -7898.4194 960.0467 25212.87 -12835.292 -27743.746 32316.227 19570.072 -24033.271 41986.457 -15179.093 -46600.83 15582.324 18888.629 8150.6167 -41421.367 -20743.137 16856.941 24074.768 -5045.0703 -31137.934 -31833.904 7208.964 -12124.815 -11145.742 -13642.606 1055.9496 39884.5 4315.276 -27114.63 -29031.537 26072.031 3730.24 18887.248 27440.506 -17488.52 46153.836 -13029.527 4277.558 -2828.987 -25486.037 26053.807 -13334.595 40321.23 -2403.0488 -15112.91 6853.4995 -129.79846 -53098.1 -13191.369 -1814.1866 38855.58 -11642.22 -46720.18 -17828.46 -1927.0078 136.19482 -4997.4834 14303.392 -47669.68 3879.8687 -32704.27 -26381.553 29652.34 2798.7117 -30310.52 27377.162 -46515.89 4149.4443 -20859.05 27157.297 2960.1858 -15885.904 -5849.7295 9161.625 -36190.984 31120.848 48159.09 -19724.87 291.8236 -18094.05 169.10555 8517.806 40944.734 -25455.127 -1216.3534 5191.487 8060.3267 -11271.595 -5787.5215 18653.375 -9212.815 13308.693 -764.99335 25240.637 38452.06 -82178.28 -24894.516 12550.908 34268.715 -87787.6 69229.64 -10875.3 5199.821 43939.34 -16897.076 49284.97 -19996.766 -87162.52 -2710.504 -26450.53 -4599.611 -44517.125 11091.183 -14766.043 4950.9414 48254.25 -40600.168 -20015.072 8450.029 -1460.3744 32966.824 -7210.1206 5039.466 -14566.16 42687.125 -12062.936 -24850.123 10091.417 -12837.833 -43552.605 -13415.236 -21001.049 -16567.47 -21634.447 9818.721 9036.876 41539.82 -60628.62 -15769.089 13510.95 -21277.006 16251.479 -14829.545 -3092.28 28345.477 5489.972 -12346.879 4310.784 -3557.743 -16583.35 -29825.244 25469.482 -18372.371 25331.584
all -932615.2 706897.4 50724.78 383808.72 -32230.295 -93998.35 -123121.945 -642667.1 -421609.94 227667.75 -651708.4 2316182 -203875.13 -409933.84 286491.66 -455902.13 278367.78 -312594.5 -2079140.4 -1167921.6 -1358409.3 259074.52 -705030.56 -297876.2 -658651.8 -177529.22 99863.01 75732.28 838606.8 838670.5 -72467.06 -620737.4 -213811.13 437875.03 -64647.395 158192.1 715360.9 351431.84 -331435.44 1192111.4 688324.8 -272914.75 856867.7 350875.38 -2118231 -176424.98 -452405.63 935903.94 370478.38 -436195.5 805755.56 530158.5 721680.94 -52616.184 -502049.5 -396076.3 1287965 -488169.2 -254639.22 451496.84 374911 -302259.22 -145337.98 678188.4 -12204.673 -482090.3 73661.32 427115.16 690386.25 194568.39 402127.47 1186903.9 -477607.13 417939.4 772201.44 378100.88 -1294555.6 294072.16 274507.44 -162574.73 532265.25 513438.6 179661.05 -1046396.5 597507.2 526712.25 525443.4 1073659.3 -769942.2 598351.4 304795 694021.8 -106677.984 204491.36 589541.75 68445.93 -1647416.9 -1254352.1 -15605.456 204788.98 77287.805 231899.75 488200.5 32841.117 -848705.9 1231131.1 44551.15 590954 -783030.75 -570802.3 -1317434.1 -291163.8 353126.88 332100.56 333713.25 -699657.4 757840.7 345979.53 14512.614 -66878.59 -1689099.3 -106634.07 -875141.4 -1707239.6 -561696.3 776832.3 -137873.1 -1676426.1 -46283.773 -401267.6 -563130.94 368288.28 263481.53 1311453.3 -105440.76 759345.94 -288781.8 -252678.5 -1257227.8 -370503.38 181337.55 250373.06 -96556.164 -86227.31 -326261.66 -145306.05 395088.44 239331.03 -1088704 1558204.6 -895491.94 -704301.4 -161354.77 1049396.6 894697.25 154978.27 952808.2 100178.77 -1015302.56 -1695936 1106944.5 788657.6 -520172.9 732713.25 520726.56 -475424.8 404375.66 34676.63 -851456.3 -107520.695 1227799.3 -283931.84 581107.8 494515.7 433153.16 361940.88 166636.92 -706996.56 237850.17 357263.34 235802.27 -279377.28 -233850.75 -29500.01 113665.83 779840.6 -81212.086 -319432.6 -107193.16 58090.25 -105817.04 -427578.34 -1230852.6 750740.44 938253.25 163528.56 -680630.25 1374330.5 314646.3 578.024 -420454.4 -218133.31 -310389.34 -924556 363455.16 -493755.53 -412635 93318.26 1627226.3 -236985.08 867712.9 -1024611.56 386831.6 -896836 -1426829.3 662593.75 -1082256.4 500468.9 782998.44 953.4933 -656254.6 51221.883 -68053.45 -487416.3 -871666.06 -631229.3 -495109.28 -487622.4 2460.881 -297350.8 744985.5 592166.4 -596709.25 -180860.8 -1195307.5 35535.867 -1327524.3 -102481.3 -160825.25 -699913.6 -99905.73 -1948.6271 -362597.28 794125.44 -572732.3 -427844.53 1090384.1 571437.06 -72864.336 -783924.9 407057.53 -1191355.6 -799980.06 -297946.6 994549.4 -190356.19 -666982.56 96925.95 -995018.5 774764.8 617314.75 460718.4 -100643.19 1104100.5 -531387.6 655829.7 -1234677.3 -930860.56 -177355.55 -642541.1 356654.72 -193811.58 -786313.7 423800.13 -1614310.9 1264896 264450.44 558447.3 -687949.5 -262722.94 -30936.662 -549405.3 -101192.45 413391.47 771113.9 -316335.4 -456375.06 440703.25 -935481.75 -441249.9 135295.47 -618262.4 -105529.555 85894.875 320661.25 -581619.3 -595472.1 172456.64 104324.164 -28693.625 35024.9 839925.94 236966.78 -1048353.8 1003826.25 -1275159.9 -676775.8 -328431.2 492418.03 -839107.56 -1435247.4 -812903.6 -39304.836 -439539.16 -27452.256 -217971.38 356401.2 1088178 399451.53 103397.74 -724107.94 -745780.9 -243154.4 -866004.1 685176.2 -120843.12 538018.7 -171998.83 -572750.3 -756010.06 1010119.25 299730.16 -620016 -398205.25 -503527.1 -1086582.4 1675543.3 -5997.3887 -541971.75 1068175.1 672185.2 239189.39 332339.53 -54524.176 822225.1 131586.84 -435206.88 437940.1 106081.62 -809456.75 -397883.94 -603818.56 -76461.734 -512236.78 621106.44 579214.44 -342851.7 461353.13 -588510.5 -160543.75 830507.9 804522 871256.75 321852.25 246662.64 183321.47 -227264.66 805236.56 63623.33 958999.25 -150946.2 -579160.25 173425.25 -1250638.6 526977.44 -479719.6 597350.25 1007277.6 619868.6 799485.8 1640747.3 -413758.4 -469811.06 -794502.9 129068.39 -343794.4 -477065.84 -113772.49 -229520.63 -238359.02 310673.78 4219.46 234434.44 -625368.2 -409099.22 767823.4 -336652.44 -263688.97 42130.406 -915545.7 -831418.4 -50583.887 246420.56 313343.94 -1789698.3 -514778.4 -336524.22 -961745.1 1473569 1023852.25 -52410.27 189444.83 -412444.47 -373728.97 -688755.3 -243871.89 -693131.75 341702.72 19910.13 388105.75 711521.6 -455783.47 174397.89 -1128124.6 -842874.3 -21242.617 463445.03 514365.7 -234468.42 -588366.5 -1072413.6 228701.25 816429.4 116292.11 -1997168.8 635854.75 -520759.53 -1182461.4 -60383.15 153.9014 -310773.38 1473079.1 -217055.25 669823.3 -601635.7 -375891.72 -461842.1 -484456.13 272736.25 412505.7 -1340298.5 -965898.8 1388422.5 -1249203.6 -784487.5 -267409.47 232204.28 -294409.72 -665749.94 323512.03 424502.53 259414.1 -733412.75 -291404.75 304437.28 377660.75 154711.8 320915.2 -479871.13 115285.484 -316361.56 -255629.39 119701.34 232128.47 -530556.44 149591.38 -42506.152 -558431.9 -127466.38 1065486.8 -735079.8 480869.25 140282.3 -132711.56 -601325.1 -793282.56 445562.66 101650.414 563072.75 492874.13 -39264.77 1206468.8 -358224.78 240190.1 870739.9 231719.94 251853.66 -266059.84 -529825.4 -1278458.4 291680.16 297756.25 -384359.66 -90152.54 71217.836 1062550.8 49241.83 225174.7 -624790.94 -275955.5 -759078.8 507702.38 114703.4 74874.77 649468.56 243628.42 -487928 393041.78 1051815.6 260515.25 -13336.242 612199.8 541823.56 461411.8 428084.56 -799370.06 -385388.2 -737450 395976.88 -37014.473 -199926.48 1268624.4 -463445.66 -416438.78 378638.5 -663084.4 221785.69 536573.25 253261.25 -380871.72 92361.25 168278.94 330134.8 363442.84 725380.44 309775.53 -199994.63 24319.902 638420.5 -325000.1 -702506.7 818268.8 495535.66 -608554.06 1063138.1 -384358.8 -1179982.5 394555.94 478283.84 206392.69 -1048832.1 -525233.94 426835.2 609582.8 -127733.73 -788428.7 -806056.9 182547.81 -307018.8 -282226.38 -345447.44 26745.5 1009898.1 109267.8 -686566.3 -735093.5 660173.9 94453.13 478234.3 694812.44 -442827.8 1168664.1 -329906.66 108321.18 -71629.84 -645333.44 659693.06 -337646.38 1020957.6 -60848.926 -382678.6 173529.38 -3295.7114 -1344494.5 -334020.28 -45946.184 983843.9 -294796.75 -1182989.1 -451435.6 -48781.035 3439.315 -126541.664 362181.22 -1207025.8 98230.37 -828099.5 -668011.3 750818.94 70878.26 -767491.7 693217.6 -1177820.1 105078.08 -528177.9 687652.9 74951.01 -402248.03 -148120.14 231982.48 -916386.6 788013.2 1219438.9 -499439.56 7399.9316 -458163.94 4291.699 215674.38 1036765.5 -644556.1 -30793.775 131453.92 204091.5 -285408.28 -146550 472323.28 -233276.6 336993.9 -19359.805 639120.3 973627.56 -2080826.4 -630349.5 317810.16 867707.06 -2222844.5 1752965.1 -275373.8 131668.66 1112575.6 -427845.8 1247931.4 -506336.44 -2207028.3 -68619.125 -669747.7 -116472.164 -1127214 280831.8 -373878.2 125374.68 1221830 -1028037.94 -506796.38 213950.05 -36990.566 834753.8 -182567.58 127594.33 -368829.22 1080862.5 -305448.34 -629228.4 255516.52 -325064.53 -1102797.4 -339693.03 -531766.06 -419508.97 -547800.56 248610.47 228829.36 1051819.8 -1535172.3 -399283.56 342097.9 -538754.5 411502.75 -375492.2 -78305.7 717736.75 138998.05 -312640.4 109154.234 -90095.164 -419914.28 -755190.1 644915.4 -465202.63 641426.56
almost -110411.93 83689.1 6005.2573 45439.21 -3816.105 -11128.715 -14576.1045 -76085.63 -49914.832 26953.271 -77155.516 274212.16 -24136.836 -48532.258 33918.07 -53974.254 32955.465 -37007.61 -246149.11 -138269.95 -160821.28 30672.252 -83468.77 -35265.254 -77977.22 -21017.996 11822.742 8965.7 99282.43 99289.67 -8579.14 -73489.22 -25313.4 51840.35 -7653.861 18728.553 84691.11 41605.438 -39238.707 141133.6 81490.67 -32310.281 101444.03 41539.605 -250777.22 -20887.484 -53559.906 110801.46 43861.14 -51640.813 95393.234 62765.05 85439.49 -6229.383 -59437.387 -46891.563 152481.55 -57794.44 -30146.393 53452.95 44385.973 -35784.684 -17206.8 80290.914 -1445.0629 -57074.668 8721.041 50566.367 81734.42 23034.863 47607.836 140517.4 -56543.6 49479.297 91420.82 44762.863 -153262.67 34815.234 32498.902 -19247.357 63014.77 60785.97 21270.229 -123882.555 70739.13 62357.098 62207.598 127109.94 -91152.78 70838.74 36084.32 82165.17 -12629.433 24209.309 69795.26 8102.854 -195037.1 -148502.28 -1847.5074 24244.56 9150.527 27454.877 57798.31 3888.078 -100478.15 145753.39 5274.2427 69963 -92702.34 -67577.06 -155970.67 -34470.355 41806.727 39317.586 39508.27 -82832.76 89720.305 40960.133 1717.9171 -7917.78 -199972.44 -12624.772 -103607.375 -202119.44 -66499.59 91968.734 -16323.141 -198471.14 -5479.454 -47506.01 -66668.97 43601.85 31193.65 155262.69 -12483.211 89898.83 -34188.96 -29914.094 -148843.02 -43863.508 21468.11 29641.68 -11431.501 -10207.952 -38626.188 -17203.156 46774.73 28334.271 -128891.125 184475.52 -106017.44 -83381.87 -19103.291 124238.26 105922.99 18348.305 112803.11 11860.252 -120201.56 -200781.36 131050.64 93369.25 -61583.66 86745.44 61648.902 -56285.707 47873.984 4105.3774 -100803.49 -12729.826 145358.8 -33614.13 68797.19 58545.332 51280.76 42850.324 19727.625 -83700.7 28159.363 42296.383 27916.951 -33075.246 -27685.66 -3492.064 13456.875 92325.625 -9614.911 -37817.535 -12690.973 6877.49 -12527.615 -50620.98 -145719.88 88879.89 111080 19359.688 -80579.4 162707.1 37250.49 68.82629 -49777.887 -25824.842 -36746.79 -109457.98 43029.504 -58455.19 -48851.406 11048.363 192646.47 -28056.371 102728.266 -121303.375 45797.06 -106176.5 -168922.27 78444.27 -128128.28 59250.203 92699.336 113.24066 -77694.29 6064.509 -8057.1646 -57705.137 -103196.695 -74731.14 -58615.957 -57729.82 290.9302 -35203.08 88198.65 70106.016 -70643.85 -21411.855 -141512.27 4206.8965 -157165.58 -12132.483 -19040.62 -82862.71 -11828.085 -230.63976 -42927.664 94016.516 -67806.086 -50652.516 129090.42 67651.99 -8625.874 -92809.195 48191.965 -141044.7 -94709.44 -35274.332 117744.85 -22535.727 -78963.914 11475.213 -117800.3 91723.82 73084.234 54544.47 -11915.492 130714.54 -62911.14 77643.58 -146173.44 -110204.68 -20996.69 -76070.13 42223.855 -22945.18 -93091.83 50173.875 -191118.3 149751.25 31308.178 66114.1 -81445.875 -31103.39 -3662.6458 -65043.895 -11980.382 48941.785 91292.4 -37451.36 -54029.86 52175.234 -110751.484 -52239.37 16017.886 -73196.53 -12493.95 10169.412 37962.59 -68858.055 -70497.78 20416.646 12350.942 -3396.7373 4146.245 99438.46 28054.836 -124114.484 118843.12 -150965.8 -80123.28 -38882.62 58297.15 -99341.51 -169918.92 -96239.375 -4653.509 -52037.242 -3250.2993 -25805.441 42194.293 128828.88 47290.945 12241.54 -85727.44 -88293.01 -28786.795 -102526.46 81117.39 -14306.193 63696.04 -20362.87 -67808.27 -89504.17 119587.266 35485.133 -73403.414 -47143.273 -59612.07 -128640.4 198367.28 -709.7601 -64163.81 126460.84 79579.45 28317.19 39345.105 -6455.238 97343.43 15578.221 -51524.24 51847.082 12558.546 -95831.13 -47105.473 -71485.87 -9052.069 -60643.758 73532.53 68572.66 -40589.78 54619.445 -69674.08 -19006.227 98324.14 95246.8 103147.76 38103.598 29202.322 21703.182 -26905.43 95331.44 7532.4717 113535.99 -17870.293 -68566.47 20531.648 -148063.06 62388.24 -56794.24 70720.31 119251.65 73386.69 94650.61 194247.42 -48985.168 -55620.895 -94060.97 15280.706 -40702.11 -56480.082 -13469.235 -27173.215 -28219.127 36780.918 499.39905 27754.197 -74036.75 -48432.957 90902.766 -39855.965 -31218.375 4987.8496 -108391.414 -98431.125 -5988.132 29173.28 37096.773 -211882.31 -60944.516 -39841.2 -113860.734 174455.66 121213.26 -6205.0796 22428.012 -48829.125 -44245.938 -81541.66 -28871.887 -82059.54 40454.645 2356.9634 45948.168 84237.31 -53959.81 20646.965 -133557.98 -99787.57 -2515.0703 54867.313 60895.445 -27759.055 -69656.88 -126963.21 27076.016 96657.32 13767.709 -236443.84 75278.69 -61652.906 -139991.7 -7148.91 18.35397 -36792.266 174397.72 -25697.361 79300.016 -71227.63 -44501.43 -54677.27 -57354.89 32289.248 48836.37 -158677.44 -114352.41 164375.08 -147893.36 -92875.33 -31658.184 27490.316 -34854.87 -78817.57 38300.566 50257.156 30711.65 -86828.46 -34499.33 36042.184 44711.54 18316.154 37993.305 -56811.867 13648.8545 -37453.965 -30263.998 14171.056 27482.066 -62812.207 17710.252 -5032.4497 -66112.96 -15091.25 126142.79 -87025.88 56929.57 16608.205 -15712.007 -71191.32 -93916.125 52750.367 12034.151 66662.46 58351.23 -4648.294 142833.63 -42410.04 28436.338 103087.234 27433.754 29817.033 -31498.465 -62726.31 -151356.52 34532.37 35251.617 -45503.91 -10672.718 8431.463 125794.9 5829.418 26658.012 -73968.64 -32670.078 -89866.92 60106.668 13580.236 8864.678 76890.61 28843.139 -57765.52 46532.23 124524.2 30842.559 -1579.3767 72477.98 64146.145 54626.254 50680.53 -94637.336 -45626.027 -87306.516 46879.42 -4382.217 -23669.01 150191.64 -54867.277 -49302.285 44826.848 -78501.94 26257.502 63524.52 29983.777 -45091.633 10934.875 19922.39 39084.316 43027.676 85877.375 36674.613 -23677.24 2879.2468 75582.56 -38476.59 -83169.54 96875.086 58666.797 -72046.97 125864.86 -45503.867 -139698.23 46711.152 56624.15 24434.354 -124171.26 -62182.56 50533.32 72168.73 -15122.718 -93341.414 -95429.15 21611.455 -36348.14 -33412.348 -40897.203 3166.5808 119561.695 12936.356 -81282.04 -87027.125 78157.9 11182.394 56618.188 82258.984 -52426.117 138357.63 -39057.875 12824.133 -8480.3545 -76400.59 78100.88 -39974.125 120871.08 -7204.0815 -45305.523 20543.822 -389.79208 -159174.52 -39545.105 -5439.843 116476.67 -34901.02 -140053.84 -53445.83 -5775.1494 407.518 -14980.785 42878.84 -142899.7 11628.966 -98038.66 -79085.47 88888.87 8391.367 -90863.03 82070.15 -139441.98 12440.567 -62530.43 81411.23 8873.432 -47621.918 -17535.807 27464.059 -108490.65 93293.06 144369.58 -59128.555 875.9336 -54241.613 507.87064 25533.121 122742.4 -76308.91 -3645.4438 15562.7705 24162.518 -33789.8 -17349.72 55918.5 -27617.354 39897.164 -2292.2466 75665.484 115267.65 -246348.94 -74627.37 37625.625 102727.3 -263161.75 207532.69 -32601.172 15588.226 131717.39 -50652.773 147742.58 -59945.2 -261289.67 -8124.0557 -79291.586 -13788.969 -133450.78 33247.94 -44263.492 14842.764 144652.36 -121709.63 -59999.44 25329.75 -4379.3677 98826.1 -21614.406 15105.598 -43665.777 127962.61 -36162.438 -74494.16 30250.637 -38484.51 -130559.49 -40216.207 -62955.79 -49665.863 -64853.957 29432.613 27091.342 124524.83 -181748.98 -47271.063 40500.406 -63783.11 48717.473 -44454.043 -9271.075 84973.07 16456.049 -37013.7 12922.745 -10666.311 -49713.563 -89406.945 76351.58 -55075.363 75938.734
