244 500
a 52.19759 49.84654 -22.543459 -39.535107 80.757256 -45.318176 3.573215 -48.66292 -4.6195602 14.268776 -7.1690373 7.2960367 15.936859 -16.105608 4.428078 -40.649815 38.169308 -26.588701 -36.688107 31.01433 20.867527 16.157797 79.88295 -48.27631 6.598295 10.282599 -52.123074 25.439909 36.098145 103.27939 -76.59553 55.565556 50.73779 9.066217 22.606855 -12.150922 -20.691422 -38.805912 32.509674 -10.545016 -37.95336 32.156822 8.097705 26.023342 -6.3791866 12.9127 -34.389164 -9.62309 35.229282 -31.415764 27.735529 0.60728663 18.54573 -45.34071 -12.77395 25.523428 -62.486553 -58.51671 27.213116 49.0437 24.92467 68.103485 23.65025 -17.97702 41.332317 21.46074 83.481895 -21.210651 -2.0251563 31.43811 5.5328355 41.114723 31.622988 -9.238459 26.848791 67.71349 65.2641 35.233337 12.462856 -69.521996 9.112916 0.9519604 -13.3913765 37.887543 -36.624348 6.1116433 -35.884903 1.1621577 36.825718 -31.585106 60.593433 -21.851255 16.736141 -76.242905 -71.646416 -5.330871 41.989956 12.742062 -10.868958 -15.070902 26.835417 -75.38885 77.88801 16.602144 -27.923512 21.622732 -5.461484 -66.93592 68.39021 23.547762 -0.17866167 3.4019482 -50.05372 -8.233093 -53.626038 35.74096 -13.706435 23.6603 27.95432 -22.218039 42.38987 -8.21655 -12.621749 -35.36302 -15.001071 36.858475 7.4110427 -1.2834315 20.628088 -10.625294 51.120625 -15.026371 31.412722 63.28174 -19.111328 7.686913 23.682976 -9.321155 24.360205 44.886963 40.85264 -34.830566 -21.420073 28.918633 16.245964 -52.234024 -23.720497 0.14966957 25.9368 42.74105 58.320686 0.1224426 34.68499 59.52732 -40.21648 88.9885 -92.943474 2.0482666 -29.125137 -33.17454 -8.825085 -70.950066 51.545326 -53.093727 15.583715 -19.51213 -86.87721 73.264244 64.47097 -16.441547 28.112503 64.96229 9.785927 43.734825 42.240696 -5.6768737 67.93779 -23.47631 -97.84676 44.87657 -50.745693 -23.816654 -19.66815 -43.429604 -90.65919 -38.789783 66.019424 -32.42364 -31.208138 10.518618 -14.216422 22.750626 9.474278 47.201176 -11.76044 33.6306 -21.853487 -19.599659 -1.0234768 -41.134 44.32325 69.02118 -18.166136 -29.420055 49.73645 17.78371 105.79377 94.39518 41.525303 9.416656 -18.15379 24.316628 52.102577 0.75117534 42.14607 -22.99916 32.414513 -16.832617 42.55044 12.623866 -21.51379 20.042013 7.0998363 -38.213333 -53.344814 -94.12332 -64.58663 18.816193 44.101517 47.01475 -18.199944 64.09946 98.03867 2.4297855 17.403662 -10.523778 -45.09397 0.12099056 -4.4632483 18.973696 19.063597 -25.01891 45.078865 -72.99435 3.9695048 146.96132 9.715786 -3.7984912 -75.95141 -57.02326 -80.6916 5.6397495 -36.973312 28.2554 12.339632 -14.1226845 -36.750706 -53.421585 29.882502 -0.36714128 13.9304495 47.26574 -0.94144034 -7.20318 24.816372 -0.9372474 -28.577335 20.550716 -36.839947 -63.623066 44.705055 -21.915976 -82.06658 -13.85227 67.50352 -49.764698 -61.31317 -17.22771 -3.7504067 -15.115293 22.760616 17.110332 -14.5245905 71.049774 -23.973854 -21.485628 54.302944 52.571404 10.511228 -3.8088217 -14.204319 15.352676 35.936363 48.387703 -27.376953 16.254166 -52.33141 -33.57637 -33.155827 24.804127 -39.45266 -83.99137 -16.304634 -40.78243 -35.68747 79.3563 -49.941772 -13.167275 43.91197 29.789265 36.90758 24.621817 -58.76897 24.695494 -59.63618 39.016914 20.034807 -96.422386 18.935137 -4.606602 27.513742 62.16646 74.11326 -2.0859149 48.497307 -11.802729 94.18535 45.550568 22.687 95.14439 0.42703217 50.871796 -33.807056 18.082964 22.717484 -75.885216 -53.729866 -23.41836 -34.60058 22.558037 -15.744352 10.095142 -32.579224 -21.386177 11.099614 -69.29355 -26.80888 7.480344 -27.06929 -35.793686 -6.3460665 31.929136 -22.268864 -77.82684 -28.78433 -78.849 -23.846518 -96.45485 1.1834667 3.5169768 -20.643284 -18.094234 -25.910685 25.674784 47.90826 8.76716 -22.545052 68.036095 11.347005 -68.083275 -42.63155 -4.565337 24.94108 98.7599 -50.10561 -29.518219 35.799793 97.764595 -15.337724 -45.04711 -14.137447 -19.197561 5.7315207 76.08956 -3.3489926 47.013817 0.099114 56.69323 -48.78095 58.872646 26.745304 -49.545517 -20.005299 -4.225712 17.369562 -21.045076 38.580288 -28.23749 49.868164 -9.187121 -6.839521 82.47718 -21.108475 -6.8307605 -63.025333 24.894136 59.107136 -41.39393 -30.235352 -89.763985 58.933113 -72.894585 -79.23693 -14.313905 17.881865 15.65752 -37.363575 29.865519 25.676855 70.458084 -9.617623 74.29088 -56.136448 14.817882 -91.093376 30.453701 -13.792944 22.311703 0.9265932 -42.018402 31.599312 44.6577 -62.8272 13.208242 -83.00297 21.24606 -12.205471 39.71934 12.324702 -27.089918 -22.090282 -55.310635 21.514797 18.131432 -23.559847 54.728264 54.37491 51.764988 -16.379242 55.209854 -24.135883 17.76832 -30.181665 -23.579863 -17.948298 77.95845 -18.16197 44.2981 -16.715954 80.01758 51.54152 27.117332 22.685003 -3.0612578 -11.432565 43.649605 36.63784 -34.296658 36.210346 -42.26453 38.24437 -34.158302 -18.255386 -98.776855 -0.18202671 12.892586 20.965448 21.68067 -42.928333 28.13982 -47.97761 -28.26963 11.132989 -24.041721 -42.65606 8.282397 36.64995 69.866264 32.18536 -18.951078 -27.855925 -50.26949 34.52051 -40.999737 -59.31758 -8.647342 6.357606 14.829673 -67.05496 0.56391543
about 4.155035 3.7686803 -1.3749142 -2.678809 6.159739 -3.6321547 0.6053446 -3.3453507 -0.30490378 0.6882021 -0.04203901 0.5815786 1.6512606 -0.93619466 0.86432916 -3.5108757 2.9037962 -1.8032483 -2.8564532 2.4160697 1.9057269 1.2965823 5.579986 -4.1507697 0.68441886 1.2725123 -4.4195685 1.6523719 2.9733307 7.848688 -5.6495714 4.2629356 3.590459 0.82974786 1.4682515 -0.90115523 -1.5394254 -3.2034369 2.05945 -0.7561795 -2.9042265 2.2389 0.34606376 1.4182109 -0.37189946 1.4039046 -2.9610605 -0.5373914 2.5967143 -2.2436352 2.0402174 0.48265734 1.6209818 -3.75886 -1.0664251 1.4146138 -4.8729043 -4.6144795 1.6044445 3.9855883 2.0437405 5.38463 1.3670063 -1.0791155 2.8963523 1.1972486 6.3366723 -1.419212 -0.63209516 2.687588 0.7475435 2.8395295 2.3430734 -1.2274823 1.8161201 5.5688224 5.1101613 2.3063223 0.6306729 -5.710146 1.185974 0.22458322 -1.3186742 2.7632258 -2.4731598 0.6838682 -2.995825 -0.40606037 2.4203453 -1.9420642 4.6588044 -1.8323843 0.99560976 -6.1956663 -5.607229 -0.09580968 2.9069748 0.4631434 -0.45760185 -1.552923 1.7619355 -5.255242 5.401872 1.7047079 -1.9063848 1.4447715 -0.46102625 -5.072461 4.6376886 2.2556303 -0.29364955 -0.21072976 -3.631605 -0.8249634 -4.1123333 2.7632782 -0.6255151 1.9916586 1.9529724 -1.5497178 2.7413201 -0.92752975 -1.1290677 -2.5475702 -1.1498977 3.2232091 0.3316735 -0.15977992 1.0919646 -0.3831893 3.3783484 -1.032569 2.3181472 5.0758796 -1.6811422 0.98717135 1.3654687 -0.37109166 1.9460056 3.8885295 2.8367233 -2.41777 -1.644059 2.2837644 1.562764 -4.1012845 -2.0378177 0.34169367 1.6725523 3.6446059 4.074832 -0.113705374 2.6184976 4.6153035 -2.551524 6.229982 -7.50498 -0.18491673 -1.9117709 -2.353132 -0.27960825 -4.976653 3.662686 -3.9746227 0.912192 -1.1051917 -6.6103373 5.4431863 5.3566566 -1.277796 2.1772141 4.5109057 0.94388986 3.0151858 2.7622375 -0.89308184 5.182026 -2.2698612 -7.167506 3.7270842 -4.0253644 -1.5602661 -1.113754 -3.13324 -6.8583436 -2.9570081 5.0756783 -2.6053276 -1.9665301 0.45485878 -1.2762045 1.2790964 1.0035665 3.3618605 -0.81102115 2.3312538 -1.9225321 -1.3402491 -0.12235129 -3.235168 3.7184331 5.076131 -1.7350299 -2.2292118 3.7797468 1.4662684 8.2632 7.447163 2.832516 0.9021399 -1.5267576 2.1264398 3.8019717 -0.17746875 3.0912828 -2.020512 2.3984978 -0.8732532 2.8585656 0.9717871 -1.7750728 1.5957065 0.57702225 -2.677757 -4.2122087 -7.359118 -5.125034 1.1232464 3.1752799 3.720092 -1.5803251 4.428617 7.0172825 0.41902378 1.8293525 -0.8001647 -3.825153 0.22715898 -0.33593372 1.2195301 1.2681516 -1.3892205 3.8477612 -5.0365205 0.6020888 11.454353 1.022724 -0.46901694 -6.1889973 -4.5806565 -6.3522897 0.7413534 -2.4530206 2.0618896 1.1533483 -1.3579565 -2.302614 -4.3563046 2.4692519 -0.007982821 1.1659608 3.150598 0.09373126 -0.796231 2.0129745 -0.22019708 -2.3564458 1.2595056 -2.4613745 -4.644947 3.7055607 -2.1169405 -6.2018614 -0.9627883 5.0394993 -3.825768 -4.0753193 -1.7093642 -0.50547415 -0.70636934 1.7248751 1.7493936 -1.1514355 4.92798 -1.3805515 -1.8335509 4.2203836 3.6669703 0.4624469 -0.56382245 -1.5796627 1.6426809 2.8168356 3.5098207 -2.2256024 1.4355522 -4.016383 -2.37642 -2.2362952 1.7285305 -2.9036922 -6.7864876 -1.7088764 -3.379383 -2.2086008 6.3828974 -3.8552887 -1.0014489 3.1512065 2.3840494 3.0858915 2.2689636 -4.767976 1.4376525 -4.878464 2.5009625 1.919505 -7.5295773 1.9122219 -0.3099741 2.247651 4.741532 5.9201665 0.15793554 3.1713483 -0.92511183 7.5384593 3.7934182 2.1313086 7.355375 0.18734969 3.7324812 -2.3848197 1.8072444 1.7535975 -5.9739504 -3.5730624 -1.5739511 -2.3050392 1.704422 -0.9495213 1.1059016 -2.4319744 -1.3909252 0.55619615 -5.5206037 -1.6470886 0.4735993 -1.9585482 -2.454883 -0.78377664 2.5379844 -1.3761123 -6.0335956 -2.4622126 -5.640747 -1.9863774 -6.702911 0.04233899 0.2766192 -1.3432401 -1.5127485 -2.1832652 2.100465 3.8830254 0.1841025 -1.291974 5.640491 0.5994133 -5.4305825 -3.0897381 -0.30173817 1.597496 7.686095 -4.1453114 -2.3496578 2.6234632 7.1006045 -1.5307118 -3.141495 -0.7479099 -1.5765592 0.0029606665 5.825171 -0.008397004 3.4108028 -0.405926 4.3975782 -3.9362643 4.318747 2.0582006 -3.8865864 -1.4257773 -0.1449947 0.9182358 -1.5026627 2.8442461 -1.7080691 3.5134366 -0.17410952 -0.34918064 5.793227 -1.7513374 -1.0380296 -4.8373775 2.0598795 4.247326 -3.37882 -2.3460324 -6.252001 4.794983 -5.9528427 -6.3119335 -0.626506 1.636016 0.8650417 -2.8571165 2.0714922 1.8426895 5.0482645 -0.27573252 5.4001064 -4.1774793 0.66419864 -6.8398895 1.8496467 -1.4795859 1.2026789 -0.16201182 -2.8421285 2.2979753 3.909698 -5.2110195 0.8472783 -5.8993597 1.1901742 -0.698066 2.663231 1.0948724 -2.4337397 -1.506085 -4.234624 1.8856968 1.3410085 -1.7957163 4.2846985 3.7874324 3.974705 -1.3510079 3.6002529 -1.5933176 1.7092772 -1.801238 -1.3541193 -0.9556395 5.8813043 -1.1350859 3.149101 -1.7502031 6.164253 3.6013327 1.8528177 1.9500631 0.27632383 -1.2235205 3.054527 2.2951403 -2.9043846 3.0532289 -3.6461587 3.1740112 -2.9829707 -1.7974739 -7.767214 0.39369795 1.1550932 1.3277293 1.7643899 -2.8047588 1.91344 -3.4507337 -2.6282973 1.3083125 -2.1428735 -3.527926 0.90694 2.622518 5.1353226 2.4270647 -0.8727314 -2.3330545 -3.4885304 2.3111365 -2.7869003 -4.597344 -1.0345052 0.37717262 1.5439143 -5.047765 0.1754079
again 1.6959596 1.0796522 -0.8214071 -1.4565642 2.5847144 -1.6644815 0.25580367 -1.1096419 -0.49001744 0.5942675 -0.530852 -0.018880773 0.7105464 -0.34205115 0.057156757 -1.31583 1.0900468 -0.58952194 -1.4524672 1.2435167 0.57365245 0.9430634 2.5277746 -1.0359129 0.55430293 0.35839736 -1.3198012 0.4996214 0.66751856 2.5629385 -2.5880947 1.1324834 1.5882334 0.16461371 0.39322576 -0.63296336 -0.85475355 -1.5304974 0.76815903 -0.02080326 -1.0573636 0.792666 0.35452402 0.5132661 0.26610267 0.09263297 -0.77717936 -0.47696435 1.3372086 -0.80163497 0.33745953 -0.45677242 0.24961731 -1.5931153 -0.11270432 0.4536485 -1.306148 -2.033599 0.32772636 1.6926993 1.0514693 2.121943 1.1023816 -0.71466047 0.9357251 0.1088284 2.1399345 -0.7072803 0.30475634 0.97598284 -0.11693688 1.5682573 0.5753585 -0.5024702 1.169746 2.2411828 2.1493733 1.2707785 0.057566963 -2.1821816 0.42918777 0.49781454 0.017716693 0.8520173 -0.66807187 0.1976179 -0.81502366 0.33406365 1.0578148 -1.0042634 1.7094421 -1.0023122 0.11628202 -2.3272865 -1.873372 -0.60933155 0.73579264 0.695308 -0.7080147 -0.040864144 1.211693 -2.1948807 2.4581258 0.6021507 -0.6213404 0.97624195 0.007522301 -1.6493803 1.694541 0.96772707 -0.2749208 -0.2861214 -0.9479311 -0.38887283 -1.6542704 0.8942174 -0.42596152 0.32221657 0.72300595 -0.5233981 1.225875 -0.09293294 -0.16860746 -1.1970176 -0.113168746 0.68458635 0.35425234 -0.3172729 0.1817436 -0.7719663 1.8388218 -0.51352113 1.3461217 1.3421546 -0.41437742 0.7029346 0.27507725 -0.05878242 0.84363043 1.7601534 1.0528444 -1.2858385 -1.0526744 1.3134601 0.04094531 -1.0734506 -0.66071796 0.2881915 0.7766544 1.0932468 1.1901593 -0.48000628 1.1360852 1.5449938 -1.210603 2.3077426 -2.2343931 0.3592461 -0.85178137 -1.0857124 -0.08564764 -2.2711859 1.8475627 -1.5407065 -0.011507703 -0.42935625 -2.9093688 1.6919957 1.7103527 -0.87837136 1.1647259 1.552331 0.34375164 1.280615 0.92781687 0.2503154 1.8244361 -1.0616089 -3.2037692 1.6688961 -1.0773201 -0.48099697 -0.9591188 -1.1609182 -2.5083346 -1.3355079 2.1098328 -0.6860034 -0.4213444 0.46414977 -0.12845337 0.34429875 0.45278254 1.4886749 0.13179992 0.92380726 -1.005777 -0.51486325 -0.38220078 -1.3520521 1.7352437 1.6461276 -0.8552412 -0.3509487 1.7269915 0.8198718 3.1403265 2.5863173 1.4425137 0.21077438 -0.43339756 0.73308164 1.2582182 0.28932452 1.337056 -0.37372044 1.1481637 -0.35737675 1.092949 0.6706427 -0.93297 0.30593833 -0.016932458 -1.3744826 -1.961705 -2.9135625 -2.1222832 0.81727195 1.3107815 1.7554181 -0.5341687 1.696107 3.014198 -0.38786164 0.72079414 -0.6055292 -1.547657 -0.20606183 0.06493392 0.78746146 0.82492125 -0.57999355 0.99322665 -2.1522534 0.5237652 4.1743073 0.57382876 -0.26680878 -2.3194053 -1.817287 -2.2389486 0.25855815 -0.81241566 0.56164676 0.3946242 -0.78923994 -0.7939049 -2.0095632 0.4374624 -0.32903 0.29095522 1.1460774 0.1405694 0.017173974 1.1135098 -0.43442562 -1.0184832 0.28718698 -0.83940107 -1.4735813 1.4200685 -0.69928586 -2.776096 -0.20578882 1.4896762 -1.188991 -2.1569824 -0.60786957 0.06637204 -0.10293697 0.5225646 0.8251586 -0.57477134 2.1702197 -0.9035959 -0.22725378 1.1551709 1.2602922 0.36690268 -0.5599262 0.077855974 0.43192783 1.3883594 1.5466913 -1.1570024 0.868952 -1.6427526 -0.59674877 -0.6442537 0.32639936 -0.96945643 -2.426499 -0.85482424 -1.5527478 -1.101041 2.1798503 -1.187025 -0.27619943 1.7508496 1.1190786 0.9782563 0.8253263 -1.6430113 0.38647285 -1.4223844 1.1535119 0.7147532 -3.2424307 0.53517294 0.10222419 1.2545801 1.6198105 2.146713 -0.5544662 1.2031854 -0.4130236 2.8123116 1.5880471 0.669676 2.7142837 0.02786493 1.481184 -0.9563398 0.6593097 0.60567135 -1.8219826 -1.2384248 -0.2166923 -0.75504273 0.60899967 -0.4814492 0.6467461 -1.0129093 -0.89143085 0.46219683 -1.828777 -0.89570916 0.6096802 -0.39481366 -0.75936437 0.13959928 1.0195172 -0.7596466 -2.3433356 -0.85873705 -2.3624918 -0.36413372 -2.4544852 0.096646085 -0.32602403 -0.28113738 -0.12005753 -0.45842808 0.666206 1.5676205 -0.23597892 -0.71467906 2.1813095 -0.16353755 -1.6039397 -1.4818184 -0.13872048 0.47689986 2.7740629 -1.4985923 -0.7180155 1.308598 2.8439202 -0.8098208 -1.6310538 -0.8385341 -0.23020424 -0.000527394 2.242096 0.23544285 1.8273956 0.15934287 2.0238273 -1.027422 1.6640961 0.29351404 -1.5604703 -0.18337382 -0.10988521 0.649207 -0.8253214 0.6354543 -0.45461753 1.2371553 -0.3353135 0.18425284 2.8237448 -0.776911 0.014092922 -1.7093593 0.4620396 1.4289194 -1.657106 -0.6288484 -2.9861944 2.0329483 -1.7938008 -2.4413173 -0.617194 0.6447951 0.47046807 -0.63429785 0.85407645 0.98512983 2.5004396 -0.009491804 2.2588248 -1.6048911 0.38503835 -3.0768375 1.0827321 -0.8644046 1.0537369 -0.27894554 -1.4529253 0.37803942 1.7767183 -2.2641695 0.5289429 -2.2209826 0.8042539 -0.64727473 1.6126493 -0.071168445 -0.69993824 -0.9766672 -1.2990453 0.6429163 0.9015172 -0.41948706 1.6335582 1.9136937 1.8839867 -0.7464332 2.057664 -1.0437354 0.028638087 -0.8092163 -0.44029695 -0.10964482 2.066021 -0.27814198 1.5447485 -0.6891348 2.5232854 1.1585029 0.77444434 0.28289768 0.089881904 -0.3312111 1.4521283 0.54665446 -1.4113139 1.1647978 -1.7239989 0.7495865 -1.3275982 -0.16120966 -3.2797265 -0.24516402 0.05500747 0.6333101 0.16297153 -1.5241935 0.8161806 -1.5307655 -1.2472339 0.5237864 -0.98423785 -1.2004721 0.5322162 0.93309164 2.0929327 0.4651347 -0.12963185 -1.0782546 -1.6928642 1.4110099 -0.910883 -1.5295368 0.05995332 0.29015112 0.43156704 -1.990375 0.037571497
all 14.06882 14.4201765 -5.6755466 -11.286362 22.157806 -12.060991 0.7774602 -13.29615 -1.5922008 4.2134323 -1.8667475 1.9842236 4.3773108 -4.466817 1.2752051 -10.715491 10.437732 -7.632118 -9.957961 8.202702 6.1648383 4.909164 22.059519 -12.858138 1.5301764 3.2315204 -14.599381 6.9916162 10.297017 28.087772 -21.062723 15.751091 13.497235 2.1414344 6.1381536 -3.5653534 -5.3387136 -10.118725 9.147829 -2.690133 -10.10683 8.375395 2.326801 7.024583 -1.215237 3.0567122 -8.943941 -2.3060403 10.286024 -9.021594 7.4708567 -0.3387659 4.9663053 -12.693517 -4.0097165 6.9757247 -17.80258 -15.760285 7.60247 13.77015 7.0365596 18.745163 6.3386087 -5.237728 10.8603945 5.966235 23.063135 -6.067251 -0.21245654 8.122489 1.4596095 11.727937 9.11578 -2.2939293 6.7460938 18.900757 17.906277 10.314408 3.2226357 -19.245121 2.675351 0.24840541 -4.205865 10.429466 -9.961172 1.9695154 -9.413666 0.5456318 9.85621 -8.8716345 16.506744 -6.3409367 3.900582 -20.63049 -19.833752 -1.9779042 11.363816 3.7489653 -3.3099828 -4.3139887 6.8541303 -20.769342 20.978506 4.587377 -7.771853 6.0278716 -1.8982924 -18.793331 18.361189 6.3493423 -0.49864694 1.1578999 -13.111891 -2.2540755 -14.437848 9.891829 -3.4012654 6.4581428 7.474288 -5.8009624 11.585816 -1.7727727 -3.2492113 -9.296489 -3.6646156 10.03755 1.7984161 -0.47879347 5.9469876 -2.689104 13.837326 -4.198643 9.07397 16.847303 -5.623847 2.2797015 6.819238 -2.7036092 6.351155 12.962789 10.891636 -9.963756 -5.34084 7.811177 4.0610867 -14.814377 -6.9933095 -0.070609376 7.366097 12.174672 16.203894 0.41471246 9.42177 16.607183 -10.382627 23.934662 -26.079102 0.21011765 -8.08096 -9.475367 -2.0879135 -19.48543 13.660771 -15.046462 4.5383544 -5.9041505 -24.113918 20.04384 18.090647 -3.916846 8.013402 17.662104 3.2842937 11.908155 11.652813 -1.628545 18.725185 -6.9760466 -26.848152 12.2289295 -14.325257 -6.2735577 -5.4077306 -12.459228 -24.401257 -10.816848 17.718845 -9.079569 -8.99617 3.1590524 -3.914276 6.3906293 2.9872403 13.252214 -3.0588305 9.385288 -5.970831 -5.283412 -0.62128884 -11.119288 12.070094 19.150978 -5.3528223 -8.211429 13.887867 5.32579 29.479065 25.868778 10.934085 2.2106867 -5.411498 7.107844 13.999641 0.4665824 11.491293 -6.437564 9.219674 -4.1217713 11.715905 3.4230006 -5.664475 5.4434013 2.3986459 -9.96856 -14.618829 -25.820908 -17.765863 5.556836 12.341863 12.70466 -5.3370843 17.654802 26.926476 1.0461122 4.4104314 -3.2753108 -12.607854 -0.3508036 -1.6709405 5.0243554 5.6766043 -6.8813763 12.089051 -20.272943 1.5448693 40.012337 3.3457088 -1.6293372 -20.487259 -16.138096 -22.757807 0.9649665 -10.447685 7.640212 3.055277 -3.663372 -10.472509 -14.981432 7.8269405 -0.2289284 3.699652 12.651064 -0.5599079 -2.6336277 7.1377 0.07138026 -8.23603 5.8214765 -9.862523 -17.501377 11.877766 -6.5088778 -22.555452 -4.1658874 17.99496 -13.480984 -16.255983 -4.6376166 -1.1254385 -4.5412297 6.08416 5.06565 -3.8572245 19.104912 -5.984623 -5.837381 15.134081 13.921969 3.2713385 -1.49545 -4.0740857 4.1748586 9.983263 13.731584 -7.550448 4.880514 -13.986872 -9.16453 -8.581186 6.899316 -11.216567 -23.011642 -4.5156255 -10.97257 -9.2899685 21.969908 -13.953096 -3.7475696 12.036765 7.753129 10.260118 6.84877 -15.717636 6.623894 -16.222971 10.578769 5.057764 -26.698689 4.805812 -1.0935465 7.5679607 17.636906 20.126823 -0.95686746 13.229272 -3.222654 25.651962 13.154927 5.7757072 25.760817 0.20790476 14.210907 -9.420449 4.8024015 5.9910874 -20.94691 -14.925277 -6.3057346 -9.368243 6.892436 -4.7219124 2.9799562 -9.243555 -6.229111 2.9892163 -19.01041 -6.952343 1.9795667 -7.484867 -10.408464 -1.6084859 8.700251 -5.820311 -21.892845 -7.441233 -22.02142 -6.709357 -26.462696 -0.091734156 0.5719732 -5.1820054 -4.8911276 -7.4300466 7.5038514 13.717042 1.9693503 -6.6759467 19.103283 3.0038543 -18.669548 -11.04734 -1.0127032 6.84197 26.898281 -14.12992 -7.5920568 9.556174 26.97032 -4.6110187 -12.717239 -4.220108 -5.791038 1.8035451 20.778606 -0.9004051 13.055797 0.39794496 15.317992 -13.113302 16.408817 7.4304514 -13.743862 -6.0470767 -0.912927 5.01642 -5.6918974 10.491617 -8.034232 13.972972 -2.197598 -1.8339636 23.168556 -5.4732614 -2.5284612 -17.005169 7.0972443 16.572306 -11.73091 -8.257548 -25.0618 16.407772 -20.508009 -21.50602 -3.656414 5.033904 4.623335 -9.775147 7.7633576 6.854547 19.409737 -2.5134614 20.37988 -15.163826 4.598038 -24.487133 8.50169 -4.2088804 6.549519 0.11501508 -11.283877 8.225796 12.887032 -17.34454 3.7739887 -22.746895 5.5161753 -2.9912655 10.816075 3.8510249 -7.4054155 -5.647193 -14.716059 5.8232193 4.720361 -6.989332 14.713524 15.110926 14.830577 -4.80772 15.498936 -6.9408336 4.562017 -8.729144 -6.4463224 -5.4302325 20.844477 -4.7790375 12.18589 -4.939772 21.44975 13.898426 6.7913694 5.881341 -0.8422443 -3.559033 12.154396 9.457952 -9.204079 9.765859 -11.842092 10.574163 -9.058985 -5.269258 -27.557804 0.33149043 3.1985688 5.834892 5.739508 -11.733193 8.203613 -13.596803 -8.132893 3.5040019 -7.1205077 -11.193176 2.535836 9.834859 18.854576 8.90709 -4.6226106 -8.015627 -13.3606825 9.673832 -11.709681 -15.91746 -2.5407507 2.1703196 4.3095493 -17.850525 -0.015761703
am 2.3898673 1.6479522 -0.9642401 -1.2428926 3.294474 -1.1796743 0.033999998 -2.1122088 0.040562678 0.8148874 -0.087843396 0.024363277 0.5265391 -0.18350025 0.3768451 -1.2533021 1.7898049 -1.1075847 -1.7535764 1.5475029 0.73565114 1.0086361 3.050557 -1.5036029 0.7035491 0.058325995 -1.4578019 0.866308 1.4314609 3.5808318 -2.6623106 2.429064 1.773313 0.017846804 1.043543 0.079882786 -0.8540089 -1.5522232 0.9331186 -0.49442855 -1.5041027 1.0462745 -0.15364476 0.62883073 -0.19123036 0.06799145 -1.6051043 -0.2955672 1.5250733 -1.3042147 1.0132747 -0.46724364 0.87988895 -1.6789366 -0.12226277 0.5085663 -2.3355691 -2.5410798 0.5889315 2.2839544 0.59334403 2.6012647 1.305503 -0.5499209 1.7587302 0.9264438 3.4629402 -0.49219856 0.41053668 1.3808503 -0.29381934 1.7771903 1.176425 -0.34546018 0.66033 2.7544472 2.6020997 1.7576135 0.45666325 -2.4342868 0.08981854 -0.43780884 -0.06522793 0.9949473 -1.3637484 0.5473198 -1.6839603 0.17290562 1.7687938 -0.89326805 2.6770816 -1.2747766 0.5413348 -3.1143672 -2.9874835 -0.19371974 1.6719393 0.70717204 -0.2569357 -0.6761841 1.1976836 -2.7382014 2.6826117 0.90117306 -0.5651542 0.74452543 -0.38735735 -2.6173267 2.6092045 0.5598375 0.3538348 -0.25373212 -1.9629635 0.106731504 -1.596908 0.99748665 -1.0041772 0.99500644 0.98813367 -0.75096333 1.6735137 -0.08685544 -0.920551 -1.5443232 -0.4393103 1.4538004 0.49646878 0.39092404 0.284751 -0.38741064 2.1927102 -0.124815606 1.0473562 2.54168 -0.5673477 0.45011744 0.4366054 -0.81766564 1.3831444 1.2502147 1.28759 -1.6910785 -1.226686 1.0108114 0.9898728 -1.5278056 -1.1094321 -0.10615788 1.0083032 1.2157344 2.0391588 -0.093300454 1.239003 2.5291872 -1.4819572 3.5966523 -3.5475914 0.08927021 -0.8405032 -1.410144 -0.5624437 -2.4281604 2.1651587 -1.7044387 0.5524785 -1.071663 -2.844552 2.356183 1.8621223 -0.7042552 0.7258301 2.8356304 -0.01842811 1.1354175 1.2494655 -0.6795521 2.1046996 -0.58931947 -3.355232 2.0267756 -2.1214788 -0.913723 -0.39613727 -1.8594062 -3.2606382 -1.0403728 1.9934349 -0.9120275 -0.8656843 0.46773213 -0.1185928 0.6697644 0.16169034 1.3280523 -0.25621977 1.5290457 -0.3855319 -0.3850642 0.42817163 -1.0453197 1.8135872 2.0384011 -0.9753416 -0.9732805 1.9591241 0.5980031 3.4284992 3.5800128 1.3479933 0.33225468 -0.6416654 1.3592734 1.662323 0.49920335 1.629408 -0.8568804 1.5491621 -0.28253135 1.8598719 0.84984505 -1.1487249 0.5200797 -0.0460949 -0.9618633 -1.7831516 -2.988291 -2.631938 0.8398421 1.9232347 1.9146563 -0.23200212 2.2464368 3.6897945 0.50571305 0.58811045 -0.28967345 -1.6909586 0.39904347 -0.5660772 0.948204 1.114545 -0.93011063 1.3240387 -2.3444288 0.095372565 5.3393073 0.75781035 -0.49892777 -2.9785416 -2.5287242 -2.671974 -0.11875893 -1.0949726 0.6902675 0.25393274 -0.23675904 -1.7466904 -2.0795732 1.3729246 -0.48300028 0.7160861 1.7889634 -0.18215524 0.019182665 0.45835122 -0.25173473 -1.1751169 0.4406079 -1.0713456 -1.8970358 1.3087449 -1.1933172 -3.375047 -0.6616949 2.4173703 -2.3004222 -2.1660028 -0.86799395 0.23395011 -0.049565446 0.8890963 0.5801502 -0.5674401 2.4989476 -0.522597 -0.7501808 2.418884 1.4464848 0.013039203 -0.2146534 -0.1401763 0.1426679 1.3319775 2.206215 -0.75657135 0.8218635 -2.2012143 -1.5784239 -0.6909734 1.3848164 -1.0674914 -3.028036 -0.60698104 -1.1821715 -0.91448414 2.953124 -2.0409737 -0.5249505 1.4050599 0.8648992 1.1181883 0.7995403 -2.0778704 1.0929403 -2.3262467 1.7956294 0.5240358 -3.3239715 0.5385782 -0.43779162 1.2913853 2.4761822 2.297894 0.22540173 1.9281311 -0.7436358 3.8235116 1.7706639 0.64957416 3.348081 -0.49901786 1.7065614 -1.2730173 0.61039114 0.91407543 -2.5877519 -2.0022552 -0.75541735 -1.1018963 0.7831978 -0.92209834 0.8193712 -0.87716895 -0.3880383 0.30080375 -2.127027 -1.2558527 0.18840283 -0.84337646 -0.9547018 -0.30241853 0.9831424 -0.5851523 -3.0011752 -0.53786474 -2.4697056 -0.92074656 -3.4649708 0.34195513 0.48573148 -0.7044817 -1.1175287 -1.3613003 0.7765958 1.8614516 0.57030904 -0.48259413 2.5481298 0.80380905 -2.758382 -1.4270666 -0.44344145 0.9196278 3.875606 -1.6319177 -0.60670227 1.7813963 3.7567868 -0.8302306 -1.2663054 -0.54067594 -0.4853251 -0.26330796 2.8819501 0.34784636 2.1517599 0.17244403 1.6746452 -1.7188174 2.2740297 0.6631489 -1.342289 -1.0344367 0.21594937 0.78401005 -1.0446568 1.0255331 -1.3066608 1.433101 0.15427935 -0.29062018 3.007291 -0.8067498 -0.12425204 -2.609182 0.57053787 2.2549696 -1.6863607 -0.67149115 -2.887939 1.6091 -2.181158 -3.0979242 -0.6267275 0.85900176 0.742525 -1.2299255 0.5879377 0.7120169 2.3862023 -0.09310394 2.595125 -2.427901 0.1261645 -2.9385724 1.5193887 -0.25382262 0.48752597 -0.28686273 -1.0351605 1.4613856 1.8288212 -1.9063362 0.6851123 -3.3997645 0.4799227 0.006900157 1.8952403 0.93032336 -1.0950247 -0.72356397 -2.1529794 0.3084409 0.34989896 -1.1134076 1.6183292 1.7248585 2.1722763 -0.9358202 1.7069321 -1.096368 0.7876933 -1.5190202 -0.5219889 -0.49706024 2.496017 -0.24661267 1.399838 -0.48489186 3.032637 1.6604385 1.2327977 0.9587931 -0.589167 -0.7900031 1.7670112 1.0999008 -1.1605265 1.5614083 -1.636834 1.3648969 -1.030068 -1.0112332 -3.3115745 0.24269354 0.8830796 1.231001 0.7154007 -1.6624641 0.7121846 -1.7548507 -0.8701241 0.37682754 -0.7392347 -1.2071283 0.5695932 0.8565008 2.773627 1.6293153 -0.49005494 -0.49520555 -1.5305613 1.0459148 -1.6917851 -1.6376393 -0.14446624 0.17411892 0.31262115 -2.0903163 0.030067531
an 1.712495 0.9342325 -0.48619005 -1.3029088 2.2076473 -0.9175436 0.23258203 -1.2392327 0.324722 -0.047771003 0.18984494 0.114796765 0.35995886 -0.34185869 -0.15464848 -1.3341217 1.3851066 -0.2910088 -1.2948793 0.81665707 0.6549814 0.21551546 2.2534595 -1.5756726 0.37133992 0.06214129 -1.4473432 0.6586543 1.4054961 2.8823655 -2.5204399 1.54788 0.90169173 0.5496579 0.35566062 -0.08020295 -0.09039932 -0.72835064 1.2129408 -0.6588511 -1.428411 0.6229502 0.0011558491 0.2934046 -0.23962966 0.08680043 -0.8706568 -0.36767548 0.6484028 -1.0221704 1.095129 0.26222503 0.4886297 -1.4402002 -0.49540186 0.29172593 -1.863328 -2.0046961 1.2016435 1.0527282 1.1756806 2.0205724 0.63176644 -0.22639035 0.89719075 0.6264034 2.503 -0.7767118 -0.01857114 1.1033998 -0.3028303 1.4859833 0.43027773 0.010936841 0.6619897 2.0855036 2.2400215 1.004913 0.48536494 -2.3016605 0.6789289 0.4284223 -0.73029476 0.79029876 -0.62740785 0.3344987 -0.8070886 -0.36267203 1.1695468 -0.7213504 1.3810931 -0.75748026 0.29107356 -1.5902894 -1.7552382 -0.22709796 0.70239323 0.820037 -0.18932119 -0.69279426 1.1497113 -2.113466 1.75538 0.113708146 -1.0168531 0.77397716 -0.13544875 -1.3874978 1.4555459 0.7665039 0.24090278 0.53583217 -1.4820307 -0.46311486 -1.7823031 1.3984382 -0.08234849 0.90620494 0.88937646 -0.9141956 0.93354255 -0.35402742 -0.45293936 -0.96324253 -0.27878553 0.72902113 0.623627 -0.076834634 0.22276106 0.13321868 1.210174 -0.8866322 1.0278128 1.3679998 -0.7172819 0.029218443 0.3393831 0.029193176 0.544816 1.0891082 0.7095051 -1.2129642 -0.8260332 0.9818827 0.31547812 -1.0363438 -0.9339833 0.04889614 0.8812573 1.4224111 1.3651155 -0.087421745 0.45820317 1.7348993 -0.68968284 2.2155352 -2.25794 -0.38387173 -0.6079874 -1.1302425 -0.06830248 -1.8225479 1.0649754 -1.3305434 0.809775 -0.896532 -2.2090905 2.3636832 1.882822 -0.77566594 0.27304596 1.5721774 0.3259988 1.1182628 1.1179361 0.2653787 2.1372652 -0.4595484 -3.0527124 1.0905344 -1.356354 -0.19882143 -0.19035672 -0.98894024 -2.338383 -0.87742764 1.4768718 -0.9181266 -0.7288663 0.34084958 -0.4682804 0.33901232 0.10458297 1.0174211 -0.6613326 0.41159207 -0.9974616 -0.22777693 -0.4869785 -0.96104515 1.0759323 1.918402 -0.9197981 -1.2420502 1.2421396 0.8570964 3.2655807 2.9253256 1.1345236 0.6237915 -0.46099117 0.44120827 1.4285481 0.51056266 1.2329427 -0.8435169 0.6846003 -0.13686296 1.0843745 0.50276685 -0.45504603 0.88093865 0.17860892 -1.4546356 -1.745525 -2.1230576 -1.6723796 0.32017952 0.95201933 1.754958 -0.9915077 1.7365952 2.333927 0.13710018 0.09972601 0.20596552 -1.3382709 -0.49642047 -0.3214844 0.75211376 0.7434358 -0.95043856 0.7438685 -2.2142503 0.17890391 3.9377937 0.47196555 -0.25372803 -2.388924 -1.494403 -2.1220193 0.61640406 -0.7805575 0.41744232 0.28230667 -0.06981219 -0.6730484 -1.7614936 0.87876904 -0.32878894 0.6249543 1.7610118 -0.39156914 -0.4318516 0.38462773 0.15110031 -0.7391494 0.3617711 -0.97871506 -1.3216337 0.76351273 -0.16827442 -2.3860002 -0.59340507 1.6767286 -1.5687616 -2.1315682 -0.74944556 -0.41840062 -0.31936857 0.42784634 0.8445628 -0.8097761 2.030167 -0.4691294 -0.6304545 1.071867 1.666058 0.060234595 0.11369753 -0.5488126 0.41923118 1.319381 1.5469444 -0.8635975 0.28690296 -1.6079006 -0.5059223 -0.60637236 0.609019 -0.67985183 -2.3223186 -0.32805604 -1.1130183 -0.93057156 2.0330763 -1.3048264 -0.7230069 1.2844809 0.5664515 1.3902841 0.95835704 -1.9852079 0.46245757 -1.9853688 1.102994 0.8553838 -2.5203042 0.8412296 -0.18768562 0.38353455 1.581657 1.6755912 -0.06665449 0.81518084 0.0071731773 2.8471746 1.2059416 0.53863966 3.0143597 -0.46934912 1.4105965 -0.7336613 0.97036767 0.8300719 -2.314102 -1.4093834 -1.130381 -1.3193903 0.79211575 -0.39656296 0.24846083 -1.2994963 -0.08785648 0.074239604 -2.126458 -0.87117815 0.26349923 -0.91275275 -0.682757 -0.15308292 1.3125622 -0.4113678 -2.2531576 -1.0549569 -2.3651118 -1.077828 -2.756029 -0.24626838 0.25828278 -0.3139593 -0.39673245 -1.1269882 0.948996 0.83597404 -0.2516948 -0.742848 1.5692074 0.687628 -1.6276634 -1.526148 -0.43995178 0.2832216 2.6060293 -1.4910965 -0.76322865 1.0986326 2.3365576 -0.48462573 -1.6650717 -0.5231789 -0.10651861 0.6361777 1.9806254 0.023403836 0.8505053 -0.17558381 1.9955438 -1.2446263 1.5045097 1.1226176 -0.9984904 -0.7758168 -0.46419156 0.8501797 -1.0181614 0.9270311 -1.1263477 1.6635014 -0.1338329 -0.057950586 2.263471 -0.06432284 0.22548907 -2.0566194 0.8643455 1.3260208 -1.1629307 -0.7263991 -2.4214208 1.8534997 -1.8302394 -2.5822477 -0.15954185 0.50378764 0.84427065 -0.86742693 0.6854983 0.5336857 1.9306188 -0.384582 1.8590593 -1.4817635 0.65739924 -2.9196908 1.069166 0.029396672 0.40967542 0.40531278 -1.4317628 0.351513 1.6912187 -1.399403 -0.024034414 -2.2642982 0.7397889 -0.1550384 1.4228944 0.079284586 -0.5048926 -0.35670608 -1.0560709 0.4663809 0.1372284 -0.963696 1.3772191 1.6093999 1.2529836 -0.8623639 1.3255509 -1.0476633 0.2387827 -0.5155502 -0.5139451 -0.8269056 1.7696253 -0.7063498 0.959998 -0.046158127 1.868661 1.1864381 0.73457175 0.38279858 -0.56586957 -0.7638107 0.9522007 1.3596115 -1.2170091 1.3420838 -1.4366971 0.5922247 -0.84887433 -0.6900905 -2.5723252 0.106411874 0.74305385 0.58780426 0.6833076 -0.6621174 0.5634979 -1.6924311 -1.1535579 0.18816951 -0.8991491 -1.2009938 0.3304855 1.263954 2.3066037 0.50496215 -0.74623984 -0.6436156 -1.2133856 0.75340116 -1.3876761 -2.0142012 -0.38335368 0.11149521 0.844597 -1.6984359 0.21718945
and 61.53301 59.01774 -25.653023 -46.220657 95.27038 -53.378716 4.067673 -56.88438 -4.095974 16.568443 -7.493724 8.694344 18.713343 -19.038378 5.8585243 -46.924324 44.500614 -30.727259 -42.86344 36.03296 24.72569 19.600672 93.47538 -57.364597 7.6760135 12.227676 -61.756477 29.768911 42.00885 120.06191 -89.486435 65.38578 58.813488 10.87651 26.675055 -13.504741 -23.549278 -45.096786 39.162342 -13.274889 -44.07441 38.21434 9.5948515 29.89006 -7.1452155 15.138109 -40.495255 -10.698293 41.430347 -36.523823 31.858553 -0.5952038 21.565256 -53.336647 -14.838845 30.28516 -73.44906 -68.344246 31.396965 58.517693 29.35543 79.73073 28.610483 -22.349424 47.437386 24.64344 97.83151 -24.971176 -3.016694 36.443436 5.6479506 49.231712 37.24142 -11.652211 31.303938 79.67141 76.79338 41.95733 13.600529 -81.9478 11.778568 1.0164295 -15.925845 43.53943 -42.015583 6.6553283 -42.009155 0.5919628 43.21092 -37.674587 71.0391 -24.566372 18.40107 -89.379845 -83.53912 -6.55592 49.506886 15.135122 -12.223461 -17.064062 30.887745 -88.83553 91.64183 19.483688 -32.64199 25.920502 -6.5418653 -78.37 79.79258 27.127792 -0.059970543 3.619287 -58.3275 -8.836673 -63.55765 42.25497 -17.1044 28.194443 33.384533 -26.486046 50.006783 -10.143292 -15.298717 -41.58865 -17.148773 43.292206 8.565022 -1.5432013 24.420664 -12.642446 59.86898 -17.622435 36.46982 72.75027 -23.238596 8.544596 27.577612 -10.42281 28.539217 52.76331 47.81773 -40.73499 -24.370123 34.225697 18.864391 -61.739338 -27.424284 0.4254876 29.387798 50.176144 68.82556 0.08836742 40.102962 70.25036 -46.170918 103.68033 -109.0998 2.9302607 -33.044273 -38.591724 -10.252449 -82.95259 60.161816 -62.77302 17.406734 -22.835512 -101.26765 85.131386 76.26494 -19.037004 32.16186 75.90954 11.839382 50.82592 49.393906 -5.5014377 79.40716 -28.249239 -114.81815 52.62711 -59.740135 -27.658154 -24.048952 -51.195328 -106.14698 -45.196857 77.346085 -38.1126 -37.32936 12.380069 -15.858726 26.138334 11.137792 54.744484 -13.830119 38.799557 -26.235615 -22.952923 -0.96355164 -48.013916 52.47658 81.04418 -21.845295 -33.980476 58.639572 20.756199 123.74864 110.34115 48.048286 11.069254 -21.197351 28.196024 61.95422 0.040364925 48.80582 -26.96295 38.067394 -19.246607 49.61007 14.942111 -25.237555 22.841362 9.131476 -45.123253 -62.28857 -109.6159 -75.61643 22.66977 52.377266 54.791943 -21.708866 75.410065 113.967 2.9840505 20.957697 -12.329243 -53.162186 0.19802316 -5.523958 22.108202 21.98964 -28.96589 53.602043 -85.99319 5.2974424 171.7666 11.839733 -4.819167 -89.75767 -67.14748 -95.332756 6.2103987 -43.54056 33.02967 14.440809 -17.093134 -42.662636 -62.31969 34.54567 0.33314085 16.49568 56.036724 -1.0983042 -9.511695 29.676376 -0.14130814 -34.461655 23.505102 -42.574238 -74.022995 52.24185 -25.844494 -95.10487 -16.322935 78.9478 -58.467102 -71.07316 -20.445637 -4.347684 -16.785019 26.640434 20.41649 -17.777252 83.07399 -27.183138 -25.718782 63.797085 60.99273 13.09058 -4.5136766 -16.830267 17.512785 41.486874 56.94901 -31.259577 19.40515 -61.675545 -39.49247 -38.493355 30.21842 -45.09164 -97.59619 -19.146727 -47.889706 -42.072388 92.55961 -58.56542 -14.443093 51.83624 34.159065 42.65586 29.088135 -68.838425 29.08458 -70.30199 46.231915 23.640215 -113.27947 22.350502 -4.345799 32.50294 73.890305 86.16692 -2.5735674 56.392384 -14.592024 110.419334 53.686527 25.653898 110.708305 0.07434782 59.16108 -39.098488 21.24171 27.650154 -89.34812 -62.54469 -27.303654 -40.506405 27.450418 -18.887245 11.990914 -37.72495 -25.114742 13.5757 -80.729385 -31.64221 8.740974 -31.00689 -42.495476 -7.6682973 37.2712 -26.41826 -91.16399 -33.35822 -92.189 -28.07831 -112.37244 0.89767975 4.2451015 -23.827559 -20.799871 -30.684778 29.311462 56.114666 11.159014 -26.687775 80.17821 13.376265 -79.0288 -49.105804 -5.499735 28.724123 115.55429 -57.87827 -34.927544 42.098217 114.20445 -17.748411 -53.01121 -16.907606 -22.808367 7.5689 89.1608 -4.5800548 55.59426 0.93450594 66.67218 -57.861366 69.356964 31.803833 -58.101437 -23.856155 -4.956195 19.569004 -25.30774 45.2468 -32.771156 58.74898 -9.991453 -7.7173896 97.11173 -24.395777 -8.449834 -74.48527 28.64946 69.18889 -48.05444 -34.61931 -104.92176 68.55628 -85.41336 -92.477234 -16.972403 20.266384 18.749668 -43.130882 35.094692 30.425516 81.86196 -10.558371 87.24039 -65.75568 17.421495 -106.823814 35.35592 -16.759085 26.207207 1.0170635 -49.218937 36.358547 53.42055 -73.67972 14.53715 -97.08528 24.786516 -13.71341 46.57357 14.63912 -31.616049 -26.17506 -64.94815 25.862104 21.776974 -27.98342 64.575264 63.877544 61.68549 -18.816399 64.37885 -28.46149 20.453321 -35.69298 -28.102953 -21.363409 90.89239 -21.693327 52.29384 -20.588884 93.57323 60.809772 31.54145 26.486597 -3.7296786 -13.442713 51.0559 42.88491 -40.36223 42.416546 -50.62898 44.591125 -39.7041 -20.877592 -115.7465 0.49796468 14.264301 24.257782 25.982222 -49.359364 33.666294 -55.763847 -33.026947 13.993007 -28.230583 -49.458874 8.9281225 43.767357 81.59471 37.764164 -22.345226 -31.752842 -59.216507 39.579216 -48.931896 -68.69635 -10.292445 7.746037 17.75382 -77.909744 1.3385515
are 10.46555 10.307586 -4.7978578 -7.4410615 15.753347 -8.764208 0.7201828 -9.509505 -0.54998213 2.4686708 -1.192447 1.3036088 3.034795 -2.9468367 1.337179 -8.069848 7.6714325 -5.5443645 -7.150723 5.599316 3.6769757 2.867739 15.001771 -9.910724 1.2679179 1.7414675 -10.421127 4.571464 6.5798416 19.965075 -15.385199 10.353237 9.333063 1.7485095 4.179497 -2.1614454 -3.7508197 -7.445657 6.067393 -2.3631985 -7.028628 5.919861 1.0024569 4.4690785 -0.7817754 2.0759938 -6.863671 -2.1161647 6.477866 -6.156616 5.5292263 0.07218753 3.7552898 -9.13636 -2.3477733 4.7256603 -12.077281 -11.21089 5.340289 9.243205 4.6483693 13.151555 4.6879363 -3.9167771 7.730449 4.5576563 16.222643 -4.520148 -0.3830662 5.6307526 1.0572209 8.300146 6.597419 -1.6886957 5.6213365 13.604104 12.841994 7.328181 2.4551325 -13.148758 1.7050674 0.5556438 -2.599588 7.237009 -7.4897428 1.3017573 -7.1760626 -0.16590768 6.7370086 -5.964874 11.544418 -3.9301825 2.851559 -15.291087 -13.555161 -1.3349545 8.574178 2.907176 -2.0045512 -2.8593726 5.326761 -15.076608 15.334659 3.6411932 -5.7613497 4.26177 -1.6231108 -12.776942 13.180036 4.4744067 -0.022606036 0.4421652 -9.181066 -1.5727102 -10.273719 6.449472 -3.2516217 4.5159745 5.849343 -4.455172 8.392074 -1.2394942 -2.6853821 -7.2188377 -3.2326448 7.4899206 1.7353206 0.1618153 3.8480868 -2.3683531 10.127307 -3.2971995 6.3433404 11.933589 -4.0041957 1.4483603 4.658857 -1.7465469 4.5001636 9.398364 7.767697 -7.160132 -3.9236631 5.1267476 3.245408 -10.820578 -5.1801405 0.23248062 5.1350017 8.110713 10.937532 -0.23444183 6.932945 11.821173 -8.12407 17.13851 -18.605572 0.76239634 -5.7018924 -6.7566957 -1.3666999 -13.797378 10.091177 -10.731471 2.6615689 -3.5462384 -16.721424 14.278491 12.35893 -3.001674 5.5367846 12.364973 1.7302314 8.645222 8.378035 -1.5250573 12.902875 -4.805667 -19.517363 8.57273 -9.433981 -4.5685706 -4.0999637 -8.728636 -17.945353 -7.9364667 12.627214 -6.234536 -6.093791 1.7163281 -2.7568169 4.2044897 1.8838952 9.379331 -1.9792333 6.621067 -4.6706 -3.2756014 -0.69228834 -8.229621 9.030912 13.012782 -3.2306702 -5.678679 9.823776 3.576832 20.504736 17.837965 8.005566 1.5633512 -3.59111 4.7270226 9.988231 0.011184519 8.113606 -4.917094 5.96552 -3.2742672 8.0578 2.2486546 -3.7836351 3.9642138 1.5687736 -7.233476 -10.32179 -18.675175 -12.196564 3.6435804 8.830714 8.830072 -3.302179 12.192638 18.900747 0.11562077 3.6987424 -2.4253075 -8.768475 -0.14549902 -1.173589 3.919674 3.9789486 -5.3264437 8.384694 -14.528671 1.1061954 28.79824 1.8057821 -0.72635525 -14.687352 -10.861601 -16.012438 1.0578384 -6.89196 5.7102304 3.0035565 -2.5772464 -6.868081 -10.23297 5.5781436 0.12839784 3.2122593 9.312107 0.22816789 -1.6877798 5.3318186 0.16030508 -6.092267 4.411608 -6.611523 -12.833897 9.226095 -4.8340793 -16.30651 -2.907001 12.773036 -9.942848 -12.269958 -3.2318878 -1.1157855 -2.8483176 4.6898274 2.8512888 -2.6605203 14.207532 -4.745251 -4.1220527 10.540087 9.679083 1.6902219 -0.9879063 -2.4479554 2.7932785 7.0484753 9.84096 -4.8858185 3.7741597 -10.662495 -7.050302 -5.8676047 5.1917534 -7.5567083 -16.573524 -2.9238915 -8.269163 -6.708366 15.601421 -10.140993 -2.0385413 8.306319 5.496317 7.3426337 4.630252 -11.534651 4.5097876 -11.704124 8.039162 4.1729507 -18.925137 4.1957436 -1.2114029 5.0163193 12.387737 14.71577 -0.5652612 9.378715 -2.4840395 18.043858 9.050387 3.9600143 18.298023 -0.45509344 10.364034 -6.700229 3.649962 4.5143404 -15.161436 -10.982879 -4.3004427 -7.137845 4.0348387 -2.9769475 1.7840081 -6.188284 -4.292424 2.42993 -13.116517 -5.2346096 1.4923972 -5.218443 -6.7233195 -1.762534 6.126986 -4.2486134 -14.91083 -5.770099 -14.7370615 -4.149703 -18.928755 -0.16425508 1.1882155 -4.3538456 -3.7240238 -4.8213997 5.3768578 9.254563 2.1548467 -4.2279167 13.5093 2.5717788 -13.446435 -8.209111 -1.0615147 4.995666 18.968071 -9.90097 -5.2910695 6.4719296 19.254894 -2.5951695 -8.896377 -3.1246397 -4.038104 1.1511303 15.268141 -1.1549582 8.928196 0.5379933 10.622834 -9.353067 11.610332 5.473556 -9.620534 -4.2522116 -0.7008463 3.7298837 -4.3556433 7.878536 -5.3855305 9.437069 -1.3916864 -1.3005276 16.09494 -3.703888 -1.6340868 -11.8263 5.2314076 11.557511 -7.7175474 -6.1935763 -17.278605 11.215709 -14.011068 -15.178211 -3.258805 3.809 2.5044045 -7.433315 5.610716 5.1550627 13.450462 -1.8105907 14.880525 -11.180021 3.1261382 -17.590189 6.257532 -2.7102265 4.807803 0.30398402 -7.8779936 6.4504447 9.22904 -11.853702 2.0026062 -16.556213 3.900677 -2.480497 8.053993 2.1727107 -4.734348 -4.359308 -10.312946 3.909953 3.3478062 -4.4952226 10.451205 10.31499 9.87768 -2.8270059 10.183918 -4.523481 3.0594215 -6.153776 -4.201825 -3.4032106 15.304866 -3.1204243 8.480257 -3.7347808 15.038486 10.189939 5.196936 4.9848537 -0.28158197 -2.678893 8.42817 7.2937093 -6.3371177 6.709771 -8.363845 7.2731442 -6.1104255 -3.5478675 -19.315763 -0.40365228 2.9127743 4.4519315 4.455822 -8.319338 5.6772904 -8.786666 -5.0726576 2.2113793 -4.826387 -7.910944 1.2611669 7.62661 13.745856 6.5589695 -3.730017 -5.3220906 -9.781033 7.0741625 -8.512528 -11.921519 -1.8030872 1.1543556 3.1053512 -13.221112 0.35949638
around 1.1329197 1.2407866 -0.52265817 -0.8557531 1.7331717 -1.0525696 0.5628659 -0.92320603 -0.49729204 0.4616279 -0.08119424 -0.12330739 0.8369518 -0.08953085 0.26200733 -0.9088115 0.7737533 -0.6544535 -1.2291511 0.7536208 0.9432357 0.8949247 2.384532 -1.3163606 -0.08194047 0.68839663 -1.2948967 0.34090328 1.103627 2.8004398 -1.5097435 1.3253198 1.6857251 0.477757 0.3532392 -0.6860345 -0.9377012 -0.72055066 1.2836742 -0.11509034 -0.93954426 1.3326086 0.5276331 0.61957407 0.35740244 0.08782447 -1.3400148 -0.29957366 1.1506107 -0.3318032 0.9835892 -0.23065892 0.23656541 -1.5900148 -0.026791291 0.8873035 -1.5138794 -1.5947672 0.8665617 1.469677 0.9373167 1.7363347 0.21526697 -0.57928056 1.4889649 0.22768809 2.1491468 -0.44267595 0.24898517 0.67116857 -0.29721025 1.4190443 0.54324174 -0.6022027 0.96644646 2.0990112 1.630731 0.8326204 -0.07814244 -1.9750988 0.3628735 0.0048575345 -0.2663091 0.992834 -1.372207 -0.13591808 -0.5667143 0.28162572 0.4840851 -0.70929205 1.4652113 -0.7640321 0.6980568 -2.4149523 -1.3483535 -0.16961645 1.2870257 0.46286377 -0.21634614 -0.79088396 0.51619434 -2.2258708 1.6948584 0.4072573 -0.8159631 0.7117306 -0.10980524 -1.8132468 1.4716821 0.79451334 0.1991781 -0.32790038 -0.82369083 0.053188235 -1.1159798 1.4153402 -0.7640845 0.13410023 0.73321617 -1.0664697 0.90098554 -0.18962887 0.14974475 -0.52718437 -0.49242067 0.8608513 0.17349052 0.29695418 0.931708 -0.109044805 1.5797864 -0.8492348 0.86046994 1.1444769 -0.15354006 0.41656905 0.6171767 0.26110327 0.5652057 0.9744908 1.2052896 -0.8811846 -0.8226455 0.88492274 0.11778505 -1.5232071 -0.66846204 0.11853471 1.0309916 1.0658878 1.3729674 -0.04805836 0.45114136 1.706468 -0.8607851 2.2302494 -2.7131124 -0.38916853 -0.97989976 -0.3645447 -0.10085716 -1.4129556 1.1983924 -1.8112088 0.091465265 -0.87205774 -2.2219357 2.089697 1.2286443 -0.44922805 0.42727253 2.138388 0.17969291 1.4018207 1.5747648 0.3529297 1.7958857 -0.6553044 -2.949424 1.5195448 -1.5378135 -0.9366328 -0.7053124 -1.5897871 -2.0033083 -1.5058259 1.8339823 -0.5154999 -0.3217667 0.6273932 -0.74567866 0.13882625 0.04029428 1.6257166 -0.57485473 1.0183948 -0.0796284 -0.39433357 0.2898461 -1.1798258 1.6369418 1.9540186 -0.56653947 -0.80363625 1.1207982 0.6288896 2.3069437 2.7833512 1.1876634 -0.08715879 -0.62847364 0.17402838 1.3908918 0.13794212 0.86096674 -0.48710567 1.291053 -0.33862394 1.0754421 0.6539913 -0.73338854 0.32869846 0.5815518 -1.4553096 -1.6564696 -2.713225 -1.4474962 0.077622265 1.2762433 1.0315021 -0.6983697 2.1436992 2.3488832 0.1539855 0.5967937 0.21191421 -1.5522639 -0.3921641 0.3033032 0.46406052 0.047912873 -1.0110981 1.185314 -2.0039654 -0.1305059 3.6082134 0.009641664 0.30633533 -2.3862398 -1.8265814 -2.493845 0.6145944 -0.4824812 0.80819076 0.41625142 -0.5087033 -1.1083165 -1.7671624 0.34854326 0.0041293623 0.67705846 1.1095692 -0.464052 -0.4746168 0.3476549 0.2692729 -0.4013977 0.4570342 -0.9790604 -2.0856528 1.6159164 -0.26603803 -2.3885362 -0.71404034 1.501934 -1.4846587 -1.4950948 -0.41698208 -0.25240612 -0.076066606 0.39825612 0.07262172 -0.70225024 2.2701042 -0.57727104 -0.4388012 1.2542394 1.8308673 -0.19610901 -0.1351201 -0.27982995 0.1767486 1.0135442 1.3375304 -0.5993364 0.5999516 -1.8204548 -0.43299595 -0.97550946 0.58323836 -1.0292821 -1.6862049 -0.8146899 -0.64468193 -1.322698 1.6173705 -1.5097877 -0.2006563 1.5481884 0.85121053 0.48495844 0.53837276 -1.0533143 0.7278087 -1.1995707 0.7932074 0.32279253 -2.7344055 0.75019926 0.15728559 0.7887547 1.4686278 1.6937041 0.43428558 1.4685136 -0.6632208 2.72125 0.787992 0.9663922 2.2098417 -0.32693583 1.4037794 -0.7298789 0.35904774 0.8030151 -1.9886632 -0.95591104 -0.2811893 -0.96098644 0.17956506 -0.20996933 0.2553652 -1.1002058 -1.0087866 0.6670123 -2.06487 -0.46911636 0.33543128 -0.91760445 -0.78524405 -0.082721226 1.0134732 -0.23655762 -2.0018518 -1.0904453 -2.0833237 -0.65512747 -2.304269 -0.23010196 0.2257058 -0.111559495 0.013549986 -1.1546763 0.9987587 1.0872613 0.367251 -0.25368103 1.8245854 0.3467185 -1.7415837 -1.430631 0.18617731 0.7409987 2.8886924 -1.6436048 -1.0039687 1.1876339 2.147899 -0.75531715 -1.1157888 -0.01751519 -0.62544084 -0.3077129 2.393905 -0.41598257 0.7445529 -0.064751744 1.0693808 -1.0556508 1.2512105 0.39164606 -0.98632026 -0.63418597 -0.38428608 0.20694998 -0.39253557 1.4245977 -1.1950969 1.5202837 -0.2565732 0.18136463 2.0100653 -0.81803524 0.23017634 -1.8792654 0.82680744 1.5339515 -1.3749421 -0.5545617 -2.0737514 1.8766929 -1.9704459 -1.607906 -0.38219598 0.26135442 0.62674254 -1.4423199 0.82420623 0.8306424 2.0219047 0.19631323 1.713652 -1.22273 0.7270536 -2.5942433 1.2680144 0.050860897 0.9958219 0.124280535 -0.76423126 0.78784734 0.8401316 -1.319356 -0.068017855 -2.1821053 0.77188146 0.15883726 1.3436359 0.74612993 -1.1548594 -1.0638901 -1.2946486 0.61892045 0.03413395 -0.3156679 1.4569917 1.2111247 1.2707156 -0.573557 0.94089913 -0.44885212 0.76318425 -1.2085798 -0.9426869 -0.556824 1.761624 -0.8253117 1.5694577 -0.9434402 1.7162086 1.1014055 0.7346148 0.45478216 -0.090574004 0.089584276 1.5054294 0.6509819 -0.99011534 1.2107897 -1.0948664 0.7977905 -1.0001112 -0.89542544 -2.0757604 0.29130754 0.38982454 0.44253567 0.4367203 -1.253378 1.1545655 -1.1535488 -0.63535804 0.10066761 -0.3512371 -1.3571073 0.12532894 1.0249927 1.6866065 0.89007556 -0.5779114 -0.41901103 -1.2492311 1.1355342 -0.75339687 -1.5013863 -0.19999082 0.5852368 0.6691821 -1.9413621 -0.28184077
as 8.51878 8.167006 -3.580512 -6.6508055 12.773763 -7.4626913 0.1644972 -7.805576 -0.4655959 2.4353182 -1.5476637 0.9174087 2.2385588 -2.4697795 0.5350916 -6.797076 5.5867357 -4.299414 -5.4314966 4.478074 3.3551044 3.0002902 12.72808 -7.627686 0.5878075 1.5241086 -8.845545 4.400276 6.062172 16.594782 -12.659966 8.913846 7.633914 1.0947835 3.4503205 -2.0443585 -3.2566333 -5.772534 5.6717787 -1.2630334 -6.1397324 5.0800385 1.0087218 4.3289127 -0.7287119 1.6850575 -5.5301204 -1.9269589 5.641356 -5.08679 4.7667 0.40337825 3.0359051 -7.302368 -2.4589586 3.7648063 -10.065332 -9.025213 4.457847 8.206003 4.49443 11.385975 3.98722 -3.4350402 6.686451 3.3975656 13.133562 -3.4079332 0.12460381 4.757978 0.7143311 6.8822017 5.4889665 -1.5308781 4.780595 11.473177 10.443559 6.2045455 1.7022083 -10.751477 1.6438576 -0.16579969 -2.6565628 5.759036 -6.3428435 1.0155927 -5.6045876 0.2779982 5.827443 -4.9702883 10.26968 -3.5441356 3.1131535 -12.576443 -11.421144 -1.0509138 6.7550707 2.37697 -1.2108148 -2.7042491 3.8048687 -12.029969 12.515244 3.0465086 -4.5682683 3.059749 -0.782695 -11.267478 10.681257 4.269381 -0.030729078 0.746434 -8.001099 -1.582547 -9.115744 5.3678775 -1.9500713 3.7331898 5.142888 -3.6625588 6.4034553 -0.86352456 -2.022427 -5.4923806 -2.0480251 5.4825463 1.3630221 -0.19227196 3.067306 -1.9400488 7.810641 -2.2579668 5.373154 9.657638 -2.921745 1.7001458 3.8742905 -1.2637866 3.5077882 7.8361144 6.441894 -5.597746 -3.907992 4.6582828 2.4433186 -8.284878 -3.4051929 0.51679176 3.8278105 7.3304152 9.424073 0.027810343 5.382308 9.177988 -6.196589 14.428495 -15.158924 0.22692838 -4.7310343 -4.879503 -1.2992067 -11.211537 8.482147 -8.390879 2.3591704 -2.726984 -13.730366 11.810407 10.7830515 -2.749038 4.064436 10.316649 1.3197188 7.1155577 7.359504 -1.1228324 11.380642 -4.088942 -15.824403 7.3453093 -8.268746 -4.2318196 -3.3075657 -7.2640467 -14.621633 -6.503542 10.968575 -5.5308375 -4.9257483 2.152446 -1.7745994 3.1130524 1.9836411 7.5058436 -1.5382769 5.8575015 -3.7687068 -3.5501864 -0.23310848 -6.4284606 7.1320577 10.693595 -3.0635831 -4.4928646 8.45696 2.6898606 17.19212 14.841702 6.4427834 1.067271 -2.6051219 4.344886 8.648344 0.6064984 6.6528482 -4.1722374 4.825159 -2.520471 6.682608 2.479243 -3.5823305 2.6644607 1.6471779 -5.917696 -8.527147 -15.412049 -10.363359 3.344614 7.675797 7.244126 -3.0546694 9.902437 15.988342 0.63069946 3.1921377 -1.9097396 -7.848496 -0.45765698 -0.5718201 2.5034373 2.593061 -3.9379692 7.2043014 -12.110995 1.068805 24.058855 1.2251331 -0.622688 -12.474236 -9.448218 -13.348862 1.1238353 -5.530337 4.3595085 1.9298761 -2.7110233 -5.691137 -8.889526 4.7187924 0.015809903 2.1182377 7.7550735 -0.047284078 -1.5407034 3.9216592 -0.15828274 -4.7004333 3.1013916 -5.842171 -10.657552 7.3277693 -4.0212083 -13.163021 -2.4683433 10.581621 -7.628006 -9.698179 -3.2854893 -0.5180468 -2.7479548 3.9222407 3.0382984 -2.3843033 11.223528 -3.9853392 -3.4871345 8.615996 8.723327 1.7548058 -1.1967956 -2.7722075 2.8854136 5.3971167 8.205315 -4.7683945 2.9533496 -8.685122 -5.417727 -5.478164 3.7179108 -5.9964185 -13.049945 -2.67417 -6.8213544 -5.9004526 13.089996 -8.099541 -1.6624422 6.963957 4.3297215 5.7361264 3.8030071 -8.997262 3.8744779 -9.705964 6.7289877 3.3627753 -15.098512 3.0315814 -0.20691442 4.2304626 9.786582 11.734147 -0.72488743 7.6243944 -1.5574322 14.923027 7.9058156 3.230986 15.580672 0.2796076 8.182312 -5.124079 3.2857072 3.9406238 -12.836061 -8.363689 -4.0857387 -5.7159348 4.0291224 -2.5781233 1.4046398 -5.1584983 -3.566625 1.4223716 -11.575087 -4.4104385 0.7330521 -4.830202 -5.8926306 -1.3583608 4.9685264 -4.0113907 -12.957552 -5.026679 -13.093968 -3.3489935 -15.573209 0.104466826 0.2480102 -3.3208973 -2.9261527 -3.9906952 3.7671692 7.3436384 1.2183838 -3.2812445 10.9377 1.7679999 -10.60045 -6.8345284 -0.27313867 4.244579 16.48207 -7.6568947 -4.663496 6.1423235 16.104095 -2.4746344 -7.633234 -1.9226832 -2.6392977 0.48526585 11.803307 -1.1216453 7.6105103 -0.042787496 9.116578 -7.5321045 9.352063 4.751686 -8.54004 -3.1435864 -0.97120655 2.7410672 -3.8147836 6.5982566 -4.4649 8.023387 -1.0805755 -1.1816682 13.54681 -3.5473883 -1.5215999 -10.680955 3.848301 9.868623 -6.2806354 -4.2428007 -14.77002 9.823473 -12.090644 -12.957044 -1.9947284 2.765508 2.4793892 -5.699199 4.5868917 3.793665 11.509548 -1.3949775 12.161333 -9.217392 2.9084387 -15.047984 4.5825114 -2.144988 3.3409212 -0.21058886 -6.4068584 5.261146 7.3820124 -9.860686 1.7414014 -13.264445 3.8455698 -2.1067915 6.2979107 1.6341703 -4.5982184 -3.6737409 -9.285439 4.069047 2.4623299 -3.5931613 9.124764 8.751588 8.664545 -2.7242415 8.959057 -3.5829802 2.7980685 -4.9250174 -4.283798 -3.4077542 12.180763 -2.6103482 6.9291053 -2.6728683 12.852693 8.115819 4.2267375 4.2592998 -0.53238654 -2.0574331 7.4476132 5.8341937 -5.584392 6.272976 -6.695144 6.3280454 -5.2889385 -2.9640183 -15.804927 0.52669436 1.5936449 3.0436063 3.1096237 -7.2681766 4.9773583 -7.7195773 -5.063834 1.8935434 -3.9342105 -6.370519 1.4410434 5.8630366 11.709745 5.599962 -2.5410235 -4.285867 -8.329892 5.7493544 -6.850904 -9.753643 -1.8448201 0.7360613 2.2525482 -10.674428 0.55259925
at 7.687605 7.485661 -2.995833 -5.8311586 11.695586 -6.0707436 0.93614584 -6.46644 -0.78790057 2.34703 -0.4690315 1.3826685 2.128319 -2.0399308 0.5496137 -5.170299 5.4107895 -3.6373224 -5.068377 4.215168 3.2015452 2.1221137 11.070066 -6.930411 1.0823733 1.3072982 -7.333675 3.0423644 4.812437 14.468503 -10.694013 7.8578486 6.4732285 1.3919615 2.8417642 -1.8817546 -3.1715767 -5.617005 5.002914 -1.678967 -5.016783 4.532031 1.499334 3.641725 -0.5155696 1.7932217 -4.741648 -1.1599193 4.520127 -4.703658 3.563551 0.47809657 2.288149 -6.502501 -1.3986766 3.9196105 -8.619008 -7.642303 3.6395986 6.925511 3.8239603 9.524448 3.2116117 -3.0481355 5.433269 3.1333833 11.163474 -2.7961023 0.18352833 4.400554 1.0756408 5.424475 4.6932216 -1.2421879 3.2876515 9.387839 8.573231 4.686906 1.2564238 -9.4471855 0.9141074 0.5934358 -2.3102584 4.819483 -4.6853843 0.64355886 -5.1219273 0.346009 5.182856 -4.9421754 7.895921 -2.85251 2.6978512 -10.434319 -10.019447 -1.2474328 5.7825465 1.445903 -1.7398931 -2.54241 3.8943548 -10.0905695 11.268865 1.9904232 -4.050586 3.23784 -0.92745334 -9.044128 8.929572 3.739912 -0.03894995 0.15850626 -6.4041395 -0.8959076 -7.9367046 5.438246 -2.3769643 3.0896409 4.254019 -3.0005376 5.7475305 -0.67551595 -1.2440311 -5.308331 -1.6497465 5.5268545 1.0678114 0.064789064 3.069357 -1.7816756 7.1891685 -2.3875852 4.2689834 8.386449 -2.2022078 1.5684457 3.421742 -1.228796 3.923201 6.8420496 5.50358 -4.38601 -3.1352315 3.9705229 2.418166 -7.37569 -3.7609196 0.5067301 3.8910253 6.4230747 8.075644 0.23826277 4.9696617 8.116781 -5.858177 12.681843 -12.565968 0.5069165 -3.63555 -4.7277875 -1.4525583 -9.880658 6.87444 -6.9998245 2.0094047 -2.9125557 -11.628275 10.0915165 9.07298 -2.5779762 3.8552132 8.851334 1.3861922 5.9035573 5.957901 -0.5562107 9.816193 -3.2687247 -13.384444 6.260005 -7.0976024 -3.2706735 -3.1784258 -5.8929763 -12.559383 -5.651936 9.455508 -4.231149 -4.8166566 1.4431792 -1.5165255 3.4357593 0.81302893 6.280758 -1.8309133 4.5029893 -2.9216757 -2.2329767 -0.15592149 -5.491719 6.057873 9.519593 -2.7150383 -4.612345 6.632251 2.5207307 14.310329 13.441407 5.953802 1.0525992 -2.4012666 3.7834866 6.978544 0.28278297 5.541868 -2.829625 4.624638 -2.375853 5.7923565 1.2544518 -2.7878916 3.2567725 1.0299743 -5.168146 -6.839826 -12.843894 -8.949628 2.5357234 5.9645214 6.3328886 -2.804349 8.433585 13.182195 0.048631385 2.3023546 -1.6321505 -6.0149226 0.336774 -0.9657033 3.0830564 2.5849292 -3.5875497 6.7499356 -9.707317 0.7444962 20.384645 1.1101941 -0.51424295 -10.524993 -8.281997 -10.9583845 0.5592944 -4.6290026 3.7276835 2.254445 -2.1512716 -5.1215005 -7.1794257 4.2616196 0.4318652 1.5562011 6.7440467 0.2916512 -1.1669384 3.2958698 -0.3064617 -3.7233205 3.1000512 -5.0806484 -8.634894 6.73085 -3.0805142 -11.412458 -1.4007139 9.158235 -7.2768517 -8.461711 -2.5777225 -0.23825502 -2.54235 2.86155 1.9082707 -1.8877254 9.681145 -2.9876668 -2.853508 7.071608 7.555319 1.135617 -0.54179305 -2.4864528 2.0892713 5.3048043 6.6715765 -4.0811424 2.1525922 -6.9462276 -4.6726184 -4.5728426 3.993431 -5.7793884 -12.150519 -1.8135499 -5.788322 -5.233816 11.009942 -6.7203 -1.497951 6.1870646 4.4084487 5.3646703 3.8717947 -7.7550163 3.6651006 -8.265792 5.1285744 3.1013248 -13.231546 2.8946803 -0.4084321 3.4125533 9.0791445 10.273736 -0.21641546 7.1813316 -1.1983328 12.6115885 6.667877 2.916915 12.805644 0.03844311 7.4672675 -4.834583 2.1410396 3.7446363 -10.709342 -7.0804076 -3.4487813 -5.26614 3.1681097 -2.4684322 1.3103405 -4.509827 -2.7690368 2.0349822 -9.657142 -3.388997 0.5188136 -3.4350307 -4.538663 -0.78615767 4.0830626 -2.6532245 -11.28869 -3.680795 -10.995477 -3.019348 -13.304997 0.21030542 0.1577647 -3.2718596 -2.3329232 -3.9422865 3.6230352 6.3080573 1.3093774 -3.566699 9.727181 1.7884864 -8.944182 -5.398852 -0.56922466 2.9930649 13.921058 -7.2384853 -4.0490007 4.837685 13.969606 -2.5450134 -5.9290133 -2.1873608 -2.5278008 0.6040699 10.435619 -0.6278048 6.390935 0.4276275 8.177327 -6.6962094 8.257674 4.2238984 -7.1697593 -2.6578476 -0.9697246 2.3229146 -2.5952523 4.906129 -3.4261374 6.8022404 -0.7150304 -0.7883377 11.521928 -3.3764634 -1.2827139 -8.426333 3.0121782 7.7612557 -5.623871 -3.8964436 -12.824234 8.529263 -10.347915 -11.157498 -2.1635497 2.417457 1.945223 -4.6574965 4.454824 3.5004344 9.775153 -0.9755426 10.043413 -7.6879616 2.4309075 -12.217871 4.7116675 -2.1473968 3.0692298 0.6247256 -5.908765 4.477094 6.5496297 -8.880764 1.5740752 -11.884691 3.2214282 -1.5965655 5.2633104 2.163916 -3.3030868 -3.045041 -7.8042707 2.7619927 2.283728 -2.8237593 7.9482975 7.958632 7.71455 -2.6163862 8.013991 -3.093711 1.9013861 -4.700921 -2.9047801 -3.0094085 10.995549 -2.3009813 5.915313 -2.0079877 11.11055 7.255345 4.023093 2.7554598 -0.66090524 -1.5414596 5.9062023 5.276196 -4.7539916 4.68457 -6.4178705 4.8724947 -4.4438095 -2.044511 -13.81441 0.48417726 1.3638707 2.7761881 2.7151685 -5.511944 4.1482224 -6.5966353 -3.6966088 1.5702404 -3.1069918 -5.6192503 1.2249978 5.0841446 9.47865 4.742888 -2.4893484 -3.5096474 -6.700575 4.8791604 -5.5105743 -8.133071 -1.5299469 0.9091593 2.4150205 -9.010869 0.57808125
away 2.2570646 1.8308402 -1.482689 -2.1433492 4.1874723 -2.4486508 0.16941538 -1.7371947 -0.09276862 0.43311608 -0.78538525 -0.14165966 0.53903556 -0.717951 0.00019947276 -1.9605771 1.6312406 -1.0942997 -1.2722803 1.6141189 1.3429859 0.30414325 3.4133477 -2.4861488 0.5086687 0.61340266 -2.805551 0.92892987 1.6360236 4.4776144 -3.253624 2.3158777 2.6998901 0.12816347 0.9558826 -0.15841028 -1.3959337 -1.474831 1.8048187 -0.30200353 -2.13676 1.1740187 0.72372156 1.3508568 0.11950099 0.30800077 -1.7742885 -0.9060881 2.04945 -0.95553493 1.648719 0.20848481 0.78502417 -2.502145 -0.23426601 1.227139 -2.9961467 -2.9817789 1.0150455 2.7085452 0.8963742 3.5391243 1.2180623 -0.61860144 1.8646169 1.4257109 3.9230402 -1.1343635 0.14231378 0.94552094 0.6539336 2.1057684 1.7754812 -0.6118266 1.217073 3.1950712 2.5362515 1.6249673 0.3715531 -2.8352263 0.3527999 0.20335753 -0.83614767 2.2089255 -1.3299062 0.5431349 -1.502859 -0.07124651 2.0705922 -1.7926271 2.3038812 -0.9112069 0.6537841 -3.3386285 -3.4903774 -0.018398002 1.5123122 0.4516727 -0.61587906 -0.22749192 1.0069351 -3.576371 3.5471087 0.4072341 -1.5551606 1.2965531 -0.44416553 -3.098171 3.5951388 0.77351487 0.30516452 0.16199166 -2.4574308 -0.6906565 -2.2803416 1.4605422 -0.8172796 0.7467619 1.0481657 -0.66946226 2.3592243 -0.45663238 -0.108824745 -1.908742 -0.7190805 1.7687992 0.10739275 -0.41913465 0.9077805 -0.38800806 2.1372612 -0.24422193 1.5545757 3.1579447 -1.1830504 0.35447466 1.1325647 -0.7489747 1.3315212 2.558586 1.9173036 -1.2584667 -1.1577898 0.9666974 0.5372881 -2.368788 -0.9441604 0.15384369 0.8497912 1.7615037 2.5240467 0.03176675 1.9339706 2.7059467 -1.570732 4.2777014 -4.7423434 0.23571792 -1.0456674 -1.9203893 -0.84405535 -3.4257061 2.0044255 -2.4575195 0.44627684 -1.2154063 -3.7521043 3.4721093 2.5003808 -0.74878997 1.4443941 2.9389625 -0.033227783 2.1989305 2.3035183 0.020241883 3.5491848 -1.5559095 -4.8205466 1.8577747 -2.635604 -1.2880477 -0.43659177 -2.2106862 -4.065747 -2.069236 3.402188 -1.8433031 -1.3470652 0.19920771 -0.14302911 1.1784447 0.83256024 2.2738466 -0.07259619 1.419024 -1.0548505 -1.2758032 0.089352615 -2.1871998 2.3294208 3.3388877 -0.3880404 -1.10082 2.7052872 1.0623807 4.6603026 4.244416 1.7905157 -0.07290829 -0.5800257 0.63437086 2.2081606 0.35396937 1.4332253 -1.3236701 1.7084891 -1.158505 1.5047505 0.09117673 -1.0611799 0.47017774 0.1479944 -1.4292325 -2.0234957 -3.8903103 -3.4539597 0.8651089 2.3629348 1.7236282 -1.1949445 2.6494527 4.9459715 0.56139714 0.7922272 -0.12913892 -1.6871817 -0.12261531 -0.5919262 1.2217304 0.37071776 -1.0735213 1.8448327 -3.0335848 0.37024403 7.099757 0.26176205 -0.4428381 -3.2306538 -2.8568244 -3.3171322 0.7266172 -1.4114082 1.4981197 0.79351246 -0.58609056 -1.5452486 -2.3674233 1.7573833 0.16151628 0.63826895 2.2982633 -0.19542208 -0.5078785 1.5533247 0.03234905 -1.5258167 0.50784594 -1.276884 -2.9484808 2.295527 -1.3830884 -3.3102684 -0.53092015 2.6032746 -2.743758 -3.1942382 -1.2835227 0.026301142 -1.1600157 0.9637528 0.67886883 -0.8481167 3.4720342 -1.0098162 -0.9667984 2.8504934 2.3427393 0.33561322 0.07000866 -0.67727983 0.46739215 1.2058412 2.58633 -1.6204073 0.30368644 -2.348101 -1.604429 -1.5811684 1.1769718 -2.2984407 -4.0663896 -0.62788725 -2.366037 -1.2074101 3.1874547 -1.8351538 -0.3750369 1.6104438 1.6531758 1.9791867 1.4585949 -2.268561 1.6197926 -3.1657379 2.0366366 0.8431151 -4.9438643 0.41681176 0.20468019 1.4990578 3.2752657 3.5874007 -0.5640134 1.8370283 -0.93536437 4.677628 2.0816402 0.63702595 4.301156 0.054631162 2.4499092 -1.3326808 0.6559673 0.8476705 -3.6210577 -2.4780407 -1.09879 -1.5047559 1.0426892 -1.0305392 0.66890335 -1.1746199 -0.8209169 0.9052243 -3.2224286 -1.2692686 0.7575081 -0.83574957 -1.6330798 -0.69569016 1.5857388 -0.5572714 -3.3514185 -1.3099889 -3.517004 -0.6860523 -4.873029 0.033660945 0.58781445 -1.3479116 -0.78128153 -1.0728567 1.1569946 1.785609 0.55562615 -0.65246534 3.043217 0.45085853 -3.4060378 -2.3932567 -0.6883326 0.79071176 4.6594667 -1.841133 -1.0330642 1.1952432 4.0897384 -0.89505684 -1.603727 -0.24175419 -1.1035253 0.29369417 4.0050855 -0.26519537 2.2768748 0.1306881 2.8725688 -2.6220424 3.1454816 1.2631509 -2.4570405 -1.2288377 -0.45069346 0.9169452 -1.1688026 1.8096284 -1.0278982 2.22976 -0.8291578 -0.23678258 3.8843405 -1.4599046 -0.25668356 -2.9740164 1.1227746 3.1438513 -1.9938972 -1.1380547 -4.2112846 2.6930985 -3.6316786 -3.7117054 -0.92649096 0.9921193 0.55588144 -1.2431129 1.8599842 1.2954667 3.6084592 -0.6914258 3.7726552 -2.8142867 1.1730657 -4.2222037 1.8927507 -0.20939417 1.255852 -0.2732395 -1.6943015 1.3006357 1.8519461 -2.7624078 0.7304454 -3.7228768 0.8592557 -0.58605206 1.86406 0.9626893 -1.6665092 -1.2699853 -2.202062 0.8028078 0.6963418 -0.91417587 2.3071434 2.6917014 2.8696392 -1.2152336 2.5630326 -1.1154964 1.2227778 -1.4674958 -1.2120335 -0.8527929 3.5494819 -0.8933422 2.1610541 -1.2295375 3.3523462 2.1728277 1.0766468 0.77462417 -0.5692977 -0.8688265 2.119108 1.6325482 -1.5517763 1.9181345 -1.718509 2.15395 -1.6601629 -0.6666169 -4.128471 0.20836528 0.74349993 0.75992984 0.9616746 -2.2611215 1.3976696 -2.5306556 -1.6334897 0.33498615 -0.7037032 -1.97798 0.4211975 1.5712783 2.7378612 1.438816 -1.1546701 -1.0451661 -2.7279487 1.430804 -2.1941543 -2.437829 -0.2730849 0.3509066 0.48750567 -2.9015074 -0.12558317
back 4.6396403 4.4257917 -1.8660547 -3.1591666 7.076284 -3.2807715 0.80059147 -4.300632 -0.33526117 0.7415737 -0.700896 0.27742466 1.4203457 -1.7983956 0.7045174 -3.0950148 3.4961166 -1.7655555 -2.720176 2.95842 2.154274 1.2762096 6.6592045 -4.3107567 0.45247108 0.45757955 -3.953111 2.2503636 3.3830554 8.096228 -5.902517 4.4611125 3.5606568 0.79713947 1.9922227 -1.0847578 -1.8890088 -3.398516 2.8238103 -1.2508214 -2.9872804 2.2247891 0.9106634 2.5653641 -0.11905746 1.0482464 -2.304012 -0.71935374 3.0251644 -2.7641354 1.8399551 -0.25941664 1.9727563 -4.042448 -1.4124291 1.6584373 -5.246277 -5.0029173 1.6865982 3.9713333 2.1516395 5.555587 2.425745 -1.5981349 3.2795885 1.7800308 6.424576 -1.2923827 -0.67291456 2.5165927 0.58519727 3.4849005 2.4842706 -0.95843977 1.6487863 5.6695 5.154933 3.1197462 0.8428224 -5.959819 1.2380551 0.06515042 -1.3925278 3.259077 -3.405528 -0.013821193 -3.191898 0.49713373 3.184555 -2.1167758 4.856501 -1.5364202 0.9024753 -6.263016 -6.0513005 -0.26873463 3.6319861 1.1475723 -0.37744993 -1.1738852 1.7178456 -5.931414 6.483883 0.8869241 -1.9071134 2.230512 -0.6724065 -5.9199057 5.08801 1.5668147 -0.51003426 0.63187 -3.5133452 -0.99769247 -4.8467975 2.690836 -1.1467711 1.8170261 1.9961488 -2.216104 2.9716022 -0.672274 -1.4447178 -2.7423499 -1.0391965 3.190339 0.23056442 -0.12915237 1.5582101 -1.2953727 4.5866895 -0.8910847 2.9657316 5.0507865 -1.6529242 0.47809538 1.7177988 -0.6059933 1.9873815 3.677921 2.8893595 -3.1624308 -1.5314176 2.73855 1.1297213 -4.329433 -1.7992257 -0.095652156 2.3453653 3.7798717 4.4806337 -0.10112561 3.208027 4.4243107 -3.4220822 7.1698575 -7.126886 0.010748848 -2.7066057 -2.8208091 -0.8426085 -5.669837 4.5144825 -4.021046 0.8260344 -1.5674951 -7.129881 6.2521987 5.378277 -1.2819412 2.5193272 4.9205947 0.91547877 3.4186254 3.45878 -0.26129848 5.4731274 -1.4926031 -8.152589 4.0368824 -3.9610887 -2.1981244 -2.1428502 -3.3877065 -7.2095184 -3.66463 5.6162224 -2.4586365 -2.8662107 0.40170807 -0.6936751 2.1939917 1.2033135 4.2352777 -0.74124265 3.0041587 -1.6291376 -1.8151563 -0.45925322 -3.6352654 3.9905066 6.0913157 -1.4293025 -2.207474 4.5120797 1.4265852 8.662118 7.61219 3.6777372 1.1139494 -1.1036301 1.7185723 4.2044873 -0.41848633 3.6464715 -2.159668 2.9357345 -1.3635082 3.0676744 0.5398605 -1.8162295 1.5719851 0.5794123 -3.5927427 -4.1438146 -7.271418 -4.797649 1.1392828 3.2247355 3.3130767 -1.7210538 5.0091786 8.154188 0.6053776 1.7593642 -0.9442813 -3.925784 -0.10255969 0.12730166 1.6146214 1.0571532 -2.3148527 3.7593904 -6.1460414 0.73571306 11.930378 0.63791764 -0.13148148 -5.8579583 -5.1139984 -6.156489 0.9103993 -3.219439 2.4275713 1.0211248 -1.0851573 -2.7631633 -4.666754 2.37249 -0.21223728 1.0112784 4.095235 0.27976757 -1.0010818 1.7735817 -0.18954065 -2.1176846 1.273494 -3.3794658 -5.047708 3.7778783 -1.9330614 -6.2324786 -0.8822169 5.3083725 -3.6133342 -5.36478 -1.3461791 -0.8587553 -0.7557283 1.5876756 1.0878506 -1.4098282 5.7854586 -1.7860605 -1.9004084 4.49597 3.7045066 0.58980685 -0.17232186 -0.8797675 0.9683943 3.236056 3.9488137 -1.7736993 1.590339 -4.32599 -2.819281 -3.0153008 1.7251083 -3.6089756 -6.6244726 -1.1740097 -3.2705398 -3.3113582 6.6913834 -4.3950644 -1.3348197 3.7185605 2.7673607 3.2610824 2.2803347 -4.693764 2.442554 -4.927339 3.5734217 2.009826 -7.94935 2.0194266 -0.44965595 2.244011 4.630105 6.461714 -0.39520696 4.1672826 -0.78186184 7.3955936 4.078029 2.2333133 8.169266 0.25641802 4.0863357 -2.3938882 1.5391634 2.313384 -6.4953165 -4.7259603 -2.135425 -2.8808746 2.072426 -1.4362296 0.59529257 -3.1506262 -1.9695488 0.60353655 -5.2250834 -2.2862277 0.13155714 -2.1108243 -2.7620423 -0.973575 2.3362386 -2.2945251 -6.7571115 -2.1596954 -6.8410892 -2.0771623 -7.4401197 0.36271566 -0.2234713 -2.0387242 -1.198468 -2.4978793 2.2659926 3.7446828 0.82344484 -1.50484 5.762263 0.95899165 -5.026545 -3.8615031 -0.22395346 1.7042294 8.558885 -3.5765002 -1.8920908 3.244589 7.5795736 -1.0563755 -3.3689792 -1.3335029 -1.5873958 0.2635835 6.3478355 -0.8057657 3.3710313 -0.07676846 4.947136 -4.269957 5.194688 2.312945 -3.8828044 -1.1571591 -0.48121622 1.5518543 -1.5641159 3.4922907 -2.209883 4.5329647 -1.0715462 -0.6437181 6.3158274 -1.944675 -0.49626863 -4.8574333 2.0495746 4.297325 -2.9487333 -1.9170322 -6.943494 5.0468006 -6.222319 -6.0230002 -1.2199969 1.8940783 0.90353626 -2.8800545 2.0546114 2.1925259 5.5409575 -1.0023705 5.8518047 -4.742008 1.1375611 -7.5925417 2.892084 -1.2947236 1.8264238 0.25544807 -3.073848 2.8729625 4.0577555 -5.350212 0.6202719 -7.2506447 1.409714 -0.5026128 3.066787 1.0720384 -2.283811 -1.8533435 -4.022723 2.027783 1.3840367 -2.1409159 4.648401 4.9702897 4.7009244 -1.2485898 4.020684 -2.1823328 1.3652518 -2.5451374 -1.887537 -1.3245379 6.5649776 -1.2885503 3.3419626 -0.99669206 6.174736 4.1058254 2.1511078 1.990918 -0.7037743 -1.3494289 3.8632896 2.6154294 -2.4661634 2.6408706 -3.0944889 3.2986515 -2.3397243 -1.9538826 -8.493293 0.5099186 1.1027869 1.4240072 1.5856969 -3.1139812 2.767854 -4.083174 -2.1673427 0.89312655 -2.4638689 -3.1711557 0.77736175 3.4709027 6.140781 2.1216302 -1.5233693 -2.735596 -4.556107 2.827091 -3.4692 -5.205065 -1.2664399 0.9390776 0.81603277 -5.8410563 0.29824474
bad 2.1215749 1.9045991 -1.1175452 -1.3381436 3.4561493 -1.971122 0.14149606 -1.8269979 -0.37839395 0.31158152 0.11523503 0.16049802 0.45553613 -0.806901 0.1418194 -1.2334149 1.164432 -0.82209283 -0.9347309 1.4522069 1.1433024 0.1215788 2.6495166 -1.8404176 -0.15613802 0.14358056 -1.7906281 1.3911533 1.1885211 4.2566533 -3.0593035 2.0992143 1.6171105 -0.16092639 1.102893 -0.088646926 -0.22987938 -1.1967727 1.1512984 -0.8397732 -1.6026518 1.4727979 0.662143 0.5023318 0.17348878 0.3815133 -0.8893991 -0.05575113 1.0606873 -0.6822976 0.63355654 -0.37772438 1.0874386 -1.3424987 -0.30935672 1.1208038 -1.8794708 -1.7350616 1.3135629 2.0925112 0.40965122 2.481984 1.1619097 -0.9608275 1.6931578 0.69161886 3.2763195 -0.66330725 0.11861405 1.1684663 0.18077111 1.1657197 1.0494475 -0.5211328 0.6164519 2.169489 2.3195925 1.238103 0.15375695 -2.928654 0.77730364 -0.44997483 -0.9611026 1.6955401 -0.9368426 0.40496212 -1.125438 -0.4384981 1.3528155 -1.3067577 1.7752483 -0.90574914 0.14802764 -3.2751834 -2.836926 -0.041430887 1.3986144 0.16828032 -0.35955957 -0.50820196 1.1212684 -2.914355 2.803934 0.30510634 -0.6233735 0.8343232 -0.71602046 -2.846553 2.158645 0.918809 0.2075258 -0.35368177 -2.0473964 -0.7717535 -2.362354 1.2741028 -0.15946664 0.8874818 0.8428956 -0.49457934 1.8916167 -0.7245774 -0.36843747 -1.6478188 -0.77889174 1.6514744 -0.20099433 -0.39575455 0.7972916 0.046884093 1.6775395 -0.59580046 0.9002782 2.0434966 -0.23231359 0.325666 1.1968434 -0.25465184 0.8591869 1.3860221 1.5731658 -1.0319163 -0.87879837 0.8580586 1.0638268 -1.992219 -1.1946467 0.52780646 0.70614976 1.6382873 2.6295815 0.047151677 1.2130597 2.0888655 -1.8911594 3.159792 -3.4380074 0.31069696 -1.3641897 -1.479156 -0.100952774 -2.826148 1.4176658 -2.2887983 0.5240438 -0.38577756 -3.5058866 2.658986 2.432638 -0.91840154 1.4288708 1.9934266 -0.032589976 1.6600615 1.490403 0.04971848 2.7422912 -1.0067848 -3.5694256 1.4083257 -1.8572704 -0.6236987 -0.7780876 -1.6440933 -3.7595558 -1.2735918 2.8403924 -1.0386572 -1.1492783 0.7234347 -0.21042512 0.54994196 0.69233125 1.3066908 -0.780671 1.5528913 -1.1611407 -0.30109337 -0.20515864 -1.8617659 1.6204318 2.9332862 -1.1212858 -1.1318485 2.0874023 0.74899834 3.437068 3.3119566 2.007396 0.7540442 -1.039743 0.7885036 2.040409 -0.4020272 1.443219 -0.6052083 1.6871926 -0.60470957 1.6491892 0.44912142 -1.3007861 0.4555175 0.73178077 -1.8642699 -1.7277153 -3.8615444 -2.0425563 0.8674379 1.7255427 1.2210946 -0.75836116 2.597556 3.1991577 0.2764874 0.2763859 -0.2043524 -1.5225285 0.49857056 0.19930254 0.48060828 0.6879231 -0.55232596 1.8735344 -2.2263181 0.23193951 5.3678985 0.4542071 -0.49047714 -3.1103868 -2.0666301 -3.4851968 0.11706685 -1.8506372 0.88081825 0.14999574 -0.4168372 -1.2508525 -1.8379912 1.3060738 -0.045597646 0.54275614 1.6575165 -0.45918062 -0.0016002331 1.3956692 0.22541699 -1.3802532 0.56106997 -1.4781013 -1.8483223 1.2856913 -0.51896316 -3.0317252 -0.22823419 2.8826778 -2.235957 -2.5290713 -0.44759753 -0.5555543 -0.24471234 0.71425945 0.63056964 -0.17848486 2.360409 -0.74571973 -1.2745068 2.4889805 1.6849561 0.2896335 -0.34619188 -0.8010621 0.18517855 0.9291999 1.9207096 -0.90666056 0.94915414 -2.359706 -0.82544106 -1.4496207 0.85095876 -1.6179779 -3.440246 -0.6769982 -1.2995646 -0.90359724 2.3759828 -1.544131 -0.39964765 1.4785099 1.5687953 1.3841538 1.328276 -2.0790403 1.0083567 -2.3466656 1.3641115 1.1107272 -3.6891403 0.41476184 -0.10476352 1.3528204 1.9988847 3.1484816 -0.26527637 1.3436247 -0.7276539 3.1354299 2.0535553 0.6139631 3.4604669 0.36771277 1.6163129 -1.7189302 0.5789844 1.3507764 -2.4015715 -1.6716893 -1.1201422 -1.5510813 0.82862085 -0.6323637 0.14152204 -0.98091835 -0.6929702 0.8048784 -2.183417 -1.1827339 0.5188674 -0.86347896 -0.94672334 -0.14294887 0.73353976 -1.1733997 -2.454165 -0.5603988 -3.1275098 -0.7650951 -3.396814 0.5367787 0.31143096 -0.62050384 -1.0527109 -1.1566074 0.58166933 2.0389774 -0.1307051 -1.2050371 2.2867239 0.03994336 -2.0890915 -1.2453983 -0.1809245 0.9049634 3.4994528 -2.078863 -0.7246868 1.364221 4.073026 -0.2393557 -1.5187674 -0.56714386 -0.2358543 0.2889148 2.5168743 0.29647443 1.695582 0.17811684 2.2137523 -1.8734527 2.4298618 1.3787785 -1.3646141 -0.70960695 -0.0667843 0.49867526 -0.45277092 1.7572651 -1.2053318 1.4942557 -0.07083396 -0.5104969 3.300547 -1.0173064 0.2132448 -2.8057933 0.87140524 1.6444219 -1.5559626 -1.2842549 -3.5990949 2.0920537 -2.6058545 -2.5578012 -0.4668377 0.3979554 0.1541691 -1.3868023 0.8152113 0.8527978 2.625693 -0.3216183 2.7670698 -1.9474113 0.25789875 -3.8141034 1.5360174 -0.8446241 0.7462939 0.4795318 -1.9058473 1.1504873 1.7367425 -2.5557218 0.56435895 -2.9690356 1.1898527 -0.054630514 1.3690809 0.00856097 -0.5107718 -0.7525741 -1.9549899 0.5508877 0.37155634 -0.7241985 1.8580775 2.1541643 1.7983239 -0.113436446 1.6486118 -1.074959 0.8725045 -1.4893537 -0.71143496 -0.36920553 3.1204004 -1.1526932 1.414581 -0.6031227 2.6808772 1.638936 0.9314796 0.60019165 0.17425711 -0.14727068 1.92094 1.4617934 -0.9093614 1.4288632 -1.6703659 1.1243058 -0.7283645 -0.42690417 -3.641744 -0.20798911 0.08417657 0.4725982 0.5793538 -1.2472929 0.89164186 -2.227436 -1.3235925 -0.06693595 -0.471724 -1.0358399 0.7336716 1.3105357 2.7842474 1.6025436 -1.0359066 -0.7201112 -2.0210533 1.3364908 -1.443017 -1.8097651 -0.018660795 0.6292744 0.32335755 -2.2532673 0.3452751
ball 1.5366795 1.7830038 -1.3215531 -1.6337987 2.8990564 -1.6325153 0.2632439 -1.4680079 -0.6519439 0.29948896 -0.29605117 -0.09871525 0.51877743 -0.63793397 0.3741975 -1.7108366 1.6947521 -0.82601684 -1.6383815 0.88430554 0.46304506 0.34760627 3.2652166 -1.5300634 0.17774966 0.61867553 -1.6944598 1.1135106 0.99842715 3.757343 -2.740846 2.310443 1.8985568 0.38002604 0.89466685 -0.6589972 -0.3164285 -1.1802797 0.8126623 -0.41526157 -1.6968119 1.2527887 0.42801604 1.1493211 -0.20324923 0.5855246 -1.3516744 -0.0035148023 1.7201372 -0.722352 0.5563143 -0.18413584 1.0097914 -1.6307263 -0.6721398 0.82515806 -2.2008939 -1.6966071 0.6932629 2.3430169 0.67675227 2.129282 0.914162 -0.7221468 1.2025727 1.1555225 3.4900227 -0.3100033 0.32770675 1.1341333 0.44877338 1.6203455 1.6113101 -0.36874387 1.2351586 2.798016 2.4718664 1.4536468 0.7656677 -2.8762305 0.35789934 0.03280608 -0.12554814 1.7334042 -0.9072415 0.04616159 -1.3915589 0.3951795 1.5232056 -1.5387945 2.7533922 -0.7672685 0.24295013 -2.6256163 -2.6296856 -0.38247943 1.397512 0.44450346 -0.6522696 -0.72671956 1.1839736 -2.7804637 2.9699123 0.9992825 -0.7544296 0.6385525 -0.024139117 -2.2291074 2.1520834 0.9134674 -0.22469926 -0.13224877 -1.6989052 -0.7129701 -1.739657 1.7114203 -0.3005379 0.5385758 1.1733291 -0.89527005 1.8024048 -0.48698726 -0.85978514 -1.0133595 -0.44247544 1.7932353 0.15314515 -0.109599255 1.0303241 -0.23941948 2.0499284 -0.5211084 1.3499974 2.5626838 -1.0572673 0.12624438 0.93946856 -0.44143277 0.4352246 1.2511122 1.9489168 -0.93761325 -0.35207233 1.3245784 1.0465335 -1.5504103 -1.1826679 0.2890949 1.0773162 1.6545423 2.2942476 0.049601655 1.1756887 2.5191314 -1.7685857 2.860447 -3.6046383 -0.22953285 -1.3647686 -1.5567561 0.09372068 -3.0277157 1.6579105 -2.127188 0.25200614 -0.39641804 -2.8372612 2.888863 2.8361027 -0.09760943 1.5427337 2.2810593 0.6902952 1.2722086 1.4953678 -0.6361597 2.1155713 -1.3587369 -3.871231 1.583216 -1.6351955 -0.7219458 -0.74170417 -1.2314343 -3.2164729 -1.2663151 2.6501007 -1.1171725 -1.0046487 0.8113069 -0.83666515 1.2936313 0.79145294 1.6865854 -0.7086877 1.6192647 -0.8595818 -0.72420335 -0.5391418 -1.6592606 1.9863192 2.5109196 -0.5823361 -1.5652965 1.6244297 1.1586822 3.6538367 3.4769332 1.9568245 0.39151627 -0.7845082 1.4011645 2.3849926 0.07374421 1.9781647 -0.913385 1.2536294 -0.21932584 1.1389542 0.14158003 -1.078134 1.0226146 0.73989177 -1.2093017 -2.1013234 -3.431448 -2.2467265 0.41247723 1.4201611 2.1123874 -0.29696068 1.9042128 3.9996486 -0.31036502 0.82512486 -0.71635646 -1.3284438 -0.0063618273 -0.3893477 0.34792227 0.88633955 -0.83623254 1.9222172 -2.3322775 0.503215 5.656882 -0.012772884 -0.13795651 -2.3890827 -2.1560147 -2.7633717 0.057998464 -1.1053426 1.1810735 0.19724448 -0.44193676 -1.3824809 -2.1886754 1.3157395 -0.47441283 0.89493525 1.7850853 -0.48557776 -0.30343223 1.2634047 0.4141963 -1.3348304 0.47764194 -1.1042325 -2.7585678 2.1453521 -1.0512042 -3.3910167 -0.85905766 2.9460907 -2.027722 -2.5363946 -0.7192566 0.32220548 -0.73981315 1.1145849 0.8322347 -1.0218052 2.9003851 -1.0963655 -0.94129056 2.0113971 1.6879098 0.7915783 -0.3833271 -0.4493238 0.74173844 1.5524744 1.7825693 -0.6837987 1.111015 -1.9197508 -1.2201713 -1.1846889 0.46991068 -1.5306518 -2.8182387 -0.9966232 -1.8766421 -0.8608165 3.3486755 -1.9744399 -0.71963036 1.4305342 1.253438 1.8744689 0.72950035 -1.8598807 0.65509003 -2.4490654 1.5479721 1.1884621 -3.2071862 0.86111075 -0.35685983 1.4447875 2.108571 2.3646982 0.31994015 1.5446832 -0.11367823 4.022778 1.2661765 1.2655345 3.323221 0.10333635 2.3017685 -1.1956434 0.55911636 0.6054732 -2.6508818 -1.6636465 -0.87851185 -1.4239063 0.70134676 -0.19540575 0.03309459 -1.4243364 -0.73078775 0.17297523 -2.3356056 -0.92847365 -0.13451035 -0.9828564 -1.6700368 -0.6873013 1.1197151 -1.187242 -3.2537863 -0.5939 -2.6048462 -1.2341686 -4.039886 -0.19762783 0.47110114 -0.61032546 -1.1045874 -1.0457422 0.61463225 2.1456318 0.71243113 -0.6448337 2.8865283 0.336551 -2.4685342 -1.2223148 0.24162889 0.63235784 4.207866 -1.3999263 -1.0799767 1.4839017 3.179371 -0.97533923 -1.2887602 -0.0985388 -1.0563524 0.07931626 2.501039 -0.17914796 2.1826315 0.47318763 1.9058464 -2.2262414 2.569144 0.5871778 -1.4240471 -0.9811824 -0.56063837 0.33165494 -0.7017113 1.9396414 -1.2868233 1.5884528 0.13971214 -0.031307 3.118546 -0.6595089 -0.39170983 -2.417264 0.6314533 2.1092587 -1.8249068 -1.5756829 -2.9074388 2.4887116 -2.2921767 -3.3906171 -0.8201074 0.32316813 0.69739 -1.5781968 1.2609926 0.81257594 2.2345 -0.35437113 2.7155104 -1.747404 0.77186906 -3.1651177 0.9066328 -0.46319225 0.72287905 0.24142396 -1.4965181 1.4079456 2.0806313 -1.9627092 0.47693402 -2.7471192 0.6753306 -0.41099057 1.7344697 0.086919725 -0.7179499 -0.9814261 -1.8019733 1.070402 0.40912086 -0.7438706 2.0047078 2.2892153 1.6565751 -0.68830454 1.8084108 -0.4345066 0.956313 -1.2797972 -1.0099367 -0.674711 3.221154 -1.1583074 1.4734033 -0.8276975 2.985508 1.4547733 1.0371135 0.9328774 -0.3645979 -0.15131344 1.3456848 1.6639432 -1.3827902 0.998626 -1.702589 1.0271344 -1.4276434 -0.7242272 -3.464196 0.09506446 0.24960911 0.66889644 0.4072653 -1.8568732 0.7647724 -1.4295657 -0.89740574 0.3219334 -1.4082059 -1.8432232 0.67947686 1.7236966 2.7931166 1.110497 -0.47812557 -0.79751825 -2.1203308 1.7152181 -1.135594 -1.7095834 -0.25261757 0.35141596 0.07848364 -2.7870927 0.3452919
battle 1.110121 1.149365 -0.35468996 -1.101061 1.4982063 -0.91203684 0.32535815 -0.6749103 -0.37178335 0.647244 0.21053332 -0.23742911 0.71510696 -0.6911181 0.53698707 -0.5835453 0.87556803 -0.16557571 -0.7807172 1.063502 0.48153198 0.328483 1.3936146 -1.0803709 0.16578682 0.24471705 -1.6371657 0.43376282 0.5237058 2.6518812 -1.6180325 1.4582689 1.281108 0.26615936 0.71768504 0.10373481 -0.6413477 -0.54336715 0.63136756 0.17890765 -0.8195133 0.9661317 0.4647506 0.57593775 -0.46365649 -0.17102598 -0.7093749 -0.529511 0.97561187 -0.74400204 0.91761124 0.013674464 0.7869799 -0.9263723 -0.4708755 0.35891387 -1.446868 -1.1226419 1.062552 0.7189601 0.39269963 1.7743204 0.61780673 -0.13066922 0.7343217 0.23341456 1.6733983 -0.44527292 -0.33796686 0.85068053 -0.1129009 1.2252308 1.0224559 -0.6890401 0.9377485 1.2556398 1.719966 0.9107681 -0.10386737 -1.2556787 0.53859663 0.14773215 -0.35549423 0.7886522 -0.66840154 0.12398263 -0.4277869 0.23631644 0.89538306 -1.0998266 0.9595558 -0.093111835 0.50947124 -1.2943914 -2.065953 -0.5980304 0.53210455 0.35288602 -0.561 -0.049703874 0.5145277 -2.1309059 1.9065024 0.52449435 -0.8453498 0.4893063 -0.12375024 -1.620095 2.0591643 0.84667504 0.02171303 0.13189305 -0.9560302 0.07735411 -1.6997354 1.1862669 -0.36097196 0.9809083 1.1444681 -0.24549595 0.9693721 0.08492015 0.039439104 -1.2534521 -0.76792103 0.4849401 0.06745665 -0.44634452 0.8860391 -0.31104437 0.86251634 -0.39593184 1.1308771 1.801551 -0.059985787 0.079434864 0.81322134 -0.61866164 1.0544043 0.97450143 1.1541314 -0.4716818 -0.7268522 0.3631736 0.45678285 -0.9345313 -0.92907673 0.5015612 0.86313504 1.3905343 1.2499908 -0.17254901 0.4178917 1.1992992 -0.60379547 2.5529447 -1.7592224 0.43000954 -0.41027987 -0.60037345 -0.4692768 -1.4484892 0.8746151 -1.7285131 -0.049092248 -0.5518036 -2.3663204 2.014034 1.1613309 -0.064150676 0.5916001 1.22399 0.6162158 1.4568797 1.2727683 -0.43537605 1.4828656 -0.19719258 -2.2221582 1.2608957 -0.7305702 -0.7883446 -0.649558 -0.65287954 -2.325153 -0.9733098 1.1932037 -0.3595293 -0.45183071 0.069918364 -0.33002353 0.36946464 -0.2365024 0.95357776 -0.7657232 0.6923812 -0.7037602 -0.06633759 0.061321072 -0.58527833 0.86907566 1.6646006 -0.49053127 -0.9995289 1.424503 0.9067976 2.0611815 2.698199 1.051293 -0.10126963 -0.9222438 0.42416757 1.6621337 -0.07470966 0.8468181 -0.8673533 0.9941277 -0.64634913 0.9910357 -0.12311794 -0.87928873 0.35967845 0.5192641 -1.1617205 -0.86678433 -2.6914074 -1.2545239 -0.01039074 1.1720238 0.84703 -0.044152945 1.3031514 2.6570904 -0.08922849 -0.010683695 -0.07641421 -1.0052347 0.38159707 0.1769661 0.06890839 0.06414458 -0.40412578 1.2097162 -1.7342856 0.5541073 3.7619948 0.4605975 0.07592261 -1.9068699 -1.8254184 -1.9267515 0.57569194 -0.37590227 0.51965797 0.7043979 -0.81687 -0.56572026 -0.92226934 0.6869882 0.23640545 0.28898343 1.265307 -0.1600686 -0.42565697 0.58745754 0.13563149 -0.8431656 0.96164477 -0.96520364 -1.8282758 0.59145766 -0.83465517 -1.536834 -0.14767496 1.3362124 -0.7961427 -1.8653704 -0.41261262 -0.45217675 -0.62067294 0.38500103 0.44399366 -0.52643746 1.2610365 -0.8269737 -0.36699456 1.1621202 1.1226565 0.5106176 -0.23298195 -0.08320624 0.4168089 1.0653435 0.9352977 -0.33821347 0.17789285 -1.7031891 -0.6725064 -0.9842192 0.92995715 -1.1410742 -2.1947575 -0.5641051 -1.2432108 -0.9952208 1.4948795 -1.4650062 -0.27755493 0.89709026 1.0517985 0.7440813 0.9918579 -1.4942038 0.6107091 -1.238367 0.6804465 0.851742 -2.4914353 0.56951475 -0.09326042 0.77785426 1.2603807 2.2139597 0.3849058 0.75213015 0.05063438 2.6464229 1.2281957 0.54976493 2.082685 0.36997464 1.3464819 -0.7015667 0.45500183 0.50112855 -1.9844738 -0.7781643 -0.054619636 -0.6907194 0.59708536 -0.103338316 0.54722637 -0.7111447 -0.568599 0.5664891 -1.7926208 -0.5680643 -0.05879936 -0.12618127 -1.181316 0.030078003 0.79374295 -0.1548548 -1.7365589 -0.37744972 -2.2578356 -0.85986495 -2.701671 0.34890696 0.03571567 -0.8165432 -0.9134187 -1.0047129 0.20352556 1.1025231 0.18231788 -0.34151343 1.4968711 0.05891233 -1.7848067 -0.9169396 -0.22889164 0.9989736 2.1067839 -1.2347434 -1.0376626 0.80822253 2.1806998 -0.17143725 -1.0598028 0.05843135 -0.84332144 0.1660424 1.5934559 -0.40513867 0.7520722 0.30528578 0.83841443 -1.618937 0.97463197 0.18165576 -1.2980732 -0.12843023 0.23367146 0.47201166 -0.08061482 0.72173774 -0.79061586 0.73299897 -0.58826095 -0.6335567 2.3022206 -0.8934171 -0.6313135 -1.4489378 0.08463392 1.0638139 -0.4742166 -0.5242142 -1.6616676 0.8897259 -1.3429435 -1.7335901 -0.37234372 -0.026110785 0.0867311 -0.7365108 0.5300781 0.2483617 2.1225007 -0.4997729 1.814877 -1.4387633 -0.015876394 -2.5571373 1.1955347 -0.29466176 0.0456392 -0.22478317 -0.5406889 0.83059615 0.8568769 -0.99079126 0.2497949 -2.4120865 0.86030924 0.18363991 0.5689206 -0.14288136 -0.6055331 -0.2930321 -0.99738395 0.023281522 0.8821005 -0.76064247 1.52054 1.2135547 1.2832205 -0.44836304 1.2798368 -0.085626364 -0.091549225 -1.1320922 -0.96704763 -0.502502 1.7167369 -0.6681717 1.2488673 -0.78136325 1.8276622 0.91646785 0.5113048 0.7281036 0.31043464 0.12124758 1.5005809 1.1518971 -1.2642334 0.45032024 -1.3511846 0.50019497 -1.2635543 -0.6526107 -2.2259061 -0.47481617 0.4638519 0.5815148 0.16618945 -1.1014807 0.2903331 -0.8137354 -0.4274187 0.005923083 -0.59723073 -0.9892035 0.054438762 0.8543716 1.3912201 1.1139929 -0.36783364 -0.47082356 -0.86425304 1.1523796 -1.0783263 -1.7275791 -0.26869416 0.53047776 0.6582794 -1.6246485 0.05101529
be 8.847131 8.85103 -3.639236 -6.299396 13.77489 -7.7485023 0.7905146 -7.9377127 -0.57339984 2.7733424 -0.8204379 1.182715 3.148311 -3.2258084 0.5906229 -7.2086196 6.7589183 -4.993174 -6.085431 5.784389 3.6244938 3.3233538 13.674354 -7.939021 0.9106034 1.5194854 -9.035246 4.1949325 6.349633 17.46598 -13.167509 9.459968 8.782254 1.6119195 3.601939 -2.4058065 -3.5011196 -6.6604023 5.869471 -1.9629002 -6.19717 5.099273 1.4793185 4.5263214 -1.0315609 1.8432813 -6.2549114 -2.0003955 5.6691465 -5.805616 4.860362 -0.39652422 3.6132717 -7.375496 -2.5974236 4.5133862 -10.852678 -10.251625 5.100578 8.097732 4.5643272 11.77381 4.5438576 -3.600354 7.305926 3.2769926 14.620972 -3.3584309 -0.68220633 4.9716988 1.2762076 7.4592323 5.697281 -1.4444283 4.8830194 11.278567 10.730346 5.6351047 2.119838 -12.354435 1.4808764 -0.1672865 -2.4781554 6.402815 -6.5477505 0.64008355 -5.758106 -0.06449128 6.267262 -5.1405067 10.307706 -3.8970828 2.5238454 -13.218367 -12.481621 -1.3181249 7.576129 1.6792902 -1.3870896 -2.1840894 4.214987 -12.627029 13.063776 2.6467505 -4.495712 4.266132 -0.66167736 -11.946892 12.120084 4.3082733 -0.44269776 0.14662805 -8.943322 -1.7384249 -9.345024 5.665525 -2.5637941 4.592502 4.951757 -4.030371 7.1106815 -1.0042017 -2.555195 -5.7298193 -2.6886559 6.461038 1.70862 -0.04411223 3.815334 -1.3952949 8.88549 -2.1482298 5.6325927 11.15191 -2.956677 0.95772266 4.1603374 -1.1267625 4.137357 7.4090357 6.884528 -6.309292 -4.1342154 4.976411 2.2605 -8.878927 -3.8313606 -0.010092169 4.7159557 7.75151 9.773092 0.24151677 6.1683617 10.135331 -6.3703437 14.720012 -15.598654 0.1481196 -4.8479905 -6.083978 -1.4950875 -11.794388 9.009813 -9.648031 2.292691 -2.9111354 -15.193843 12.65441 11.436324 -2.4133463 5.034943 11.180984 1.8714554 7.034734 6.9445505 -0.9292794 11.542194 -4.6005197 -16.800882 7.8759227 -9.150494 -4.521324 -3.9806094 -6.9470387 -15.108291 -6.772728 10.846681 -5.1663594 -5.777637 1.6346649 -2.3156416 3.6168566 2.097776 8.229491 -2.0252266 5.645634 -3.9797447 -3.3759608 -0.33022395 -7.5589113 7.718123 11.991071 -3.3773658 -4.6734257 8.147272 3.0188365 17.843594 16.364096 7.5665007 1.9108806 -3.308164 4.180842 9.365855 0.07664492 6.793693 -4.014258 5.893286 -2.4490056 7.5917745 1.8143778 -4.113694 3.6911402 0.8868293 -6.7934895 -9.48293 -16.392006 -11.292111 3.672274 7.608839 8.352984 -3.6075368 10.582879 16.74884 0.4428342 3.2495277 -2.0163476 -7.5237594 -0.48524106 -0.5962002 3.7206085 3.4103925 -4.334966 8.0064 -12.185562 1.1448781 24.647284 2.0596032 -1.15742 -13.523467 -9.890694 -14.076786 1.133123 -6.7673693 4.9749246 2.3739345 -2.157817 -5.833457 -9.004887 5.5101395 -0.41985255 2.336207 8.234087 0.11061295 -1.5176528 3.8672194 0.31778526 -5.2926455 3.2202334 -6.4821568 -11.20147 7.4108896 -4.115187 -13.989929 -2.8278623 11.337693 -8.46514 -10.704334 -2.542397 -0.6695829 -2.5482783 4.3169713 2.9409857 -2.2439022 12.475558 -3.8656301 -3.5541837 9.2827015 8.541252 1.5805428 -1.2015254 -1.9627111 2.9986508 6.0021644 8.721128 -4.566189 2.881253 -9.041544 -5.687162 -5.9370475 4.22401 -6.3777237 -14.209282 -2.400679 -6.885258 -6.277421 13.288059 -8.695284 -2.4278772 7.855697 4.902571 6.5406117 4.5534987 -10.429677 3.8598826 -10.432821 6.30281 3.1591377 -16.133074 3.5034492 -0.46151403 4.7774324 11.13604 12.407978 -0.35292363 7.8650417 -2.317832 16.325796 8.162932 3.9751 15.855282 -0.090379335 9.15633 -6.0237775 2.9949727 3.6367426 -13.080636 -9.042267 -3.5262718 -6.357079 3.4898176 -2.7081754 1.9306035 -5.8097634 -3.4534614 2.1309156 -11.390006 -5.028289 1.2637668 -4.7369566 -6.227177 -0.90343904 5.751284 -4.048326 -13.7371 -4.838302 -13.126417 -4.0740013 -16.707237 -0.30319443 0.15012257 -3.6141787 -3.5676677 -4.6008945 4.1921506 8.292643 2.0222647 -4.256924 11.308316 2.3388731 -11.782422 -7.6912847 -1.2333677 3.8079898 17.401464 -8.315215 -5.048911 5.729308 16.221685 -2.7245712 -8.162386 -2.5347133 -3.0642097 0.94328046 12.717022 -1.0848919 8.286145 0.087504916 10.081099 -8.458239 9.764934 4.4704943 -8.24952 -3.3734148 -0.7177345 3.1878526 -4.119433 6.759491 -4.8055305 8.168265 -1.0729593 -1.0338467 14.563114 -3.9421103 -1.0944012 -10.931141 4.208356 10.18742 -7.105997 -5.342841 -14.994451 9.838196 -12.331189 -13.275942 -2.4262528 2.6327684 2.384848 -6.1200366 5.1217356 4.1278605 11.4666 -1.571404 13.025552 -10.036766 3.0814667 -15.979403 5.6577635 -2.27951 4.1544843 -0.30767846 -7.603052 5.230691 8.077355 -10.275097 2.5874267 -14.009456 3.461926 -1.8426129 6.6276126 2.6473765 -4.036904 -3.357314 -9.743931 3.5283036 3.110482 -4.1537013 8.969145 8.922809 9.287458 -2.7161796 9.703176 -4.3843036 2.5457504 -5.3187547 -3.7356045 -3.0915267 13.145187 -2.896003 7.610152 -2.4613369 13.295811 8.333896 4.606942 4.163463 -0.025868598 -1.7115824 7.513947 5.8526855 -6.0090013 6.2825804 -6.861614 6.6321864 -5.481346 -3.372289 -16.723148 0.19310828 2.0565512 4.015169 3.919783 -7.276267 5.3016553 -8.043081 -4.7814126 1.5022353 -3.6384122 -7.317994 1.7310284 6.626601 11.982785 5.6538568 -3.3348942 -4.32767 -8.372636 6.0211563 -7.6297307 -10.445511 -1.7214164 0.89247715 2.519407 -11.6875515 0.5264134
bed 2.7830205 2.5207024 -0.61515856 -1.9590658 3.218624 -2.314247 0.43847308 -1.7976694 -0.08096407 0.21632631 0.14484708 0.6928024 1.1088679 -0.5750419 -0.13627681 -1.418145 2.137049 -1.2243267 -1.5786468 1.6224915 1.0038698 0.5091641 4.0008492 -2.487295 0.41676834 0.9367327 -2.834816 1.0266315 2.063465 4.7655444 -3.8815227 2.523574 2.3500485 0.7169858 0.8678486 -0.57413495 -1.0851843 -1.9898661 1.6565264 -0.6662226 -1.8661007 1.1114169 0.83127457 0.9908218 -0.31812835 0.7114598 -2.007897 -0.32975504 1.9723415 -1.3801907 1.6356361 0.49903396 0.98839533 -1.7900227 -1.0005416 1.5411302 -2.8243954 -2.8762355 1.1926036 1.9432139 1.0092005 2.8566442 1.3807548 -0.35215008 1.5367746 1.4317651 3.73507 -0.50461864 0.054871984 1.6742517 0.37661266 1.5365629 1.8726189 -0.8401952 1.4976798 3.0512366 3.4451761 1.2875582 0.9375464 -3.0708044 0.19205342 0.31566036 -0.71705824 1.3665081 -1.9269516 -0.036891896 -2.1024275 0.09884696 1.4908878 -1.6668211 2.4308054 -1.0785346 1.0760136 -3.1059413 -3.7129095 -0.38911656 1.740166 0.9829815 0.007597725 -0.5354691 0.9124524 -3.860083 3.1851616 1.046433 -1.1396868 1.3872609 -0.7248122 -2.8341258 3.2658284 1.3629613 0.4577946 0.28591248 -2.0292933 -0.14142008 -1.9662553 1.7376857 -0.68259555 1.4792417 1.582992 -1.3858699 2.240998 -0.84284765 -1.0470674 -1.952314 -0.49334246 1.4466062 0.20767036 0.08872934 0.58413595 -0.2617775 1.9268118 -0.4194423 1.5469633 3.0973969 -1.1318498 0.5230528 1.1672179 -0.20328873 1.3944777 1.7022307 2.2406516 -1.9727803 -1.0838363 0.7967341 1.041405 -2.3414104 -0.6180329 0.15534198 0.73481894 2.2151947 2.1459258 -0.12744986 2.0402887 2.3105114 -1.7607274 3.8707821 -4.493967 0.5118298 -1.377453 -1.1137486 -0.114808835 -2.7089305 1.9015515 -2.7643228 0.9774459 -0.4033213 -3.7619987 3.428891 2.9980068 -0.79505146 1.2298002 3.00667 0.4038082 1.7158366 1.6698252 -0.033428784 3.4955568 -1.3300165 -4.5785184 2.0036163 -2.521395 -0.9875589 -0.45242396 -1.8252796 -4.1172795 -2.0986533 3.2588212 -1.571907 -1.0991399 0.9222625 -0.43447492 0.915379 0.15165828 1.810424 -0.037579656 1.2664316 -1.4475132 -0.56947076 0.12095014 -1.8305503 1.5775402 3.4716003 -0.7570605 -1.7981071 2.5484452 0.654015 5.27338 4.541241 2.23956 0.7300091 -0.92883664 0.62761194 2.009976 0.16214478 1.8281035 -0.9534364 1.8382199 -0.5559894 1.7973415 0.49091753 -0.96587425 0.82933563 0.38496155 -1.7697318 -2.2383165 -4.326583 -2.866001 0.94252664 1.5316819 1.9932624 -1.0042834 3.1831264 4.0140076 0.19716635 0.6446718 -0.7152929 -1.9640458 0.24886008 0.28040573 0.63263416 0.7112223 -1.0319989 2.3680143 -2.806508 0.5069478 6.942436 0.39132518 0.08744887 -3.431146 -2.6520598 -4.0930715 -0.061210953 -1.789971 1.1150552 0.66137797 -1.0054586 -2.1223547 -2.7977061 1.6111692 -0.3811812 0.32947806 1.8667893 -0.17742273 0.14797816 0.66970813 -0.48658675 -1.3143078 0.5929542 -1.9889715 -2.7411363 1.969851 -1.3250269 -3.5673468 -0.7510315 2.9474196 -2.6624856 -3.1692543 -0.9530968 -0.12824558 -0.76414746 1.2988222 0.37937948 -0.94485074 3.551164 -1.1668162 -0.8211712 2.0912914 2.7379615 0.7018937 -0.32383308 -0.84612435 0.37007117 1.9929918 2.399451 -0.9170506 0.96155566 -1.9047688 -1.6919549 -1.2758218 0.87602925 -1.3546365 -3.594875 -1.054127 -1.6712309 -1.532616 3.2605674 -2.6115415 -0.2698806 1.9360933 1.7147602 2.1046805 1.4602767 -2.3613424 1.5178311 -2.7657366 1.9494305 0.73654836 -4.235438 0.9771524 -0.49596122 1.1190631 2.8177333 3.382078 0.035952263 2.2448041 -0.27155572 4.5638256 2.2364495 1.2114848 4.1395783 0.16161905 2.6218429 -1.3100995 0.7136573 0.81407 -3.601566 -2.1516972 -0.85125214 -1.4100512 1.3086475 -0.37963715 0.47130072 -1.7827097 -0.6897782 0.35012457 -2.7012925 -1.096886 0.42129534 -1.3704462 -2.0547931 -0.121150136 1.7593459 -0.75124365 -3.159301 -0.9337754 -3.6958747 -1.0223342 -4.1232095 -0.06341163 0.6177231 -1.2548987 -0.75735575 -1.5453408 0.9607994 2.066178 0.16168195 -1.3250912 2.754305 0.035177503 -3.2762694 -2.384256 -0.07336528 0.9079296 4.6942387 -2.3140075 -1.8007548 1.6773839 4.025879 -0.96613264 -2.0858276 -1.0150629 -0.92918843 -0.06363472 2.941248 0.054838262 1.8674155 0.25209397 2.5473084 -1.7257077 3.0460246 1.730542 -2.0697215 -1.0663513 0.023945162 0.9011759 -0.69560266 1.6982075 -0.9932696 1.8888019 -0.24954236 -0.65587133 4.1609607 -1.2598423 0.090758346 -3.2335267 1.5710654 2.5014315 -1.9635643 -1.1929218 -4.376979 3.0633981 -2.818738 -3.5713124 -0.8813976 0.56435984 1.0910358 -2.0875287 1.4913543 1.2013775 3.4261231 -0.35607886 3.7449737 -2.5295935 0.3564352 -4.072855 1.5937152 -0.9614832 1.3836086 0.4670688 -1.704852 0.9962585 2.4474702 -2.9371445 0.8380914 -3.8413818 0.6849618 -1.0083015 1.9148877 1.0161469 -0.6962058 -0.65979856 -2.8546903 0.6347478 0.5633868 -0.72513956 2.691539 2.5294254 2.5742116 -0.59864694 2.357778 -1.1394926 0.93638945 -1.7281014 -0.6427511 -0.4860541 3.2943246 -0.45956975 1.508631 -0.3550314 3.4282973 1.9184947 1.171718 1.300111 -0.44395974 -0.42457765 2.2680933 1.7102346 -1.7494527 1.366602 -1.5528172 1.3635852 -1.5730008 -0.90001905 -4.305212 0.43497863 0.12633641 1.0429789 1.3007652 -2.212348 0.97310275 -2.06132 -1.1994315 0.040893003 -1.5607601 -2.075476 -0.0034631644 1.9620835 3.0174093 1.1306995 -0.4089026 -1.6769788 -2.0479202 1.2803444 -1.5000678 -2.757366 -0.3409723 0.6514159 0.95496404 -2.7677047 -0.021796305
big 2.3409145 3.2133677 -0.98016274 -2.042029 4.1475706 -2.2302985 0.5384306 -2.3781462 -0.22650427 0.4467083 -0.7495493 0.7020854 1.2295718 -0.83717126 0.37849134 -2.2502553 2.162923 -1.6681496 -2.044361 1.3073043 0.7388825 1.2376591 4.177896 -2.7909207 0.063715406 0.9388428 -3.2043993 0.91948557 2.3823004 5.686443 -3.630201 2.560531 2.5376177 0.5777147 0.744352 -0.56936 -1.4008329 -2.2469728 1.5803716 -0.7581317 -2.3460119 1.5294358 0.7791707 1.2962894 0.063425705 0.90660983 -1.8832014 -0.39382717 2.142507 -1.3555048 1.8240063 0.07118269 1.4496316 -2.0815318 -0.8128515 1.3563608 -2.932804 -3.5749931 1.3874431 2.8356304 1.5575987 4.041659 0.9271494 -0.7095522 2.024441 1.4666741 4.234163 -1.0826696 -0.028393758 1.7615204 0.34440753 2.1849923 1.2677536 -0.7389834 1.2665759 3.814401 3.8500686 2.3381617 0.69062096 -3.5912988 0.49237788 -0.23278506 -0.94299924 2.4083223 -2.182031 0.7059425 -2.3562615 -0.31490368 1.770326 -1.920698 3.2303236 -0.84078044 0.5534677 -4.034051 -3.4433591 -0.5366801 2.2727973 0.6690664 -0.0976324 -1.2176925 1.9263957 -3.8404567 4.534927 1.1243875 -1.3860118 0.8291466 0.04321615 -3.3766844 3.541701 0.8857081 -0.067132674 -0.18726188 -2.951933 -0.70724654 -2.5716734 2.0591075 -0.85086054 1.3712434 1.3789395 -1.4648083 2.6129413 -0.85373944 -0.78112835 -1.5282634 -0.50707877 1.9603431 0.43933925 0.061392445 1.4203781 -0.119931765 2.8128371 -0.46673417 1.8745675 2.903774 -0.82795995 0.016856004 0.9672503 -0.7357748 1.4126358 2.1738026 2.590083 -2.1929016 -1.5517894 1.3084966 0.83446705 -2.6942837 -1.4354421 0.35274062 1.5458307 2.1177764 3.6275203 0.057207897 2.1863403 3.14072 -1.8525361 5.238609 -4.8304744 0.0021692882 -1.815927 -1.465546 -0.5222557 -3.9788814 2.6896777 -2.7595994 0.57992595 -0.6231207 -4.5485163 4.0904503 3.9572196 -0.7498412 1.8795066 3.819905 0.25959843 1.83642 2.5155642 -0.34533045 3.2470512 -1.5473666 -4.9757776 2.374493 -3.0701258 -0.9517907 -1.1074874 -2.780681 -4.7278457 -2.0190501 3.2387912 -1.4889019 -2.0615783 0.5513693 -1.0082523 0.8892154 0.3110272 2.0735762 -0.83337337 1.4641747 -0.95115924 -1.2080858 0.049941514 -2.3431776 2.3399196 3.6714149 -1.3650568 -2.038681 2.1880052 1.4525937 5.1619205 5.0024905 2.612166 0.5137058 -1.3011352 1.2350086 2.327729 -0.041211203 2.6550019 -1.2253048 2.1893418 -1.2407721 2.3097234 0.5115939 -1.3534623 0.62738854 0.5523665 -1.5646242 -2.7359006 -5.3158364 -3.800952 1.4851812 1.9093871 2.9999135 -0.7334801 3.3888266 5.283675 0.0843729 1.4594783 -0.5506589 -2.6494546 -0.19912241 -0.5587062 0.7516901 0.9007055 -0.9909697 2.0435064 -3.5595083 0.17660955 7.373267 0.95698494 -0.44522822 -3.8877254 -3.2915335 -4.043724 0.15119466 -2.38488 1.7725364 0.91856843 -1.0674474 -1.6782095 -2.7385576 1.9271505 -0.03389918 1.2412808 2.6328251 -0.27712825 -0.13439351 1.8314394 0.41169083 -1.4893646 1.3478905 -1.5367253 -3.8862789 2.4472613 -1.397476 -4.1945944 -0.7226542 3.6583793 -2.4083502 -3.3837082 -0.905592 0.16667499 -0.80829316 1.4966804 0.46458396 -1.1690457 4.209977 -1.5673652 -1.3077534 2.7269218 2.8779423 0.5938822 -0.28238046 -0.4540062 1.2306488 2.0277812 2.1282961 -1.2534983 0.54018193 -2.5451813 -1.8848656 -1.5337248 1.1140213 -2.107809 -4.077664 -0.6124068 -2.2537258 -1.5978781 4.5952353 -2.5519924 -0.2631755 2.2830868 1.2612371 1.9033612 1.0089488 -3.399129 1.6846389 -3.6124105 1.9760605 0.7000546 -5.100502 1.1747406 -0.18418595 1.6060168 3.3968601 3.6134648 -0.07356046 2.2371888 -1.037325 4.883256 2.925179 1.1327382 4.6411867 -0.18140812 3.1585517 -1.6068664 1.3438483 1.3190867 -4.5387435 -2.9356623 -1.1197542 -1.5291928 0.93037444 -0.537948 0.32538906 -1.347411 -0.9427201 0.5688565 -3.2187839 -1.0540255 0.77534366 -1.8553473 -1.6981429 -0.4863032 2.1625311 -1.2787604 -3.8431058 -1.1804103 -3.8681633 -1.6315132 -5.628469 -0.18314667 0.61626124 -1.2791595 -0.75006884 -1.7243004 1.539228 2.296392 0.82398564 -1.3697343 3.9207616 0.92989206 -3.4640465 -2.227975 -0.015648432 1.5419174 4.8602004 -2.191386 -2.0451682 2.1038747 4.797585 -1.2349316 -1.9371305 -1.2543488 -1.2161447 -0.014547944 3.9517004 -0.2686714 2.8009195 0.041216373 3.0129502 -2.1471562 2.970026 1.8573043 -2.6514163 -0.76786363 -0.7070962 0.5377712 -1.4003235 2.4173753 -1.8471593 2.7426736 -0.88564056 -0.7815974 4.869229 -0.877107 -0.88374776 -3.4944923 1.1301495 2.98381 -2.3294818 -1.7580234 -5.2693906 3.4380848 -4.0694747 -3.9968858 -0.8362122 1.0049795 0.73281366 -2.0522332 1.7573172 1.089913 3.830068 -0.76922596 3.8001366 -2.795097 1.0516657 -4.631714 1.2221104 -0.9314653 1.1132468 -0.046042614 -1.9407971 1.524163 1.9796214 -3.7717447 1.058173 -4.5017166 1.3803012 -0.9470877 1.6959105 0.5938168 -1.907445 -0.9264253 -3.20362 1.1062623 1.3985654 -1.2093121 3.0297368 2.5419157 2.6857936 -0.4649664 3.0194006 -1.101738 0.6524729 -2.0754051 -1.5899826 -1.2993989 4.025779 -1.0527906 2.5258875 -0.7871155 4.160183 2.8526113 1.682303 1.2905909 0.124041274 -0.8006504 2.44449 1.6246244 -1.4778363 2.3450696 -2.7771564 2.4395351 -2.176744 -0.6174987 -5.104391 -0.09225596 0.5286032 1.1419624 1.059081 -2.5799472 1.7604315 -2.4713535 -1.5789701 0.5640045 -1.4397395 -2.2279048 0.91896904 2.0518959 3.3311245 1.2849435 -1.2795092 -1.152805 -2.751321 1.7154957 -2.4489694 -3.2955985 -0.18688898 0.14791363 1.2411097 -3.5799925 0.16677913
