240 500
20 3.0295582 -2.2133675 3.3821554 0.60804486 2.796235 -3.879454 0.93144864 1.9650402 -1.0612674 -3.0324998 -3.0135787 0.6269714 -0.6609272 -0.8593501 0.28382567 2.073717 -1.5960093 0.5835504 -0.6607126 -2.181928 -1.7867602 -0.09913533 1.1854942 2.535391 4.906311 3.837654 -2.8139665 -3.393609 -0.030449748 -0.4440978 2.518162 -1.31609 2.2136674 0.64004487 -2.1041949 -0.32544646 -0.70914274 1.3544163 2.064797 0.3759778 1.8230591 3.4398808 1.3564682 -2.6797001 -2.5679832 2.8627672 -0.77944887 1.2159932 1.6757823 -0.7000584 0.19697288 -2.46141 -0.4885641 0.2123291 0.20843129 -0.0971068 2.1369958 -2.3199584 0.5371528 -0.6436014 1.3097767 -0.4366176 -1.6799171 -0.42843315 -4.0428624 -1.3550777 -5.236332 -0.2501525 0.56342643 -0.99617916 0.24394262 2.1123865 2.3288994 -0.73062 -0.762872 -3.559137 -1.0872111 0.17436977 -0.03360912 -2.7267694 1.2546457 0.6977901 -3.24929 -2.5284579 1.8516684 0.67819214 -2.2255719 1.1592593 2.5879421 0.2647677 2.220472 0.04408 -1.6091073 -0.092850976 -0.7100405 -0.8115865 1.3393621 4.364787 -0.587094 -0.64427674 -0.21699317 -1.108923 -0.12096951 0.008789941 -0.13575597 1.340275 -1.1122222 0.9388105 0.58938664 -0.49140874 -2.25459 0.90052485 -3.470329 -0.49567297 2.5964055 -0.02519973 1.0539212 0.74698824 0.73048514 -3.064608 -0.26077408 1.8147634 1.6932739 1.0109541 -1.1032989 0.82894886 -2.5374036 -1.4123566 1.3255965 1.0578552 -0.8632268 -1.9633855 3.2886615 -3.7223022 -0.12945661 -1.2802898 -1.2260536 4.164276 1.7589197 -2.9824684 -1.8609278 -0.22236042 -2.667881 0.066264525 1.8864423 -3.4639685 -1.9514209 1.0952934 -0.52634007 0.42899376 1.305747 2.2015762 -2.7851667 0.5945983 4.1432285 -4.454771 -0.3520662 0.62918305 -0.8157418 -2.9413836 1.8580326 -0.6578979 -0.40878072 2.100198 -0.06299862 -0.12141641 0.67315054 0.17811826 -0.45926854 -3.1596775 -0.036658697 1.2259715 1.2661293 -0.023310132 -0.028939718 1.3084857 -3.180515 0.8652644 2.8299506 -3.4360957 -4.778386 1.7113403 -1.4512156 -2.3815112 -3.5528321 1.9264431 1.6184996 -0.33411196 0.19179448 1.6644806 0.16262035 -0.6036817 -0.28090557 1.288374 -0.748194 -0.8573687 -0.6236829 -2.7399874 -2.2955363 -2.8699117 -0.6534887 -0.5404757 0.15692514 -1.1625979 -1.0822371 -2.0386488 -0.75397956 -0.47362295 0.8448955 -2.5952935 -4.0053735 0.2602967 1.0661665 0.43175855 -3.31841 1.1039102 -0.38400924 -0.23019812 -2.0423415 -2.410308 2.4476779 -3.1346164 1.5165244 1.4155992 2.0587318 2.6440425 -0.19255665 -2.0044146 0.74062496 -1.46854 -1.3172567 1.2163043 -1.3380935 -0.3726545 2.2190347 2.7878659 -1.5825725 -0.8730889 1.6066716 0.79027253 -0.9631611 -1.3336552 -0.104885206 -0.27445722 1.3915194 -2.4030921 -0.8226797 0.75885534 3.0263011 0.4660718 -1.774276 1.9157473 -1.2829037 0.55106705 1.676686 -0.26538 1.8704801 0.12154875 0.366257 -1.0639218 2.6485155 -1.6714133 1.8492215 -0.58964384 3.3063483 2.2359788 -1.1860515 3.4553528 1.5953686 -0.52636176 1.9955117 -3.2259054 -2.327354 0.45614213 0.6180565 2.2090795 -0.66372883 -3.0096264 -4.7041006 -2.038665 0.07028811 -1.7207948 -2.2600138 -0.89826214 3.019225 1.2026478 3.947411 0.0706726 1.8897183 1.9223945 -2.9882305 -2.677449 -2.1920888 1.5403341 0.39031857 -1.416156 -0.7214121 1.6076003 -1.5238141 -0.7326681 0.27292284 -1.0388311 1.3767592 -0.7639287 3.3428903 -0.02400833 2.097567 -0.64402115 1.9161265 2.3828976 0.85025793 -0.4321627 1.8469291 1.4811362 0.8539087 4.3424435 0.6566442 0.05884747 0.5128411 -1.2072655 1.2100189 -0.6262465 1.9496559 0.7203921 2.2946062 2.2744937 -1.0118067 -0.21457113 -0.0881779 2.4885013 1.0913028 0.9366056 0.39021158 1.5874462 1.5105302 -4.2116704 -3.5925672 3.105183 2.3974893 -1.3339674 -1.1021165 0.41311374 -1.904693 2.9398456 0.3639227 0.38479966 0.6246175 1.8132001 -0.7080987 0.039104342 -0.16034465 -0.1419931 0.07601287 -2.2288072 -0.7897603 -0.025165472 0.66078717 -1.993104 0.49692246 0.45751855 -0.7666648 -0.6553881 0.2394386 -0.5068572 0.7591145 -1.6563905 2.007004 1.407628 -0.08410917 1.4142567 2.3397627 -0.72271997 3.3778255 -2.1546378 -2.2361393 -0.12402086 0.121978745 -2.195643 -1.5198597 -2.3870015 0.6250609 3.1663587 -1.495705 -0.097651266 -0.062946975 1.764617 3.6562176 3.5342963 -2.2703485 -2.51752 -2.0277607 3.9923706 -1.4939716 0.09241484 -1.15477 2.8832393 0.6274328 -1.0592631 1.1625726 -0.5508927 -0.9506447 0.3838247 0.32205942 0.6601798 -2.5577497 -0.8391627 -2.8851638 -0.045624815 0.8115921 -0.031113334 2.1795518 -1.1070135 0.6254876 -0.043190908 1.8482864 3.0767307 -1.8336663 0.46630934 -2.7613683 -3.5904627 -0.67402416 -1.1047742 -0.31680244 -1.6597317 4.415154 0.83970904 -1.4278804 1.8218387 0.59693784 0.42733833 1.0427165 -3.2999508 1.513441 0.13831711 -2.8849697 -0.23423673 0.61637604 -0.116667554 1.7604176 0.23910052 0.021327117 0.36261094 -0.08683801 -1.2100441 -2.312719 -0.06772719 2.4132795 -1.657932 -0.96665365 -2.9173832 -0.44065168 1.7448581 1.8562984 2.225462 1.4806578 0.1134382 1.8076872 0.9951114 -1.1947404 3.5856588 -1.8811984 1.6016347 -0.19691715 -1.9278771 2.5258815 -0.54260355 2.1211593 -1.3760039 -0.7311073 0.14278224 2.9107432 0.2382363 -0.9343084 0.024665149 0.6382002 4.0083313 0.29576647 2.2549813 2.2513309 2.7516627 2.0870566 0.6525314 0.7518484 0.6885764 1.7409472 -0.44745886 -3.0946493 4.0929036 -2.2453346 -0.6684758 0.9237036 0.42873222 1.1668229 3.559971 -0.7565147 2.5279484 1.491203 0.8635805 -0.9433459 -0.4887142
a 96.0914 -60.481903 87.76217 30.27427 87.628685 -104.52855 38.702736 57.14068 -42.217457 -81.93949 -82.19436 26.578056 -14.335448 -13.287773 -2.8655567 57.25002 -48.708775 17.993235 -7.827944 -79.716606 -68.78524 9.486586 38.624126 75.94155 134.0353 116.32859 -77.81705 -113.59249 4.1446967 -17.355694 67.56548 -28.14256 79.930916 28.794611 -61.999832 1.3827243 -24.27318 55.443314 50.857758 -3.0780706 50.012966 119.52023 29.687368 -72.40162 -83.294 75.568825 -34.15845 38.956062 43.553047 -10.041867 10.295813 -64.59188 -21.265469 2.2393386 10.527074 4.9307375 65.51871 -80.05125 15.925841 -34.778507 50.7425 -22.37038 -49.37252 -1.8274177 -109.6019 -52.741043 -146.34407 -3.829669 29.172003 -36.89673 -3.369662 54.108498 58.220493 -25.698729 -10.502502 -111.67352 -44.422993 10.18485 -2.5365677 -78.94717 25.913157 6.70634 -101.03393 -68.734634 42.208073 15.808256 -71.54113 44.424515 64.55477 -0.60343486 67.52008 16.323465 -54.092712 5.1593256 -32.848503 -16.081144 49.00287 123.200554 -24.293243 -32.915848 -5.055944 -30.233187 -11.532446 1.6126455 -3.7980838 40.250523 -36.323574 40.225796 5.693551 -29.111015 -77.26465 15.670358 -94.00063 -1.7363539 76.76456 -3.724278 26.11401 29.54336 26.846878 -77.72123 -6.965945 58.595932 57.82795 32.741226 -43.66288 12.835679 -65.39738 -37.708187 43.97281 29.027552 -33.049404 -66.831825 95.86421 -105.34224 -18.370466 -42.125095 -34.94763 120.64367 66.67059 -103.255875 -64.30906 -6.801718 -66.617 2.1486497 51.85208 -90.72107 -69.720535 35.496826 -24.294188 23.422523 35.386646 52.798866 -70.05001 17.411442 123.27356 -141.4725 0.9557337 18.296957 -31.681406 -79.97681 65.28059 -9.749346 -0.5622224 51.552 9.794367 -17.968222 34.344566 8.606764 -2.358473 -84.54727 -4.6942534 50.2618 38.464558 5.9564486 9.135864 43.95299 -82.178825 24.533112 85.434006 -105.17768 -150.21283 37.935234 -28.785938 -70.88096 -98.55733 69.45923 60.256443 -22.713636 8.518006 46.70154 4.617143 -5.511458 -11.407772 26.808283 -9.654283 -30.429249 -11.741515 -94.05595 -53.649155 -82.05388 -34.626614 -2.52483 14.190536 -20.52766 -43.387264 -48.254494 -11.831787 -0.002131741 15.051338 -93.49751 -127.854294 20.602247 27.723038 11.601835 -101.40841 24.308556 -7.879286 -5.688195 -51.267902 -65.96441 66.59452 -91.349625 51.347267 47.600143 63.126812 83.97394 4.878838 -69.16344 31.470171 -44.840828 -44.45723 50.564312 -49.020287 -12.484167 66.02369 90.1744 -42.082798 -31.603481 34.086903 12.450671 -19.284431 -30.055798 -16.707323 -10.683592 39.186455 -70.49984 -13.318746 9.865565 95.9724 12.94191 -45.548557 72.42235 -29.42058 22.696917 37.134563 -16.55616 48.413857 0.5398549 14.563549 -19.664902 67.577095 -37.568363 49.316822 -21.16507 106.6408 62.850174 -43.722397 100.19174 51.991615 -29.306929 58.145233 -93.329895 -69.824554 22.806673 22.781355 78.48559 -13.805165 -100.07256 -151.46545 -70.02348 8.884951 -40.529392 -63.387875 -32.594543 88.40176 28.749395 109.54164 -6.3099194 71.16722 71.30312 -91.23339 -72.464584 -74.32886 31.680546 1.311833 -39.77212 -17.669771 63.388348 -50.412907 -18.05874 -5.1679244 -34.180393 43.02102 -31.084715 91.86904 -0.36398932 62.88257 -10.983019 47.95937 86.421425 36.752403 -24.999077 45.85125 41.88428 18.046505 141.08258 22.913841 16.394901 8.29603 -31.696049 36.0312 -7.3101015 53.755478 32.19704 58.30244 67.37094 -24.882977 -19.523737 8.876861 73.29998 36.17469 34.71862 5.44935 33.94352 32.359848 -128.03476 -108.340675 81.10747 76.41495 -37.71653 -42.58473 -2.978695 -51.941517 76.566 2.2532601 2.032383 16.804844 57.52086 -24.88713 -4.8516335 -11.084478 9.659631 -6.5436873 -56.795692 -29.595583 6.556397 14.299286 -74.276054 21.601545 7.4008856 -13.87407 -6.033949 21.950447 -1.8790023 20.32098 -60.5066 46.712044 38.272976 -11.624571 30.914068 78.31669 -34.850178 90.22455 -70.35353 -81.57767 -8.60382 -7.5547094 -74.45478 -31.643164 -68.11201 22.620966 99.46944 -58.985836 5.866887 -1.7891228 55.971878 106.5867 109.1904 -71.64255 -64.33239 -57.099136 116.65739 -35.594753 2.2422674 -20.621145 71.79536 23.849554 -26.846264 45.091335 -14.645545 -25.08663 26.126 9.225557 20.618784 -66.946 -16.83149 -76.77256 12.546802 14.82028 13.138308 67.964714 -18.584402 17.908913 -12.039538 44.79636 83.02374 -40.12573 -0.4200843 -74.82933 -99.86858 -26.732672 -19.946568 -22.032509 -37.775448 122.77258 37.896168 -30.965134 59.297268 11.116115 6.781723 39.0771 -95.2291 37.09526 11.78527 -76.13427 -1.5397482 32.336105 4.85227 59.19799 12.041615 8.184967 4.326848 -3.1888037 -25.43808 -75.01753 -13.653188 83.90111 -64.83699 -22.960836 -83.534546 -1.9931949 55.968426 62.374508 55.988026 58.102745 14.877156 40.164696 24.387533 -36.929237 100.16652 -44.491425 40.664864 2.5049658 -52.83292 86.77593 -9.162114 54.603664 -49.681744 -33.548504 5.6277604 93.676926 -3.814224 -34.786205 -8.810696 6.246608 129.84103 23.115488 59.6692 56.491222 77.26658 64.95144 9.718246 15.077911 26.428698 48.402214 -10.1693945 -86.71948 114.192024 -61.967518 -7.2111773 32.485554 7.2494774 39.58465 93.98686 -36.064842 74.70717 59.036488 26.590435 -42.33739 -21.778807
about 14.174621 -9.065695 13.245398 4.56904 13.900089 -16.355066 6.2938075 9.182247 -6.621878 -12.459579 -12.735134 4.607795 -2.1473143 -1.7017471 -0.12810367 8.568902 -7.6053414 3.0033798 -1.2541449 -12.322384 -10.915392 1.5744572 6.1265373 12.055824 20.596153 17.735922 -11.806326 -17.588396 0.58904237 -2.7442567 10.138914 -3.7319822 12.544064 4.556754 -9.991255 0.5610182 -3.7304406 8.66469 8.041433 -0.08282781 7.453266 17.808195 4.772994 -10.717778 -12.607469 11.622184 -5.4020953 6.324646 6.899181 -1.7179809 1.6909969 -9.84427 -3.113785 0.82318586 1.3883051 1.2036035 9.485408 -11.832631 2.7538059 -4.9703245 8.186865 -3.2605338 -7.0848618 -0.45734864 -16.54293 -7.88039 -22.547184 -0.8071281 3.8778841 -6.121879 -0.62992316 8.1765 9.394735 -4.2330103 -1.9549892 -17.14298 -6.9258313 2.0030012 0.086926624 -11.815609 3.961052 0.7654577 -15.810012 -10.9071665 6.885694 2.5940852 -11.379407 7.297003 9.4957285 -0.42652112 10.657613 2.2714598 -8.229243 1.1257514 -4.69919 -2.692835 7.4522715 18.939886 -3.9197328 -4.9617157 -0.27158874 -4.631294 -1.7519252 0.19237399 -0.41204906 6.57558 -5.9977202 5.6886 0.54993564 -4.494126 -11.587592 2.3326836 -14.721204 -0.45408618 12.0827 -0.7715998 4.4844456 4.1982465 4.163606 -11.629844 -1.4995478 9.108711 9.061434 4.6385407 -6.610919 1.605203 -10.604904 -5.585147 6.384448 3.9014287 -5.0719523 -9.84035 14.227587 -15.853549 -3.2005308 -6.232239 -5.653541 18.70428 10.089965 -16.19102 -9.954473 -1.4164273 -10.209675 0.5566937 7.438313 -14.260072 -10.955105 4.970868 -4.0574603 3.5019088 5.841387 7.9689574 -10.733698 3.087746 18.904089 -21.323566 0.23378211 3.0213323 -5.0573945 -12.566276 9.961757 -1.1745839 0.43722048 8.22543 1.5240426 -3.2061214 5.035679 0.99726343 0.064813085 -13.256423 -1.0200889 8.197784 5.4293814 0.53027254 1.3802944 6.6829886 -12.453059 3.901464 12.846964 -16.480618 -22.978218 6.052359 -4.8902645 -11.406618 -14.492073 10.190475 9.398179 -3.888551 1.5794588 7.20978 1.058845 -1.3443598 -1.7324417 3.7380192 -1.5440061 -4.3290634 -1.46457 -14.773978 -8.604223 -12.880669 -5.7206135 -0.0755214 2.2890143 -3.5321736 -6.8067565 -7.603709 -2.0466907 0.40183148 2.651275 -14.586158 -20.039703 2.9065225 3.9609478 2.1454904 -15.50281 3.9142597 -1.1626254 -0.38774624 -7.598294 -9.858209 10.668383 -13.641199 7.976106 7.0731263 10.200984 12.542585 0.7609058 -10.348176 4.469505 -6.654516 -7.015442 7.649329 -7.263235 -1.977953 10.415809 13.353259 -5.960957 -4.8707123 5.363169 2.3334281 -2.8762383 -4.891414 -2.5732038 -1.3736047 5.901667 -11.129783 -2.433016 1.0729415 14.425872 2.1639097 -6.634702 11.038885 -4.4315257 3.3761444 5.4139314 -2.0098803 7.6265416 0.63086796 2.4880192 -3.2866516 10.800837 -6.0984035 7.2352967 -3.2453191 16.57655 9.079761 -7.1036553 15.171753 7.5669975 -4.300912 8.665269 -14.618505 -10.973749 3.8381622 3.2113652 11.542138 -1.9493288 -15.672227 -22.921328 -10.81908 1.1007457 -6.1314473 -9.623005 -5.269875 13.696672 4.848016 17.15825 -0.8965856 11.193706 10.770244 -13.901404 -10.566362 -11.449733 5.330234 0.19721311 -6.345362 -2.5361261 9.580038 -7.6490703 -2.6452525 -0.9542111 -4.9209175 6.4677167 -4.865539 14.250981 -0.19081657 9.119253 -1.9650409 7.146827 13.6667795 5.7685833 -3.853814 7.345402 6.868208 3.0086887 21.313646 3.5034468 2.4629006 1.5432676 -4.3695517 5.7675633 -1.1973219 8.365942 4.780849 9.384564 10.5299425 -3.8369546 -2.6656027 1.1354333 11.325084 6.0363812 4.8379 0.7692912 5.248666 4.765 -19.472994 -16.583729 12.768576 11.261925 -5.8581443 -6.723218 0.10662408 -8.084614 11.811507 -0.117291555 -0.05030161 2.7627797 8.554704 -4.189684 -0.82624495 -1.8033558 1.5072 -1.3991005 -8.440358 -4.6687193 0.5205603 1.6138088 -11.429051 3.8654127 0.8188943 -2.3896441 -1.162044 2.8656614 -0.20305267 3.3204522 -8.928451 7.573057 6.3955874 -1.8902524 4.27402 12.450923 -5.3758416 13.450473 -10.554868 -12.309204 -1.1872957 -1.33312 -11.392812 -4.476315 -10.739042 3.9701836 14.944653 -8.917463 0.6823468 -0.5761492 8.249849 16.67461 17.172281 -10.737433 -9.355331 -9.020491 18.040478 -5.3622646 0.79618645 -3.064457 10.977155 3.6279793 -4.529673 6.9290867 -1.8738122 -3.3731825 3.727323 1.6275353 2.7783911 -10.477026 -2.3570628 -11.342364 2.2492087 1.8658775 2.3297322 10.413499 -3.0399554 2.4660833 -1.7659506 7.2189374 12.239699 -6.4789505 0.062004734 -11.064737 -15.292791 -4.171272 -3.2703667 -3.0322301 -6.0750604 18.555582 6.412304 -5.2111754 8.720593 1.6218405 1.4736025 5.698435 -14.7661 5.4040256 1.7155334 -11.851345 -0.34643075 5.341897 1.2565316 9.325228 1.6469598 0.86765546 0.79192156 -0.51679975 -3.4938557 -11.929022 -1.7903144 13.244836 -9.373595 -3.7778828 -12.317834 -0.70283407 8.243157 9.106443 8.431802 8.885367 2.8192027 6.273586 3.5490491 -6.142661 15.033561 -6.9179254 6.3479033 0.238854 -8.568662 13.525655 -1.2621728 8.153324 -7.1442 -5.0193653 0.83262485 14.1471 -0.7309637 -5.4624057 -1.0352997 0.744804 19.373089 3.0439603 8.644103 8.753548 11.956518 9.682845 1.9199188 2.7898006 3.8825548 7.4269223 -1.9615092 -13.348257 17.519444 -9.300123 -1.5290198 5.014236 1.3272216 5.718797 14.628507 -5.405059 11.026452 8.454581 4.3989725 -6.420248 -3.7921326
after 4.348657 -2.9763918 3.938442 1.7100313 3.5157025 -4.546442 1.6455759 2.2548318 -1.571322 -3.2858186 -3.156453 0.63249004 -0.90196323 -1.0724876 -0.43415955 1.9003426 -1.7896732 0.37374356 -0.6316208 -3.220758 -2.7894437 0.8623513 1.552639 2.9858828 5.697167 4.572273 -3.2267501 -4.4120207 0.25797603 -0.5421221 3.213316 -1.2701004 3.4970655 1.2097777 -3.0516634 -0.37427473 -1.4227022 2.7359562 1.6787252 -0.29133505 1.7545342 4.8885694 0.7627573 -3.1088672 -3.3441882 3.1521165 -1.5787568 1.4579524 1.6836238 -0.19010144 0.36073196 -3.109228 -1.338652 0.59886 0.5658912 0.46281707 3.142574 -3.3429632 1.074502 -1.4939033 1.7688893 -0.68776184 -2.303427 0.27231947 -4.9608183 -2.3983252 -5.8446283 -0.1772073 1.6632795 -1.1796533 0.2379699 1.7749637 2.5679173 -1.160427 -0.4840587 -4.867139 -2.2297254 0.49332798 -0.4875595 -2.8622522 0.8474792 0.19010611 -4.5080132 -2.8337996 2.2300813 0.43162006 -3.085672 2.120339 2.8367631 0.30234492 3.2506995 0.29411748 -2.2550886 0.5466355 -1.1126841 -1.1826319 2.3567626 5.493808 -1.3662808 -0.93663436 0.000010472722 -1.2280593 -0.6069922 -0.42007568 -0.3424608 2.0287488 -1.4260964 1.9786881 0.46481684 -0.9552861 -3.0753942 0.56112397 -3.4925752 0.2292969 3.5105398 -0.035210237 0.9122775 1.0199436 1.595752 -3.3000042 -0.1593999 2.1089995 1.9258596 1.1749177 -1.8762367 0.3180241 -2.3479712 -1.0664469 1.8492105 1.2790506 -1.5910715 -3.132508 4.2382045 -3.9624298 -0.5189529 -1.9134696 -1.3107969 5.331969 2.354557 -4.2420754 -3.0150244 -0.0059448173 -2.9870176 0.021551449 1.95031 -4.1148906 -2.6471152 1.0186651 -1.1810724 1.4158952 1.0293628 2.4360285 -2.5558846 0.6914286 5.032986 -5.6969047 0.18305774 0.92702246 -0.8241684 -3.0472865 3.1874301 -0.44831023 0.20000508 2.685698 0.05330238 -0.8455145 1.4981389 0.77383596 -0.15689439 -3.1878493 -0.14050476 2.5436764 2.0548851 0.07032961 0.50966704 2.2432263 -2.922371 1.2997668 3.226169 -4.511044 -6.2031093 1.6224669 -1.4406265 -3.396774 -4.3134403 2.6718905 2.0364122 -0.82370394 0.14280552 1.785169 0.4866111 0.24329811 -0.13683397 1.4390327 -0.27955824 -0.7659406 -0.65142256 -4.019359 -2.2815344 -3.2576325 -1.7200767 -0.043266013 0.6618913 -0.9451967 -1.8385248 -2.260225 -0.72065514 -0.41671532 0.996538 -4.18567 -4.9932218 1.1735035 0.75410384 0.5834871 -4.124954 1.3044055 -0.32115614 0.17279404 -2.4530015 -2.3399591 2.4559178 -4.0628724 2.0138884 2.352867 2.1796546 3.194374 0.346596 -2.828129 1.1190336 -1.6637323 -1.8258759 2.4444728 -1.8618442 -0.35964105 3.0692394 3.7963006 -1.9504842 -1.1169679 1.0903987 0.01852409 -1.2795329 -0.8940977 -0.9233693 -0.12981668 1.6675107 -2.8651814 -0.9425964 0.74603224 4.153043 0.36195892 -1.9179815 3.4688594 -1.005052 0.47461954 1.291301 -0.2982975 1.9119939 -0.26456523 0.8853577 -1.011412 2.9308913 -1.6666259 1.6858038 -1.1965204 4.829684 2.2861876 -1.9116595 4.5795183 2.2771738 -1.1786281 2.2391 -3.3854525 -2.4533346 1.0573897 1.2185129 3.3946505 -0.11616201 -4.166101 -6.0998726 -2.6067507 0.7154463 -1.7210506 -2.3403537 -0.8964685 3.211652 0.8004254 4.425716 0.14604914 2.4822462 3.3285594 -3.608761 -3.00592 -3.2451336 1.639055 0.56504256 -1.65586 -0.52221495 2.3540022 -1.9064139 -0.52599776 0.18916634 -1.8866774 1.3459139 -1.021488 4.025581 0.46906576 3.0308254 -0.12751454 2.446525 4.0389957 1.898683 -1.2894225 2.3527439 1.8642397 0.7021911 5.8876157 0.80141544 1.0117723 0.79144907 -0.9350307 1.7489934 -0.72657806 2.5071628 1.0532292 1.9372457 2.8504148 -1.0679563 -0.56700253 0.060600545 2.7336698 1.3588202 1.2611995 0.49149626 1.8738642 1.2304139 -5.0076523 -4.308626 3.5572011 3.524224 -1.3080946 -2.1315923 -0.54056805 -2.3902183 3.65649 -0.25449154 -0.3454598 0.66708314 2.5363946 -1.3446056 -0.24860479 0.013110508 0.7833538 -0.28674263 -2.1349268 -0.9654683 -0.2248649 0.15649197 -3.4380739 0.59772676 0.22321086 -0.26324663 -0.41067237 1.0142282 -0.5536793 0.8186139 -2.1200988 1.7719101 1.8087322 -0.10393019 1.4905587 3.166133 -1.1334171 3.745119 -3.3448012 -3.2748787 -0.14737584 0.013633697 -3.411011 -1.4548289 -2.5017328 0.8665648 3.851675 -2.3723936 -0.17709929 0.048734333 2.014553 3.9512396 4.835563 -2.9503136 -2.8788939 -2.4488192 5.327105 -1.044977 0.0048173056 -0.53535944 3.3667507 0.5587513 -1.2082351 1.8673805 -0.114340365 -0.9601086 0.6640214 0.30105665 0.4130205 -2.3038957 -1.2009733 -3.2201064 0.6189742 0.70145243 0.42787272 2.7165375 -0.85647273 0.6736411 -0.84767914 1.387604 3.9097376 -1.7032615 -0.48927665 -3.598014 -4.333317 -1.0642074 -0.309629 -0.62170976 -1.8579373 5.2837496 1.903463 -0.971378 2.470583 0.6227572 0.19753541 1.6036192 -4.2584467 1.4601961 0.91836643 -2.7292094 -0.20718642 1.725474 0.7420958 2.4415562 0.50158024 0.48129937 0.24354453 -0.4197941 -1.4273883 -2.9842224 -0.15970524 3.239757 -2.7668266 -1.443221 -3.8467238 -0.4471854 2.6892958 2.447043 2.410446 2.665228 0.28548303 1.8284216 1.1116505 -1.6690655 3.760914 -1.4304429 1.2030022 -0.14218014 -1.7640042 3.9653268 -0.30772865 1.8244904 -2.16275 -1.576845 -0.029922532 3.8010724 -0.18101531 -1.4219686 -0.08585164 -0.015360289 5.7326245 1.4642137 2.4310796 2.3869424 3.169441 2.6041074 0.69264936 0.25393346 0.75429904 2.2885375 -0.34290773 -3.157831 4.27661 -2.6664562 -0.36647156 0.9282696 0.72799164 1.8708 4.329999 -1.8815873 3.4635098 2.0294604 0.9419856 -2.1681833 -0.83485687
all 17.646591 -11.431567 15.860564 5.25639 16.43137 -19.136665 6.941006 10.731582 -7.7575417 -15.655723 -15.025775 5.0998926 -2.9379156 -2.5004787 -0.51050854 10.392565 -9.343929 3.129921 -1.624995 -15.249372 -13.289781 1.9240817 7.1623354 14.053969 25.400751 21.69495 -14.466235 -20.935133 0.55818707 -3.1987898 12.763175 -4.9359045 14.824361 5.35409 -11.525215 -0.21452643 -4.202231 10.26303 9.522665 -0.66766155 9.749556 22.366022 5.640096 -13.202448 -15.611796 13.76233 -5.984444 6.6993146 8.391652 -2.421235 2.1587298 -11.851108 -3.611576 0.7576604 1.8735073 0.74260545 12.547921 -15.042652 2.9428253 -6.2949533 9.844632 -4.378513 -9.040347 -0.24905849 -20.528196 -9.425226 -27.075165 -1.2189826 5.5415697 -7.5119777 -1.0973116 10.264749 10.39765 -4.3430705 -1.8514575 -20.752138 -7.823904 1.5809261 -0.24700963 -15.0909815 4.769514 1.0099602 -19.228443 -12.953358 8.266772 3.0470033 -13.586615 8.59346 11.899346 0.21421297 12.526007 3.3855865 -9.887294 1.199668 -6.386437 -2.7193615 9.631002 22.782219 -4.33075 -5.6789083 -1.3181785 -5.7055507 -1.6852126 0.2446114 -0.37939346 7.5450783 -6.70017 7.663077 1.4989111 -5.4508004 -14.146722 2.9995415 -17.199835 -0.7314735 14.713065 -0.91666704 5.057963 5.4209795 5.3049664 -14.377464 -1.7837844 11.074126 10.454441 6.109864 -8.480329 2.346268 -11.954342 -7.5117316 8.583488 5.4121165 -5.953023 -12.485358 18.276901 -19.823338 -3.865467 -8.097635 -6.6989307 22.421383 12.155578 -19.874723 -11.830561 -1.7513309 -12.0253525 0.35153183 10.048302 -17.121159 -13.215433 6.4879923 -4.04428 4.1509404 6.507315 10.271374 -12.576509 3.4310765 22.890024 -26.384302 0.7908699 3.7164946 -6.1196218 -15.34266 12.054088 -1.566373 0.033881262 10.21218 1.3835363 -2.903428 5.9243717 1.6397246 -0.4289106 -15.967949 -0.45432708 9.516074 7.0684566 0.72741675 1.8953775 7.6653776 -15.414228 4.8227286 15.8015175 -19.903902 -28.103878 7.383252 -5.56402 -13.164729 -18.7306 12.402318 11.523271 -4.5363417 1.847795 8.766753 0.24996625 -1.1943907 -1.9019971 5.1044083 -1.2931489 -5.936377 -1.9629598 -17.33126 -10.049051 -15.270311 -6.012543 -0.5625834 2.7111256 -3.8577504 -7.699369 -9.238345 -2.4621196 0.33621666 2.8228037 -17.23624 -23.748024 4.075745 5.6025167 2.5397468 -19.006983 4.3775377 -1.0244327 -1.5189273 -9.116122 -11.889141 12.762069 -16.804667 9.532343 9.307722 11.472442 15.692158 1.2814934 -13.27495 6.3451433 -8.540884 -7.973351 9.235316 -9.098043 -2.4085934 12.657894 17.01043 -8.114103 -6.2650843 6.2285094 2.1435964 -3.09176 -5.702799 -2.9597611 -1.7207612 7.8346515 -13.403966 -2.1912086 1.6052015 17.648281 2.23328 -8.291634 13.200175 -5.132276 4.498643 6.924782 -2.7414644 8.579221 0.15088393 2.973431 -3.2431548 12.931472 -6.7404957 9.135173 -3.4568188 20.188856 11.517601 -8.307351 18.880453 9.746468 -5.4536257 10.782284 -17.644905 -13.325614 4.302849 4.71358 14.121089 -2.3100765 -18.179787 -27.766668 -12.881301 1.7660291 -7.144717 -11.670605 -6.521781 16.043324 5.1471477 20.774532 -1.3234011 13.150963 13.273675 -16.755371 -13.918381 -14.2009535 5.4483495 -0.13696347 -7.1780977 -3.8136828 11.354082 -9.73767 -3.3695312 -1.0947497 -6.056727 8.5092745 -5.714355 17.521118 -0.5227335 12.103381 -2.48814 8.880123 15.943252 6.6923113 -4.6052065 8.825877 7.3216424 3.0409904 26.014036 4.381325 3.2452815 1.9449794 -5.6100993 6.5237365 -0.917357 9.4189205 5.5565186 10.384434 12.910028 -4.69476 -3.5849147 1.273738 13.957187 6.3707457 6.581948 0.9617142 6.5195756 6.5375605 -24.176289 -20.034239 14.944327 14.649008 -6.4881096 -8.279113 -0.34207562 -10.105785 14.111091 0.9399789 0.40880713 3.6757202 10.478591 -4.358782 -1.1911222 -1.625047 2.2096946 -1.3281146 -10.691584 -5.686794 1.4288117 2.5350208 -14.154193 3.9724016 1.8601767 -3.0005167 -0.6777014 3.5427356 -0.2830873 4.1381683 -11.653179 8.700624 7.153773 -2.2923958 5.7746334 14.462033 -6.8173814 16.569796 -12.538766 -14.975763 -1.2507352 -0.9550855 -13.434566 -5.5787983 -12.27936 4.518621 18.993212 -10.800556 0.4944139 -0.55212486 10.765637 19.83513 20.159723 -13.094824 -12.3882675 -10.962609 21.31776 -6.281137 0.2810078 -4.318153 13.045188 4.4599977 -4.86912 8.498758 -2.7263362 -4.621978 5.159925 2.1043835 4.0541797 -12.203853 -3.5658092 -14.197849 2.726519 2.4272509 2.0826468 13.08138 -3.4844854 3.6046782 -1.8746563 8.825456 15.208949 -7.1296325 -0.5367893 -14.536133 -18.236286 -5.342154 -4.063509 -4.424143 -6.512035 22.761633 7.189985 -6.036444 10.716226 1.5989144 1.3657877 7.005411 -17.273527 7.2907066 1.9002478 -13.700245 -0.69813305 5.5554247 0.61198485 11.256431 2.4647186 1.3286921 1.2392508 -0.39492625 -4.5596766 -13.590664 -2.701031 15.152303 -11.887993 -4.2366176 -15.795068 0.009174874 10.413271 11.090595 10.088245 11.089225 2.815885 7.259522 4.16321 -7.041624 18.80548 -8.110051 7.8031588 0.40933004 -9.787891 16.334902 -1.5033747 10.339763 -9.551777 -6.1193657 1.0332323 17.643368 -0.9836736 -6.763164 -1.3622173 0.7694204 23.686815 4.319176 11.252826 10.633581 14.418187 11.756062 1.580376 2.4997437 5.039586 9.434356 -2.221494 -16.159168 21.368202 -11.362566 -1.4836513 5.8919606 1.1618634 7.009529 17.097097 -6.313023 13.746328 11.011912 5.488451 -7.6665673 -3.592922
always 3.3533325 -2.0414348 3.1130235 1.1181504 2.1852643 -3.0680428 1.6324581 1.6248612 -1.6639962 -2.6341238 -2.5478525 0.3117374 -0.5480079 0.10694294 -0.16941345 2.0982516 -1.5679463 0.9917098 -0.24093711 -2.1673195 -2.264419 0.78344584 1.4558153 2.640276 3.4639208 3.7476532 -1.9953054 -3.1775444 -0.16885199 -0.1501056 1.7313201 -1.0994223 2.3817818 1.199992 -1.7443295 -0.22596899 -0.22094832 1.7835692 1.4727108 0.21411254 1.5094151 3.2749426 0.9111494 -2.1411219 -2.0375354 2.7338336 -0.5435697 1.3182635 1.2043437 -0.77070755 0.4015116 -2.4265819 -0.6502856 -0.2219693 -0.20287712 -0.013307862 2.2448816 -2.3275115 0.026160331 -0.8885698 1.1289247 -0.20166655 -1.049152 0.3293229 -3.2763038 -1.3269217 -4.537611 -0.1616543 0.42222992 -1.5142531 0.054214135 1.635884 1.9355181 -0.57991326 -0.79643464 -3.3279383 -1.1241368 0.38351867 -0.2521299 -2.6909997 0.4816691 0.34874928 -3.4886796 -1.6587802 0.8686675 0.18323241 -2.32101 1.7754418 2.1986122 0.07565074 1.8253239 0.05483916 -1.9000261 0.52342325 -1.219995 -0.11335703 1.6547718 3.125863 -0.90619004 -0.7298176 0.04288894 -1.2842541 -0.34995353 -0.1280444 0.1575553 1.6867976 -1.3773645 0.87271476 0.68679583 -1.2631122 -1.8786399 0.8851538 -2.8439095 -0.008485449 2.090637 -0.25979245 0.58369195 1.3666327 0.9477456 -1.9183625 -0.2193115 1.5043896 1.6499107 1.3487968 -1.5612742 0.8757062 -2.042239 -1.4445918 1.0321765 0.38329387 -1.2401894 -1.7735064 2.922208 -3.0218842 -0.60774815 -1.1844974 -0.68212944 3.7867553 1.5785943 -2.9748898 -2.3722858 -0.10722684 -1.4809899 0.40638912 1.3548005 -2.328693 -2.2889414 0.95611405 -0.23602471 0.8012236 1.486099 1.2365471 -1.7805048 0.30330306 3.5110314 -3.8834991 -0.26704815 0.26229462 -1.2448385 -2.1618824 2.0252032 0.11878256 -0.1520651 1.8345767 -0.15273209 -0.25969383 1.4937094 0.013772941 0.052210324 -2.0217052 -0.49428436 1.9287304 0.7760174 -0.3073013 0.10685886 1.7004459 -2.6188831 0.7732952 2.3333278 -2.66223 -4.0680056 1.3520545 -0.6361866 -2.5982714 -2.6996508 1.7010652 1.456063 -0.5785071 -0.17350584 0.9015834 0.4759038 -0.21076405 -0.36552155 0.47070843 -0.08052079 -0.9192523 -0.22602168 -2.3617613 -1.648295 -2.2531617 -1.181286 0.4095189 0.058504805 -0.8642769 -1.1912007 -1.4417328 0.1430386 -0.14683972 0.10632695 -2.3560712 -3.5006516 0.5894161 0.4042441 0.67861557 -3.3115284 1.1334722 0.24294572 0.21290906 -1.6150334 -2.3432026 1.7775453 -2.727458 1.9223955 1.6870418 1.4310937 2.377815 0.3595257 -2.3111453 1.0880488 -1.5292807 -1.1919148 1.1749786 -1.4650409 -0.7799077 1.7123674 2.253725 -1.4474224 -0.59599626 1.4934444 0.30339846 -0.7547471 -1.0454428 -0.5807247 -0.089774996 0.97605133 -1.6350602 -0.8361995 -0.06736356 2.7109454 0.83424944 -1.0224595 2.0188127 -1.1499602 0.5396546 1.2076662 -0.72772324 1.6975901 0.07091125 0.4066855 -0.7469444 2.3954735 -1.2103211 1.5439746 -1.0208431 2.7221072 1.9627676 -0.87148714 2.8227665 1.3233579 -0.6391105 1.4940056 -2.9917698 -1.8026402 0.5040388 0.7357996 2.5977027 -0.05408773 -2.4387586 -4.2285438 -2.3799155 0.054109875 -0.7855795 -1.5859716 -1.1839651 2.4155898 1.3365828 2.8768787 0.28326568 1.903859 1.7627375 -2.888642 -2.0113575 -1.7538803 0.5728745 -0.15470093 -1.5652015 -0.6296476 1.9861432 -1.4703624 -0.65627253 -0.5404077 -0.6566434 1.4518274 -0.6912775 2.7036097 -0.09532071 1.7193147 -0.39161995 1.3107772 2.0926054 0.65687907 -0.38194928 1.8485686 1.5209836 0.6920574 4.4890294 1.1337787 0.4127202 0.25390035 -1.2220731 0.5664002 -0.20723352 2.0130427 1.1844751 1.7097844 1.836966 -0.8854221 -0.41390783 0.08682394 1.9176159 0.6777442 0.91174245 0.023252338 1.4871961 1.122779 -4.1097884 -2.9621997 2.4709032 1.8540123 -1.1612654 -1.653645 -0.52215964 -1.259224 2.49625 0.46185666 0.18756832 0.7648822 1.4021087 -0.78042966 -0.32821873 -0.5340697 0.041023575 -0.24683715 -1.5980929 -0.62780267 0.42076725 0.6732258 -2.4131458 0.80939806 0.122222185 -0.5468891 -0.020611677 0.57139355 -0.19118683 0.7144974 -1.6638769 1.141454 1.4385978 -0.0026763855 0.68550307 2.6092699 -1.3098071 2.8317416 -2.5201142 -2.4589913 0.16863318 -0.67032987 -2.716022 -0.77780575 -2.5214474 0.48099115 3.1455743 -1.647805 0.27161434 0.31957674 1.2220054 3.29257 3.626466 -2.019168 -2.2999852 -1.3710785 3.140592 -1.1384035 0.31553128 -0.5148273 2.4446974 1.0026467 -1.3237468 1.6205003 -0.6528082 -0.43553188 1.2563863 -0.009597785 1.0486503 -2.251179 -0.491542 -2.070345 0.64040947 0.14260772 0.35011938 1.7331624 -0.95216125 0.46311653 -0.36971924 1.4012517 2.316578 -1.5939142 0.45165774 -2.4835916 -3.2672818 -0.9977501 -0.154075 -0.21956593 -1.3791435 3.723929 1.4921018 -0.85781246 1.952294 0.41604894 0.2374214 1.554775 -3.1252372 0.6299829 0.0042426363 -2.6708846 -0.29286158 0.7300401 -0.18024115 1.6187261 0.52618396 0.24630877 0.17488389 -0.15643084 -0.8689434 -2.6590703 -0.20823634 2.5855734 -1.6604848 -1.190084 -1.9652382 -0.1799456 1.9525322 2.2996624 1.489848 1.4041258 0.23213866 1.4356203 1.1296893 -1.2820641 2.6227446 -1.3016845 1.4724189 -0.34191868 -1.9155385 2.5844057 -0.6901116 1.6780021 -1.9666301 -0.51608205 0.1922199 3.2016203 0.2802872 -1.2872882 -0.21065867 0.67159677 4.101138 0.7938102 1.3011563 2.060451 2.600925 2.1306462 -0.1812223 0.23076591 1.1810076 0.96590614 0.13736604 -2.9209545 3.8180897 -1.9080178 0.110928036 0.53985214 -0.17222531 1.1086051 3.1522694 -1.3551122 1.8055086 1.9783576 0.8632574 -0.92302614 -0.76200145
an 5.5940228 -3.5715096 5.3968706 1.6963834 5.1832943 -6.786956 2.37575 3.1757321 -2.1701171 -4.753612 -4.9252696 1.4147247 -0.78316694 -0.41298172 -0.30448145 3.3481588 -3.124933 0.81570953 -0.016687311 -4.779701 -4.553978 0.23746644 1.9687917 4.3693495 8.146812 6.949844 -5.1656995 -7.1380105 0.074024096 -0.8831577 4.3116493 -1.2323657 4.403989 1.5186903 -4.22693 0.36151445 -1.1897608 3.754554 2.8660405 -0.57789415 2.6927886 6.9002557 1.7779841 -4.729572 -4.583503 4.1593137 -2.1818979 2.0706482 2.993321 -0.71700406 0.41837087 -4.120373 -1.3201709 -0.3514991 0.5005255 0.43834707 3.5571268 -5.21606 1.2440971 -2.4282963 3.0342643 -1.3277272 -2.5779269 -0.16602704 -6.9922457 -2.9416368 -9.20785 -0.42327222 1.8144746 -2.3452954 -0.62421465 3.267369 3.3249316 -1.3266972 -0.2615938 -7.206088 -2.524653 0.6936151 0.3082346 -5.12253 1.2228608 0.07404009 -6.412523 -3.9494305 2.7419782 0.96717316 -4.222243 3.0188122 3.5647445 0.007974343 3.6664996 0.96304125 -2.968338 0.59424144 -1.9947408 -1.1231444 3.4709415 7.974088 -1.4784354 -2.0419664 -0.52023625 -1.844184 -0.53173774 0.022067245 -0.44051418 2.3800325 -2.3959198 2.0054862 -0.014062293 -1.6518865 -4.5963564 0.9898705 -5.2322702 0.27617642 4.3217697 0.15663564 1.9890933 1.8793654 1.760238 -4.4205494 -0.17012991 3.1204808 3.7250633 2.269028 -2.8095315 0.5102325 -3.751055 -2.3894155 2.2129924 1.5774714 -2.4904816 -4.465545 5.4634705 -6.479347 -0.75085104 -2.3946507 -2.5594099 7.639897 4.134012 -6.7184315 -3.6521387 -0.07268707 -3.8856406 0.0028917931 3.5590034 -5.9161615 -4.387338 2.3219018 -1.7985787 0.9434636 2.3420029 3.4626727 -4.4475875 1.3117112 7.045292 -8.421207 -0.20540105 1.1997658 -2.1225185 -5.047244 3.9940639 -0.74661845 0.4312215 2.7549527 0.29036918 -1.5493268 2.0951345 0.7545363 -0.4629061 -5.5332313 0.18291761 3.058639 2.6936352 0.33618972 1.0179167 2.2803407 -5.511519 1.2625138 5.0158997 -6.804435 -9.5049095 2.5537288 -2.0249436 -4.003566 -5.634748 4.2091556 3.4335046 -1.1667333 0.6747707 2.4891477 -0.1509102 -0.52613175 -0.525915 1.1751281 -0.17390156 -1.4873674 -0.34122458 -6.0181394 -3.5288982 -4.6156487 -2.2128801 -0.47381052 1.2758948 -1.2440637 -2.7920318 -2.5588248 -0.97403765 -0.164054 1.1539237 -5.9684815 -7.872577 1.4413123 1.328689 0.98270065 -6.097362 1.0902765 -0.09837943 -0.12264929 -2.6533198 -3.7934976 4.2334785 -5.65946 3.469354 3.0419316 4.055989 5.112781 0.44936606 -3.7740936 1.6847782 -2.460569 -2.7604246 2.6460443 -2.5912342 -0.65883875 4.370072 5.0236387 -2.2602365 -1.8547442 2.3316708 0.4253464 -0.76714164 -1.5271033 -1.4097487 -0.6699573 2.1937122 -4.002948 -1.1450733 0.5572323 5.661996 0.4974189 -2.565431 4.180447 -2.2537367 1.4302088 2.4521527 -0.5111149 2.565349 0.27902767 0.7140428 -1.12396 3.9740818 -2.627539 3.307047 -1.703553 6.1955037 3.728658 -2.4272563 6.1861567 3.0707827 -1.8604821 3.3264306 -6.2049975 -4.047408 1.2742404 1.3943857 4.5282226 -1.1998683 -6.057815 -9.590499 -4.1354527 0.8942747 -2.4298723 -3.8443265 -2.4394197 5.610962 1.9834328 6.7859845 -0.15461116 3.966367 4.1587706 -5.8736286 -4.102875 -4.5323215 2.1579442 0.3698112 -2.377862 -1.0618879 4.032363 -3.5352867 -1.0107408 -0.5605949 -2.3522444 2.4218826 -1.6319295 5.817204 0.34494692 3.8871906 -1.0729839 2.9005344 4.778136 2.1891832 -1.9768583 2.371908 2.8774798 0.7925565 8.460193 1.3958778 1.3029279 0.23997246 -1.643578 1.991366 -0.7126839 3.012208 1.9093755 4.0090156 4.369295 -1.7922739 -1.6614603 0.053915925 4.78102 2.4848318 1.6289084 0.48007333 2.264283 2.1803048 -8.329683 -6.7647085 5.0296474 5.114927 -2.586551 -2.4530776 0.30039656 -3.6654718 4.4517465 0.62206924 0.3850965 0.86090434 3.9475603 -1.7219281 -0.42700052 -0.6350717 0.7964265 -0.88706976 -3.1586552 -1.4048809 0.7959748 1.1937928 -5.005647 1.424076 0.42467198 -0.92452985 -0.63981515 0.9687294 0.23966825 1.4498935 -3.3924856 2.958145 2.5175214 -0.37055635 2.2666707 4.8641276 -2.581947 5.257641 -4.6466074 -5.3567753 -0.12663847 -0.9018312 -4.7594647 -2.0004969 -3.9471886 1.0584202 6.352958 -3.6908548 0.63859093 0.06575643 3.0797462 6.519852 6.4900064 -4.5799565 -3.5744252 -3.6646423 6.693415 -2.2736795 0.57881516 -0.8636796 4.4690967 1.7082787 -1.4560232 3.0592325 -1.2106138 -1.3315777 1.6262058 0.84272796 1.4706233 -3.886282 -1.4405016 -4.707662 0.6841132 0.90577435 1.2524147 3.7638407 -0.8615118 1.243182 -0.3007207 2.4983904 5.179753 -2.9595084 -0.21955137 -4.6064754 -5.8673697 -1.4009404 -1.5327959 -1.6242074 -2.7308648 7.0524297 2.5209718 -1.924221 3.841097 0.95874107 0.57334083 2.7828653 -6.140353 2.0470552 0.457665 -4.937718 -0.554015 1.4588776 0.4446417 3.7727482 0.32810536 1.0211939 0.731519 -0.38025668 -1.4449152 -4.5313773 -1.0785004 5.089569 -4.4044347 -1.1515265 -4.7535706 0.10826585 3.4409719 3.3889866 3.0536969 3.989636 1.2125354 2.6470525 1.3599346 -2.05202 5.6794257 -2.2538605 2.8715408 -0.24562028 -3.3001935 5.6124344 -0.5004367 3.5427504 -3.3601663 -2.1279066 0.43659905 6.0961113 -0.58162314 -2.577903 -0.9920912 -0.039482296 7.65996 1.4107573 3.8673618 3.5268388 4.5576835 4.226318 0.3578134 1.3265098 1.1245105 2.7916582 -0.9382925 -4.9110417 7.3228188 -4.237427 -0.034520507 1.7515836 0.5403711 2.5777538 5.33548 -2.5639293 4.42571 3.709351 1.7186232 -2.505239 -1.7208302
and 38.109665 -23.840742 35.737457 11.797135 35.073303 -42.331333 15.509497 22.672426 -17.42336 -33.60366 -33.350937 10.543846 -5.5261955 -5.2312765 -1.1865038 23.109539 -19.260311 7.0337677 -2.6066906 -31.555838 -27.795681 4.464434 15.312934 30.248112 53.45998 47.205482 -31.381681 -46.024834 1.7949424 -6.957981 27.321857 -11.094218 32.353462 11.70852 -24.731792 0.5053958 -10.23974 22.180836 20.177044 -1.8051993 20.386015 47.828304 12.535514 -29.41746 -33.84074 30.88262 -13.608408 15.968614 16.909157 -3.9852238 3.95118 -26.279497 -8.629621 0.7857095 4.1715913 2.2790394 26.173944 -32.113472 6.0670686 -13.287755 19.98403 -8.612855 -19.330801 -0.6183324 -44.352238 -20.603844 -58.957302 -1.1045735 11.54233 -15.0112 -1.2090945 21.451363 23.81722 -10.241128 -3.8425846 -44.308403 -17.320784 4.0281057 -0.46668613 -31.232178 10.335563 2.451652 -40.6064 -27.663677 17.119837 5.756521 -28.949081 18.198835 25.74114 -0.028526539 27.34367 6.8418603 -21.509651 2.1875427 -13.684575 -6.7553043 20.26611 48.967842 -9.476508 -13.01329 -1.6918774 -12.657101 -4.8801117 0.9221267 -1.3817542 16.055176 -14.148766 16.2536 2.5926561 -11.068757 -31.038105 6.657 -38.05789 -0.37656066 30.509762 -2.1467786 10.621123 12.4389 10.875817 -31.396791 -3.0231996 23.842916 23.664286 12.812191 -17.637068 4.8869367 -26.765877 -15.228061 17.606413 12.013215 -13.488873 -27.00838 38.550514 -42.30832 -6.8990273 -17.452272 -14.416371 48.706524 26.957249 -41.998455 -25.821596 -2.3572018 -27.112816 0.58527076 20.925732 -35.782238 -28.218538 14.017812 -10.366014 9.047174 14.645727 21.524399 -28.344168 7.324138 49.370476 -57.12354 0.986448 6.9368367 -13.132115 -32.234074 26.552982 -3.8918743 0.196075 21.38188 3.4630063 -7.41495 14.312053 3.2918303 -0.45915046 -33.616753 -2.133079 20.68108 15.233378 1.845891 3.9898293 17.540594 -33.365368 10.240929 35.21547 -42.279526 -60.875137 15.83252 -11.467276 -28.430204 -39.562332 28.257666 24.65601 -9.1521 4.0160127 18.340385 1.7880225 -2.4157176 -4.249705 10.466333 -3.5681014 -11.944181 -4.880168 -37.801804 -21.64267 -32.46525 -13.963927 -0.8049647 5.321832 -8.116247 -17.234678 -19.71534 -5.223918 0.51134825 5.90916 -37.690765 -51.29456 7.820935 11.495652 5.2096024 -40.86037 9.993108 -2.642343 -2.2709968 -20.412392 -26.74639 27.352358 -36.64546 20.535698 19.363857 25.839285 33.70445 1.7388905 -27.786882 12.6701975 -17.805477 -18.318554 20.365925 -19.499012 -4.7832336 26.999683 36.39995 -16.885881 -12.806581 13.882416 4.649432 -8.019575 -11.801063 -7.2606473 -4.317363 16.022106 -28.01646 -5.451775 4.0592175 38.35839 4.802484 -18.649164 29.06484 -11.792034 8.945149 14.258889 -6.9487658 19.791721 0.4524061 5.7307434 -7.74128 26.776384 -15.535307 19.882915 -8.912045 42.666225 24.915731 -17.63137 39.89721 20.341782 -12.319925 23.214373 -37.615902 -28.142439 9.273649 9.38071 30.861916 -5.6480002 -40.565903 -60.52578 -28.14752 3.4921355 -16.68642 -25.79697 -12.765434 35.7333 12.032245 44.14837 -2.5999022 28.463442 28.34146 -36.722427 -29.055014 -30.23539 12.27442 0.21909721 -15.796857 -6.6953254 25.136822 -19.948906 -6.8219104 -2.4235313 -13.7330475 16.78972 -12.3930235 36.933296 -0.7548689 25.735825 -5.0028887 19.126833 34.176357 14.128341 -10.238177 18.181385 16.594225 7.583687 57.287983 9.2166195 6.7927117 3.1823056 -12.877718 14.3182955 -2.5652156 21.256481 12.841115 23.518593 27.439436 -9.870417 -7.607969 3.3686936 30.099958 14.835195 13.629805 2.0695472 13.829635 13.303773 -51.14764 -43.43176 32.69733 30.678457 -15.377652 -16.830133 -1.2033671 -21.52292 30.511538 1.0993744 1.3985627 6.298531 22.89438 -10.506907 -1.7478154 -4.0090737 4.4414926 -2.2534277 -22.100328 -11.985248 2.6725724 5.953057 -30.073088 8.791116 3.24082 -4.919469 -2.1218271 8.308378 -0.6265498 8.312165 -23.716549 18.579706 15.397563 -4.4625816 12.151973 31.96869 -13.70622 36.24358 -27.805754 -32.637825 -3.6925569 -3.2252276 -29.793938 -12.891044 -27.876106 9.371332 40.470325 -23.50146 2.2013395 -0.0810825 22.788647 42.876743 44.16257 -28.916555 -25.929724 -22.838917 46.54346 -14.047518 0.62899876 -8.412478 28.814852 9.833224 -10.467621 18.338974 -5.565946 -10.172132 10.942568 3.8364723 8.366047 -27.406406 -7.30242 -30.474215 4.397327 5.6119585 5.7771697 27.758766 -7.775027 7.6953936 -5.0896177 18.06212 33.67352 -16.751606 0.1725477 -29.844458 -40.14355 -10.697484 -7.47494 -8.480846 -15.409033 48.766056 15.368922 -12.048925 24.340021 4.118197 2.315772 15.957921 -38.633034 15.259953 4.838642 -30.32788 -0.10919408 12.967181 2.6180289 23.565548 4.313801 3.8465693 2.018153 -0.8302764 -10.199631 -29.872519 -5.2845774 33.19929 -25.975237 -9.206021 -33.44088 -1.1258272 23.060627 24.633404 22.98239 22.866837 5.8747835 16.054506 9.720746 -14.710051 39.764175 -18.241343 16.399343 1.3495556 -21.554998 34.75667 -4.2335534 22.15033 -19.938223 -13.678583 1.9385276 37.699398 -1.893144 -14.340508 -3.793522 2.7223542 52.144207 9.013868 23.600988 22.90087 30.947437 25.71749 3.8054192 5.855211 10.642744 19.439785 -4.2076287 -35.070335 45.655617 -24.88743 -2.5685074 13.698477 2.7159612 16.105408 37.48513 -13.929281 29.32436 23.064993 10.637535 -16.888441 -8.384611
another 5.078378 -3.7443364 5.0902576 1.5598278 4.7944937 -5.4018307 1.9446045 3.0727563 -2.0941355 -5.0806847 -4.9986043 1.3989744 -0.45981592 -0.43264008 0.3261052 3.426472 -2.8760824 0.9873564 -0.42058912 -4.924911 -3.6532996 1.0456403 1.8017886 4.497377 7.805576 6.0440755 -3.8646998 -6.383904 0.23652875 -1.00084 3.3515844 -1.3405455 4.656713 1.2188662 -3.272946 0.10338476 -1.4827149 3.2208457 3.046056 0.10557911 2.7153244 6.1653395 1.9870526 -4.274867 -4.8780413 4.127954 -2.116225 2.2746258 2.3351762 -0.72533363 0.636678 -3.2873535 -1.4518867 0.06419486 0.24105401 0.28902152 3.350901 -4.3916774 0.41751948 -1.8294194 2.6433432 -0.81020725 -2.5342333 -0.5961141 -6.4103703 -2.4858494 -8.586028 -0.12865679 1.7595007 -1.9062823 -0.068210214 3.2898242 3.3183131 -1.3906964 -0.59951955 -6.348306 -1.9779116 0.80290353 -0.10661506 -4.854556 1.758895 0.3463586 -5.907083 -3.5899632 2.2817078 0.7472669 -3.7619212 2.0290232 3.553623 -0.195883 4.1987357 1.3842161 -3.1141515 0.624687 -1.3597441 -0.97417814 2.6766236 6.752966 -1.7116855 -1.8013281 0.17441332 -2.0022144 -0.6596111 -0.31289598 -0.06731232 2.0081916 -1.6297497 2.666657 0.3703041 -1.5524979 -4.661005 0.80982304 -5.200374 -0.18210548 4.522234 -0.35932004 1.6298103 1.6391389 1.7155857 -4.355696 -0.89323044 3.740736 2.890244 2.0929995 -2.2532291 1.1521394 -3.6866689 -1.9780464 2.2512138 1.1593088 -1.723075 -4.151397 5.448497 -5.6127367 -1.5296472 -2.375594 -1.6763732 6.385904 4.0561976 -6.2874565 -3.8449173 -0.16021244 -4.18076 -0.38295466 2.5372477 -4.602555 -3.801492 1.8228929 -0.94981176 1.6710858 1.9439915 3.3822355 -3.9881244 1.4407691 7.260859 -7.7815547 0.31119788 1.4275017 -1.4792978 -4.2183022 3.3914437 -0.6652683 0.2524231 3.0783095 0.7918369 -0.7847315 1.7343892 0.40613785 -0.20435727 -5.087078 -0.4438405 2.7804282 1.849988 0.34377348 0.86325103 1.9151015 -4.2136188 1.1592062 4.771935 -5.562969 -8.773493 2.2573056 -1.8744478 -4.016691 -5.148397 3.5709455 3.0479171 -1.427014 0.66643703 2.516825 0.26235574 0.057016626 -0.6507987 1.1106408 -0.25949964 -1.1841699 -0.56585664 -4.7952213 -2.916725 -4.624125 -1.6234895 0.105078 0.59220463 -1.5574186 -2.5759819 -3.0523777 -0.65613055 -0.1495553 0.4064903 -4.9189954 -7.1857233 1.0136007 1.770711 1.0825672 -5.20391 1.6057994 -0.3575616 -0.050650455 -3.189001 -3.8180902 3.9671714 -5.0768023 2.6253912 2.4403267 3.4959252 4.6322374 0.69691217 -4.114974 1.3601854 -2.9765534 -2.5832977 2.5239224 -2.571583 -0.680333 3.3453536 5.325574 -1.964592 -1.6772819 1.8022484 0.5832945 -0.6690062 -2.0933247 -0.48634663 -0.17099935 2.6756365 -3.5765536 -1.145835 0.42720324 5.6964054 0.30632657 -2.8637831 3.6931121 -1.9097179 0.8424196 1.8712072 -0.76191014 2.5085166 -0.1604683 1.1783493 -0.95323056 3.769687 -2.366562 2.5977576 -1.0913442 6.18138 3.9510868 -2.778261 5.1173105 3.158687 -1.5090905 2.8446178 -5.3599153 -3.5611892 0.867977 1.7535541 4.5515676 -0.35524896 -5.787291 -8.66125 -4.0810976 0.47023356 -2.3007264 -3.8350353 -1.9441231 5.2988806 1.4110035 5.6691856 0.08339453 3.511201 4.3921194 -5.104515 -3.8488386 -3.8178432 2.179587 -0.41570616 -2.0901363 -0.84369254 3.2753258 -2.9815772 -0.7837183 -0.41313544 -1.6780651 2.8200104 -1.6800847 5.095094 0.097131155 3.7183208 -1.1220642 3.1022394 5.295065 2.3217905 -1.1974249 2.2410638 2.3504467 0.50066245 7.502767 0.8485347 0.501461 0.8328092 -1.7096603 1.5038201 -0.24101828 2.8681457 1.7424341 3.533145 4.0783124 -1.8501501 -0.9705024 0.40376556 4.1306624 1.7252616 2.2952464 0.27029592 1.7492818 1.8146178 -6.8540034 -5.7525215 4.1245065 4.0267158 -2.3137372 -2.69375 -0.6112539 -2.4573503 4.1504536 -0.3218861 0.1416954 0.5525842 3.5034876 -1.3335197 -0.3282223 -0.17641395 0.64074564 0.019447159 -3.2478654 -1.7699283 0.12933627 0.87328523 -4.1707244 0.8916977 0.7167599 -0.6363453 -0.24752568 1.3587967 -0.045916088 1.6351544 -3.7605853 2.5918305 2.2552729 -1.1295767 2.1609583 4.678477 -2.429311 5.49334 -3.9674873 -4.218673 -0.22188084 -0.16234998 -3.8583524 -2.1006157 -3.4671352 0.9247982 5.943437 -3.162761 0.64088714 -0.06085533 2.9896169 6.257315 5.6068377 -4.386045 -3.2402802 -3.2301772 6.1113806 -2.3610308 -0.10181744 -1.3047988 3.6788769 1.430148 -1.4869221 2.0151443 -1.3053774 -1.2109655 1.4779848 0.12575452 1.4325504 -3.903159 -1.1004283 -4.108396 0.773916 0.37193394 0.4226403 3.7341306 -0.9204037 1.0404118 -0.6264368 2.0797048 4.2011857 -1.8911622 -0.009278081 -4.2089844 -5.5831995 -1.3724635 -0.9287379 -1.5469037 -1.7250476 6.6329374 2.2875032 -2.2036014 3.2189767 0.71517396 -0.033935875 2.0075758 -5.1065545 2.0824792 0.8319781 -4.621143 -0.012995908 1.4951292 0.37721065 3.7313166 0.93438923 0.2282795 0.4558571 0.25677872 -1.8548039 -4.380125 -0.7942983 4.4034476 -4.0316567 -1.7003583 -4.930671 0.03916253 2.9549513 3.3346722 3.3415856 2.993858 1.0649861 2.266022 1.4075682 -1.9259771 5.686296 -2.169041 2.1188552 0.5652683 -3.2269692 4.434176 -0.6244662 3.46524 -2.7964246 -1.903737 0.16829024 5.5123615 -0.04181353 -1.7494252 -0.5884033 0.1506354 7.3521733 1.2784053 3.2195082 2.6225424 4.085337 3.2559571 0.9309072 0.6508371 1.019291 2.6345797 -0.8087927 -4.80173 6.22309 -3.0607774 -0.39674202 1.6625044 0.91919476 1.8315865 4.8757114 -1.7383997 3.7579908 3.616008 1.7370162 -2.226532 -1.3134035
any 6.4350753 -3.6634994 5.832409 2.4653032 6.363413 -6.727663 2.3795056 3.5670376 -2.410405 -5.8176494 -5.8805814 1.9245102 -1.3740469 -0.5693927 -0.017411502 3.8112457 -3.3958204 1.6108977 -0.7686876 -5.035653 -4.543851 0.512614 2.670831 5.379322 9.492113 8.063731 -5.601615 -8.121266 0.25785512 -0.8523047 4.479028 -1.5540458 5.22934 1.8524343 -3.6914515 -0.3538337 -2.0677853 3.8296986 3.7354157 -0.23329307 3.1386182 8.4102745 2.1222963 -4.5750484 -5.4450192 5.0047913 -2.314904 2.1439571 3.0219667 -0.73913246 0.47748047 -4.2371373 -1.9697638 0.5060816 0.9563338 0.72500205 4.778035 -5.1439195 0.9985311 -2.2120078 3.8040938 -1.7174734 -3.4791424 -0.0063885134 -7.8454714 -3.290829 -10.362781 -0.17229526 2.193972 -2.9417326 0.24224204 4.1554666 4.1363916 -1.7532827 -0.9725075 -7.487209 -2.533519 1.079958 0.37615624 -5.730394 1.9714968 0.9584614 -6.5827866 -4.9844456 2.7978768 0.59264255 -4.820449 3.1720216 4.688627 0.040749557 5.0555873 1.3683252 -3.4520292 0.8434321 -1.9907632 -1.5735173 3.7319243 8.488384 -2.0661163 -1.8725966 -0.07625845 -1.7022587 -0.90255934 0.1777635 0.21393618 2.3641863 -1.988438 2.7487984 0.19077575 -1.5612785 -5.664977 1.3490319 -6.4609823 -0.45333403 5.4918914 -0.08341215 1.2449813 2.4457085 1.8890785 -5.0102043 -0.6116688 4.2884364 3.5647771 1.9272182 -3.272446 1.3366615 -4.767607 -2.860746 3.1111763 1.4959565 -2.539146 -4.107322 6.053973 -7.4092994 -0.8585373 -2.8537464 -2.3729396 8.295479 4.491732 -7.2790413 -4.2488875 -0.85020417 -4.721757 -0.3357725 3.472244 -6.4377112 -4.216928 2.2675407 -1.5160112 1.5051273 2.219969 3.2795916 -4.6259522 0.97496796 8.058364 -9.152786 0.3854477 1.2701135 -2.332953 -4.905456 4.4405 -0.885907 -0.5187329 3.5458438 0.25147727 -0.9632487 2.7921665 0.51973206 -0.022292046 -6.109566 -0.6194492 3.7223518 2.2635062 0.22506289 0.9743051 3.2056127 -5.156706 1.3492786 6.208022 -6.58815 -9.737864 2.6791193 -1.6564406 -4.8340187 -6.9637747 4.393879 4.275211 -1.8769243 0.67514586 2.8948774 0.29982817 -0.81845343 -1.1171807 1.8804619 -0.9450093 -2.3134146 -0.28171873 -5.908247 -3.529316 -5.733021 -2.7554812 -0.54823977 1.0018225 -1.1860678 -3.4302154 -2.9817648 -0.3124013 0.36594567 0.5271267 -6.1228743 -8.626673 1.7038786 1.8134419 1.0389674 -6.3155584 1.3757415 -0.3520496 0.0145323 -3.9039953 -4.771259 4.6485243 -6.368858 3.1810863 2.7477424 4.4261885 6.1266513 0.45766488 -4.5632877 1.6597264 -3.3146813 -3.1446993 3.283626 -3.57706 -0.5524064 3.9991426 5.769213 -2.9201214 -2.629224 2.1347687 1.1473962 -0.955181 -1.5662258 -1.1240586 -1.0663493 2.9935145 -4.424936 -0.5649049 0.5766148 6.7488513 0.38741028 -3.3400292 5.2981987 -2.4586046 1.8630288 2.5573773 -0.93700683 2.935329 0.0034577923 1.0701697 -1.1261225 4.1040964 -2.4562716 3.6837037 -1.134858 7.2954865 4.047205 -2.6875596 6.275133 3.6034012 -2.0168061 4.3517485 -6.055647 -4.579941 2.0101242 1.5948783 5.029696 -0.93893874 -6.628414 -10.341689 -4.956606 0.9702072 -2.3354735 -3.9429095 -1.9057891 5.915728 1.4801401 7.2453794 -0.1958777 4.6323695 4.642109 -6.1654353 -4.7586746 -4.9666305 2.4214222 -0.29550105 -2.3530016 -1.548378 4.604359 -3.272523 -0.9462738 -0.61152977 -2.468996 2.8843718 -2.1701193 6.0578823 -0.447134 4.054297 -0.2484999 3.6093993 5.35613 2.5746837 -1.989094 2.9613752 2.683681 1.647014 9.2465515 1.5377513 1.1051482 0.78320843 -2.2129614 1.9220712 -0.62337583 3.1038141 2.2886915 3.9023566 4.8038387 -1.78517 -1.7196511 0.3803318 5.1922407 2.8258543 2.4733853 0.49268165 2.048318 2.0007722 -8.82549 -7.139279 5.096422 4.968581 -2.5026207 -3.2981884 -0.089587845 -3.9987218 5.280812 -0.3161276 0.2882943 1.2464116 3.7696707 -2.1320753 -0.51874727 -0.44236565 0.24242951 -0.4842558 -3.7633212 -1.9418151 0.10284361 1.2340374 -4.6369944 1.4704779 0.27627355 -0.80523336 -0.075805664 1.829629 0.09801403 1.1356231 -3.845369 2.638202 2.7708337 -1.1481477 1.6044348 4.7668147 -2.2516823 6.472945 -4.698443 -5.359797 -0.72420233 0.011957007 -5.206431 -2.503492 -4.4587383 2.017753 7.0828333 -4.1035404 0.24454796 0.24759507 4.1764946 6.978184 7.2310977 -4.4599886 -4.311879 -4.0182877 7.784245 -2.8048174 -0.21191405 -1.51251 4.8408003 1.1368793 -1.3478478 2.5782325 -0.93073356 -1.3491278 2.056017 0.4349012 1.7057511 -4.1191087 -0.7466244 -5.034595 0.4860757 1.4372535 0.65531546 4.4120035 -1.6132263 1.0566391 -1.042057 3.5041523 5.182833 -2.9429522 -0.010302907 -4.898205 -6.8349752 -1.4100695 -0.8628177 -1.3898363 -2.4883776 8.59127 2.567126 -2.2096095 3.6770403 1.1270707 0.9301277 2.2743819 -6.050635 2.9193583 0.5580506 -5.5454307 -0.03692646 2.393619 0.50889117 3.4675112 0.86037296 0.09846795 0.6521474 -0.58031106 -1.2845906 -5.255037 -0.5935085 5.7597466 -4.716994 -1.0789967 -5.271555 -0.51348007 3.4553242 4.1602516 4.2583857 3.7451766 0.7036041 3.2018826 1.6031319 -2.7572823 6.9626074 -2.876255 2.8709884 0.5540894 -4.050603 6.071544 -0.8573761 3.8589914 -3.3429117 -1.7573122 0.46705085 6.0159707 -0.19064036 -2.7176754 -0.8167587 0.3934133 9.097811 1.3440788 4.1304736 4.151058 5.4725204 3.9089055 0.2836013 0.9200519 1.9793929 3.6345363 -1.0062376 -5.9865828 7.5057826 -3.707808 -0.690484 2.7119384 0.90489 2.7835038 6.071955 -2.1437716 5.467204 3.5607517 1.5126022 -2.8893762 -1.9167881
anything 4.5468726 -2.8542976 4.1560316 1.5106324 3.499037 -4.5291877 1.7734606 2.2679431 -2.2759678 -3.8968883 -3.2646816 0.7831847 -0.84640706 -0.8563943 -0.34561774 2.3321562 -2.416547 1.0246601 -0.035383817 -3.715474 -3.1365592 0.40294483 2.0398774 3.5332656 6.0759883 5.218064 -3.4079974 -4.9794235 0.6313522 -0.90154064 2.7564428 -1.542923 3.5934472 1.1880993 -3.0137153 -0.25933465 -1.3366791 2.381442 2.5481288 0.02357135 2.0684543 5.8145537 1.3640481 -3.681859 -4.0764904 3.4228764 -1.613305 1.9547151 1.8162273 -0.9792099 0.80825317 -2.7133012 -1.4255491 0.17706075 0.045337748 0.34562856 3.2577631 -3.2666612 1.060834 -1.2596232 1.7949346 -1.476673 -2.078845 0.031922236 -5.173241 -1.9828001 -6.3114395 -0.44234148 1.8130461 -1.8831915 -0.21925268 2.584311 2.8705087 -1.1037586 -0.67712086 -5.312622 -1.5880697 0.57120013 -0.2937272 -3.9329674 1.0462084 0.2578144 -4.5740223 -3.3386886 2.2803383 0.6464605 -2.9197817 2.1987886 3.2245748 0.2352195 3.3637178 0.23463386 -2.667112 0.39118582 -1.7973787 -0.52378494 2.4577825 5.813508 -0.71947634 -1.2525948 -0.3129995 -1.613433 -0.37865806 0.21692799 0.18857957 1.3911084 -1.4463646 1.6641502 -0.06713937 -0.97848535 -3.6366663 1.0145276 -4.0027785 -0.31273928 3.5582554 -0.68570715 1.6581316 1.11757 1.5684019 -3.3628597 -0.057615113 2.351026 2.3590198 1.3393608 -1.5604601 1.0280393 -2.5721962 -1.9537005 2.4407902 1.2525452 -1.5841964 -3.1121247 4.015219 -4.7247353 -0.9611376 -1.7398654 -1.3686496 5.3229065 2.8582065 -4.859519 -2.606437 0.04698498 -3.4889166 0.54718834 1.9974179 -3.8722942 -2.9318671 1.7070342 -1.6144677 1.2624493 2.09126 2.603272 -3.2336695 0.5422662 5.930997 -6.1280694 0.21185057 1.1185098 -1.4390564 -3.5199254 2.9750023 -0.41073948 0.36032695 2.2814438 0.3640728 -0.83104914 1.1852993 0.38630375 -0.05428217 -3.960816 -0.581684 2.609515 1.501244 0.101766296 0.76311845 2.0924668 -4.036779 1.4502257 3.5749586 -4.33312 -7.208254 1.2816954 -0.9877986 -2.8361835 -4.0412793 3.0681012 2.5390487 -0.98300344 0.30146533 1.7430025 0.62918127 -0.39437947 -0.106781475 1.5687238 -0.07459371 -0.98660815 -0.78532904 -4.7614517 -2.7335815 -3.3458455 -1.4611098 -0.23605445 0.38604915 -0.7617728 -2.325031 -2.0067854 -0.28281334 0.12527311 0.62660366 -4.5978675 -6.0543613 1.0373507 1.595301 0.41413057 -4.567621 1.5513089 -0.18631998 -0.5438634 -2.4691923 -2.827633 2.6307242 -4.2139044 2.612221 2.556495 3.244855 4.308142 0.5484983 -3.0368261 1.2450012 -1.5868487 -2.4309576 2.3746889 -2.6313596 -0.143889 2.801152 4.4784517 -2.0087354 -1.9482458 1.0390674 0.7973044 -1.373522 -0.9829786 -0.69430953 -0.878962 1.7687941 -3.1915565 -0.48367056 0.45704705 4.7991424 1.0209343 -2.104901 3.4440243 -0.9562904 1.3394496 1.7599645 -0.47709802 1.8281733 0.012570724 0.5475366 -0.8402264 3.5462198 -1.280979 2.568437 -1.37674 4.575816 2.9708135 -2.4159937 4.545918 2.7618535 -1.1676011 3.1089609 -4.6362705 -3.5020685 1.2200924 1.1551598 3.8714268 -0.21178359 -4.8489428 -6.4156165 -3.0989196 0.7863928 -1.596663 -2.7632926 -1.0281128 4.1891823 1.2745436 4.843281 -0.47496614 3.2307417 3.264703 -4.443639 -3.39698 -3.4303527 1.7903696 -0.0964397 -2.1442463 -1.2381244 2.6319752 -2.1067657 -0.7595928 0.21609865 -1.3290089 1.7977808 -1.4254634 3.773067 -0.08742165 2.8323379 -0.24282843 2.3260436 4.144035 1.9312114 -0.79630554 2.58078 1.8461053 0.87460923 6.8717256 1.4195769 0.3471555 -0.1085742 -1.6380795 1.1881609 -0.28765947 2.4127758 1.4184138 2.8281913 2.7490466 -0.8457366 -0.8193504 0.22986612 3.6679504 1.9147314 1.3353467 0.4105975 1.6475515 1.9774113 -6.152665 -4.597835 3.3364823 3.4800513 -1.415011 -2.2946048 -0.1455583 -2.0412583 3.526334 -0.11516787 -0.11970354 0.9600455 2.4724996 -1.1443866 -0.12719007 -0.65577334 0.7192293 -0.45655018 -2.931639 -1.4672071 0.7412195 0.8584919 -3.2667367 0.51642156 0.7649398 -0.15036747 -0.33879372 0.8530636 0.37443596 0.9136249 -2.8637674 1.7620565 1.5818579 -0.4922406 1.4551445 3.8237057 -1.2065719 4.2834063 -2.7484004 -4.137394 -0.5198839 0.15226412 -3.431103 -1.1055249 -3.2371666 0.8395549 4.6812572 -2.4928594 0.69873166 -0.51627755 2.4510386 4.9730463 5.482118 -3.748373 -2.4430842 -2.7705445 5.677784 -1.9393642 0.30232665 -0.88043493 2.9791925 1.5510623 -1.3723617 2.0509005 -0.39908466 -1.2602588 0.7454367 0.6607353 0.61877656 -3.504344 -1.2120906 -3.1002386 0.32510442 1.0382485 0.307136 3.4768 -1.3225223 0.5941129 -0.629171 1.8554933 4.1600766 -2.285028 -0.012735574 -3.4988697 -4.4065785 -1.5640197 -1.2951177 -0.4950112 -1.7475855 5.7648206 1.3195087 -1.0466264 2.93818 0.005031497 0.14282559 1.8554616 -3.9574926 1.9099149 0.8598566 -3.7727647 -0.07673795 1.7745953 0.052106652 3.11271 0.6297792 0.5751914 -0.23276234 -0.6271085 -1.4261823 -3.111777 -0.5681963 3.5805624 -2.6744473 -0.82244796 -3.6775863 -0.5033185 2.3617783 2.6840205 2.9159656 2.8793604 0.8887105 2.2996871 0.79069084 -1.808077 4.442889 -2.4116373 1.9883575 0.22434999 -2.1993277 3.8052716 -0.57675135 2.0265813 -2.5591285 -1.1417813 0.21153435 3.8460507 0.31268546 -1.8510276 -0.15519464 -0.12464816 5.9640465 1.5303764 2.2874527 2.8450155 3.5507047 2.6929843 0.65694356 1.0305301 1.3226215 1.7691901 -0.610923 -4.010115 5.367083 -2.7351234 -0.42803547 1.9869388 0.2568524 2.0277612 4.372217 -1.4382052 3.063146 3.0023644 0.84498376 -1.4301971 -0.76678044
are 35.661575 -21.96358 32.577755 11.704791 32.129574 -38.511036 13.745833 20.824474 -15.880377 -30.10844 -29.764605 10.119384 -4.9153175 -4.8656197 -0.7619617 21.103302 -17.900625 6.3487563 -2.936833 -28.89561 -25.528387 3.3235345 13.582832 28.357437 49.40217 42.557373 -28.479137 -41.809757 1.161923 -6.780843 24.325882 -10.142465 29.664318 10.877742 -22.252165 0.33237013 -9.105785 20.412252 18.589466 -1.4091094 18.064596 44.196457 10.782259 -26.684677 -30.088356 27.943544 -12.64423 13.813749 16.230875 -3.8393497 3.774343 -24.071903 -7.5180917 0.8870665 3.8564327 2.09863 23.964079 -29.780903 6.310735 -12.890643 18.826347 -7.8046927 -17.91521 -0.78858024 -40.386757 -19.150553 -54.267735 -1.4650942 10.172185 -13.618064 -1.6002718 20.310638 21.434206 -9.777236 -3.9759748 -41.206356 -15.739558 3.544271 -1.1163899 -29.304705 9.322043 3.0764575 -37.146515 -25.761585 15.792814 6.095368 -26.37523 15.900894 24.204124 -0.66657627 24.630003 5.877997 -20.084164 2.189348 -12.166172 -6.0632544 18.592981 45.639576 -9.287985 -11.755046 -2.45385 -10.831434 -4.864093 0.5145159 -1.7179712 14.933338 -13.181097 14.782496 2.772858 -11.061841 -28.144123 6.0610003 -34.117928 -1.13809 27.982885 -1.3949984 9.8239765 10.69907 10.269265 -28.971525 -2.3871934 21.70374 21.23402 12.507724 -15.919907 5.1351943 -23.85399 -13.641419 15.973494 10.10255 -12.736171 -24.761423 35.29015 -38.53115 -6.352449 -16.012669 -13.463898 44.692238 24.551071 -38.74463 -23.591627 -2.272272 -23.958797 0.04625682 18.631292 -33.184147 -25.347874 12.827418 -9.279527 8.660136 12.672659 19.156038 -25.583298 6.4144154 45.64113 -52.272995 0.9462813 6.278563 -11.950081 -29.444849 23.82281 -3.368989 0.11715683 19.608002 3.8976443 -6.4419174 12.487211 3.7819378 -0.64127934 -31.583265 -1.2466282 18.140724 14.792613 1.6900923 3.687581 16.450853 -30.108192 9.420682 32.241005 -39.0757 -55.129017 14.358121 -11.095132 -26.64201 -35.92349 26.011232 22.776001 -8.029321 3.3873627 16.963516 1.9115916 -1.8782884 -4.21447 10.307847 -3.4486232 -11.318621 -4.447785 -34.208065 -20.337305 -30.51396 -12.481874 -1.2556293 5.2185616 -7.373969 -16.077934 -17.78665 -3.9204829 -0.2892877 5.4145236 -34.527096 -47.209198 7.577584 10.627896 4.062257 -36.996475 8.555226 -2.9423969 -1.9577111 -18.545004 -24.203794 24.394688 -33.891582 18.42841 17.374916 23.472612 30.73836 1.5222994 -25.927498 11.829971 -16.136312 -16.223259 18.859543 -17.875784 -5.258478 24.08801 32.745174 -15.33948 -12.053347 12.067303 4.464682 -7.4072123 -10.73572 -6.3424997 -4.078607 14.544979 -26.47355 -4.622604 3.7572844 35.800415 5.0326552 -16.978403 26.539732 -10.294892 8.367704 13.006032 -5.618834 17.493092 0.70063233 5.736612 -6.7085333 24.535894 -13.913346 18.218264 -8.079124 38.772816 22.740307 -15.869742 36.62579 19.202984 -10.908644 21.659472 -34.005466 -25.116554 8.196489 8.776637 28.955448 -4.5960226 -36.882015 -55.974957 -25.51534 2.5999315 -15.26481 -23.032597 -11.554231 32.43312 10.167241 39.94725 -2.348201 26.609194 26.740152 -33.146893 -26.795258 -27.592617 11.352518 0.96045786 -14.560061 -6.077268 23.590755 -18.00037 -6.266905 -2.553994 -12.456634 16.143469 -11.157762 34.173637 -0.6629766 23.53494 -4.043055 17.179253 31.578451 13.510294 -8.728596 17.226976 14.788294 6.0801063 51.82658 8.471057 5.4401655 3.041647 -11.942748 13.535978 -3.0350997 19.936813 11.579041 21.181786 25.171375 -8.981649 -7.669842 3.1245642 27.015614 13.231549 12.688391 2.3399115 12.78655 12.12226 -47.10319 -39.37658 29.830185 28.350527 -13.521915 -15.8033 -1.0562733 -18.79417 28.423103 1.3150909 0.73227227 6.6535444 21.169706 -9.3407955 -2.1099038 -4.636164 3.5526905 -2.9541795 -20.472252 -10.512632 2.5133245 5.206449 -27.01381 8.377383 2.7819936 -4.918414 -1.6422596 7.8238597 -0.9993599 8.121866 -22.49161 16.62385 14.799503 -3.9523215 11.196108 28.75423 -13.414867 32.934177 -26.237925 -30.465921 -3.873289 -2.958901 -27.667507 -11.654404 -25.517967 8.58902 36.521217 -21.692842 2.276596 -0.84717965 20.070637 38.678562 40.23223 -26.688475 -23.248917 -20.38951 43.05719 -13.387087 0.6687363 -7.087014 26.93303 8.616319 -9.701247 16.920563 -4.946157 -9.260874 9.410791 3.668062 7.1423078 -24.646025 -6.094545 -27.706041 4.307462 5.4050474 4.4207926 25.129332 -7.3434696 6.345454 -3.997829 17.144897 30.228903 -15.309306 -0.406463 -28.278448 -36.926754 -10.3463335 -7.317099 -7.606325 -13.41306 44.903603 13.633079 -11.793508 21.812983 4.012294 2.926441 14.437904 -35.46756 13.698063 3.8751647 -28.369625 -0.9834586 11.701752 1.7517644 21.743382 4.0332694 2.72844 1.2990979 -1.1175611 -9.179935 -27.598003 -4.4139013 30.590467 -23.325592 -8.606716 -30.42337 -0.42131835 20.514639 22.56446 20.42511 20.99395 6.0745792 14.589566 9.372547 -13.456195 36.43912 -16.086819 14.567875 1.4887638 -18.942976 31.576298 -3.8515377 20.569347 -18.854967 -12.341215 1.7432503 34.622974 -1.6962779 -12.848232 -2.9520411 1.7324373 47.971676 8.612293 22.507473 21.091177 28.78962 24.174118 3.4723485 6.1503587 10.228716 17.397867 -3.156904 -31.935684 41.617672 -22.799194 -1.9981072 12.214053 2.7814202 14.084362 34.99485 -12.975343 26.837166 21.34607 9.92486 -15.824552 -8.214927
as 5.0684056 -2.969833 4.1124606 1.9016525 4.3153744 -5.340202 1.8168912 2.761754 -1.9838414 -3.7097669 -3.900874 1.6994597 -0.5820181 -0.6096008 0.15554105 2.7111902 -2.2874286 0.59124583 -0.7880108 -3.8778489 -3.9454014 0.28210756 1.8466436 4.1619678 6.6492534 5.814898 -3.4921687 -5.3749895 0.2873637 -1.138849 3.242741 -1.0615561 3.587664 1.335607 -3.362577 0.19714928 -1.7037323 2.3908534 2.979369 0.00584697 2.2009192 5.6388927 1.4934771 -3.6375988 -3.9204805 3.7234309 -1.7548243 1.7519829 2.2160633 -0.6777299 0.16421014 -3.3257186 -0.6843653 -0.022379298 0.058293387 0.18131381 3.2243986 -4.521205 0.5812235 -1.933563 2.7987394 -0.73014057 -2.517774 -0.15580425 -6.012565 -3.0331664 -7.8203316 -0.03711363 1.6078241 -2.1822963 -0.3275583 2.4362094 2.8466322 -1.0568099 -0.1070386 -5.7933264 -1.8503233 0.9575044 -0.081372015 -3.6472719 0.9168215 0.1434157 -5.2549686 -3.0273345 2.5204082 0.54615265 -3.346504 2.512988 2.9353762 -0.19568652 3.23467 0.6573446 -2.6499336 -0.20694715 -1.7648972 -1.0351892 2.9220698 6.7230363 -1.1999066 -1.9108182 -0.5427208 -1.9421396 -0.2186981 -0.18912444 -0.4517224 1.9444352 -2.0271695 2.2193441 0.6347939 -1.3357395 -4.1622257 0.88528085 -4.4421287 0.112429425 3.8045068 -0.20911995 1.3508261 1.2370807 1.6281374 -4.297796 -0.37666664 3.0338085 2.573952 1.4595598 -2.5852718 0.22771281 -3.1493862 -1.7003312 1.738864 1.7644879 -1.4136117 -3.805612 4.7224493 -5.6155267 -0.6147368 -2.472151 -1.7153113 5.9842625 3.8442113 -5.0557284 -3.5934117 -0.7903686 -3.2969542 -0.104563795 2.2585595 -4.4220405 -3.1564193 1.4402623 -1.7299496 1.477039 2.0262892 2.244318 -4.0279922 0.6428683 6.7556915 -7.65908 -0.09664818 1.3591847 -1.2044377 -4.4245863 3.6543415 -0.33166084 0.31601402 2.4115887 0.25716594 -0.6445441 1.2701687 0.12020082 0.004181813 -3.9356325 -0.42247802 2.538292 1.68535 0.6818662 0.91691273 2.5000088 -4.0212364 0.8398178 4.1427226 -5.7288694 -8.124361 2.13471 -1.3478283 -4.002322 -5.06743 3.9715183 3.152596 -1.0531131 0.82634366 2.6702468 -0.17201042 -0.46407026 -0.93700254 1.2653985 -0.89705 -1.4346001 -0.28120947 -4.687806 -3.2035215 -4.3890896 -1.7118381 0.36751422 0.9226038 -1.1129493 -2.52226 -2.5718377 -0.20544212 0.31993228 1.2417637 -4.5645785 -6.977089 1.080756 1.3529389 0.8722951 -5.1948867 1.5661726 -0.11968979 -0.37302998 -2.7907057 -2.941759 3.3490126 -4.191452 2.972281 2.5968544 3.376042 4.066608 -0.09485942 -3.7858903 1.7597677 -2.38415 -2.0460718 2.739837 -2.5741189 -0.24170357 3.0129988 4.7687407 -2.2203565 -1.717173 1.814439 1.0050018 -1.423533 -1.7956308 -0.9403449 -0.21793735 1.7282709 -3.3778028 -0.47397298 0.50421387 4.791274 1.0177606 -2.1201458 3.5738845 -1.8742753 1.0502144 1.923604 -0.798674 2.7663598 0.10008035 0.9248642 -0.8018387 3.0006285 -1.5701561 2.4069028 -1.2911578 5.1027474 3.4086738 -2.6388276 4.73037 2.2674901 -1.6741558 2.8808916 -4.6213417 -3.1856358 1.2323045 1.1999427 3.9586046 -0.35819995 -5.2119927 -7.289297 -4.015824 0.20529094 -1.6665897 -3.3373742 -1.3856719 4.6473327 1.9557171 5.7905836 0.12777048 3.5463781 3.4960363 -5.113112 -3.6403275 -3.328484 1.6195848 -0.3820299 -2.1608386 -1.2103795 2.9727407 -2.6940014 -0.604954 -0.2076009 -2.0771844 1.7895447 -2.1033657 4.7932224 -0.1367704 3.6160023 -0.24572808 2.321571 4.780976 2.3519416 -1.4704006 1.9673231 2.4503148 0.943632 7.305341 1.5402933 1.0761322 0.41898158 -1.8422538 1.4686579 -0.4718825 3.1793978 1.4658386 3.441187 3.18304 -0.94569427 -0.647856 0.3578594 3.3297954 1.3897159 1.6287853 -0.08748258 1.6620711 1.860318 -6.4373302 -5.097569 4.1361384 3.7569582 -2.3403106 -1.957436 -0.081808485 -2.3924692 3.5783174 0.14828548 0.22501145 0.5247415 3.3143542 -1.7724338 -0.40778354 -0.9094298 0.94998246 -0.22585571 -2.4619145 -1.4136472 -0.10225605 0.28815925 -3.6991763 1.5587997 0.5782963 -0.5928812 -0.59018445 0.9586386 0.35143954 0.82587165 -2.9957676 2.5668116 1.6485839 -0.75540835 1.3056422 4.473606 -2.1625183 4.785447 -3.4717922 -3.8276222 -0.41739303 -0.33739397 -3.6381245 -1.5233322 -3.4979625 1.3464956 4.9206467 -3.0439377 0.09783089 -0.0061847493 3.3130078 5.1573925 5.644818 -4.1756506 -2.9282968 -2.5619197 6.427854 -1.9648734 0.1108715 -0.70835155 4.1712923 1.0693078 -1.6345078 2.1580615 -0.67651224 -1.2422823 0.812256 0.910046 1.475473 -3.5756114 -0.5782795 -4.3946958 1.0435033 1.1516378 0.33899724 3.4839876 -1.040412 0.75269353 -0.74237806 2.6548586 4.4995294 -1.6565286 0.38957164 -4.0050554 -5.041516 -1.3315593 -1.4200902 -1.539791 -2.0990558 6.540776 1.9171824 -1.1028908 3.1293373 0.24972358 0.43385586 1.9077587 -4.636691 1.6412616 0.3206831 -4.1191864 0.31652644 1.3737115 0.3967138 2.8610075 0.27610996 0.8481838 0.69916147 -0.11224386 -1.4709008 -3.5194578 -0.33808482 4.020844 -3.7445488 -1.3635199 -4.297108 -0.58607554 3.229563 3.0258698 3.1929579 2.5995433 0.9804337 2.4451466 1.6363825 -1.7007337 4.9105268 -2.2327626 1.9827253 -0.35052654 -3.189762 4.4670258 -0.6517747 2.413163 -2.3103812 -1.613509 0.5074932 4.336935 -0.18527475 -1.7963892 -0.08498362 0.28572986 6.148174 1.1359544 3.0625536 2.5721338 3.8640537 3.4428627 0.7839598 0.43271378 1.3153661 2.7125356 -0.9168514 -4.874199 5.905043 -3.171175 -0.36058334 1.4713455 0.73621684 1.6569911 4.438974 -2.1271162 4.0409045 3.1104226 1.3499937 -2.446639 -1.0786206
at 10.161401 -7.1376677 9.995961 3.3789346 9.4675455 -10.967782 4.1901054 6.7058926 -4.451217 -9.31529 -8.51306 3.0158827 -1.6563092 -1.366206 -0.04146581 6.7630997 -5.1150937 1.7807705 -0.80854285 -9.19175 -7.458278 1.4876801 3.7631104 8.203026 15.058471 12.476977 -8.764341 -12.694421 0.43927863 -1.9848627 7.4759393 -2.988602 8.274306 3.1521776 -6.4994745 -0.056375355 -2.5497694 5.641266 6.033802 -0.8929184 5.8723483 13.477881 3.0680904 -8.227583 -8.831664 8.065233 -3.381634 3.7865157 5.0747576 -1.3522836 1.5194131 -7.667331 -2.1511016 0.28336313 0.9995842 0.41167244 7.157694 -8.932236 1.8536369 -3.4872153 5.408499 -2.5370765 -5.2192883 -0.09148115 -12.285339 -5.2667723 -16.172617 -0.6034639 3.375212 -4.612057 -0.7667476 5.821029 6.892511 -2.7716086 -1.3600053 -12.230991 -4.6447816 1.0371505 -0.0064865146 -8.903491 2.8579786 0.412948 -11.528404 -8.034994 4.1880946 1.2965294 -7.880109 4.5546217 7.1719394 -0.5255618 7.7454224 1.7563154 -6.1265936 1.0366311 -3.8982923 -1.8129207 5.838177 13.590775 -2.9776719 -3.9663434 -0.3266 -3.2096865 -1.3662095 -0.24584104 -0.7093346 4.678564 -3.5571194 3.888908 0.2688863 -3.2639334 -8.702616 2.0018406 -10.423331 -0.60120463 8.097319 -0.7052094 2.7981822 3.714243 3.1683333 -8.21366 -0.8023036 6.575174 6.7147183 4.019645 -5.342378 1.6373327 -7.259138 -4.140192 4.6367807 3.5971384 -3.2339811 -7.409014 11.057061 -11.571028 -2.4344842 -4.170868 -3.348694 13.141929 7.064186 -11.6965065 -7.182107 -1.2288615 -7.078682 -0.040850095 5.6873903 -9.508544 -7.844336 4.1751485 -2.33999 2.5756721 3.522686 5.3932285 -7.1426992 1.9985808 13.074303 -15.502928 0.3531641 1.7465435 -3.2072787 -8.399886 7.408215 -1.1822602 -0.41783878 5.7419696 0.6398256 -2.2260184 3.654068 0.8533547 -0.3913179 -8.833019 -0.5945371 5.271917 4.6748734 0.36102286 0.74261874 4.2501445 -9.370395 2.459057 9.691518 -11.9631605 -16.933376 4.3458934 -2.6520162 -7.4747543 -10.3702345 7.4503684 6.7371078 -2.4783237 0.6240996 5.3809423 -0.020145994 -0.37009984 -1.2089039 3.1014223 -1.1157796 -3.7690895 -1.5310535 -10.483306 -5.91969 -8.585879 -4.2626247 0.0031115585 1.2922376 -2.480853 -4.3215523 -5.6157265 -1.1306115 0.22864057 1.8889133 -10.424669 -13.86936 1.7086284 2.5336783 1.5266316 -10.905428 2.614527 -1.1480085 -0.9337079 -5.306408 -6.780353 7.662298 -10.048327 5.879963 5.5553317 7.4701743 8.945621 -0.046656266 -7.4381075 3.62301 -5.3756075 -4.6863065 6.03641 -5.387831 -1.5891571 7.2603865 10.369791 -4.655178 -3.6949697 3.6218886 1.2411222 -2.1600437 -3.5212061 -1.7453022 -1.4139504 4.791797 -7.3821926 -1.6060978 1.1526631 10.147822 1.2067406 -5.188038 7.981942 -2.7680905 2.5833697 4.382077 -1.8608284 5.6177244 -0.35795793 1.7514732 -2.5743067 7.742644 -4.0690913 5.130662 -2.0863554 11.336576 7.3624463 -4.934283 10.894573 6.0562515 -2.9453874 6.0057244 -10.413235 -7.1733904 2.8882766 2.3227358 8.282084 -1.7590832 -11.464297 -16.88609 -7.511867 0.46993977 -4.284847 -6.716607 -4.0660863 9.669668 2.9276624 12.381115 -0.21829063 7.92269 7.583633 -9.603874 -8.241322 -8.710794 3.9295037 -0.27021992 -4.27524 -2.2884488 6.5635333 -5.480323 -2.1926515 -0.9543186 -3.9963832 4.9736857 -3.8652012 9.67898 0.18167086 6.950941 -0.91291875 5.28431 9.795515 3.834744 -2.8309925 4.839765 5.015267 1.9513944 15.991481 2.262832 1.6762673 1.0994395 -3.6215463 3.8869085 -0.37062272 5.834577 3.857185 6.40212 6.910245 -2.4939494 -2.441088 1.0105704 8.351736 4.088861 4.0609856 1.0452067 3.4157894 3.3102725 -14.417355 -11.414806 8.584344 8.861941 -4.061314 -5.1518793 -0.5321184 -5.7480645 8.9226265 0.06762738 0.5033199 2.0052755 6.5129585 -2.7381446 -0.41435778 -1.6137339 1.4602299 -0.69976056 -5.683968 -3.0061243 0.44366512 1.8430475 -8.075768 2.1193757 1.384453 -1.4048326 -0.18660925 1.9455062 -0.44095728 2.6720834 -6.572374 5.592522 4.50345 -0.7760158 3.4073482 8.584242 -3.4244568 10.08989 -7.5664864 -8.655189 -0.6244876 -0.30096003 -8.451251 -3.0766444 -7.6006927 2.7986236 11.142029 -6.3047733 0.12290728 -0.0143609615 5.9393606 11.910084 12.541737 -7.8148513 -7.099777 -6.3513584 12.864701 -3.4234416 0.15886801 -1.9128397 8.351363 2.6331894 -2.5598197 5.0158973 -1.7038529 -2.2845511 3.1955788 1.4486421 2.6712325 -7.1727104 -1.8458357 -8.404228 1.7069418 1.9964446 0.9464101 7.8680863 -1.7583989 1.792629 -1.0669041 5.0408835 9.433862 -4.3894887 0.27749765 -7.985875 -11.426092 -2.683841 -2.285544 -2.2133121 -4.533547 13.72657 3.9090586 -3.056797 6.337355 0.6870388 0.6414298 4.77561 -10.124608 4.4058824 1.4056792 -8.270128 0.059963036 3.3616765 0.61591405 6.931105 1.4705247 0.969158 0.34529263 -0.68125814 -3.0603776 -8.252389 -1.2326511 8.994915 -7.2806916 -2.2920191 -8.751439 -0.12631646 5.8413525 6.655298 6.5025744 6.8369255 1.5964253 4.3692822 2.6817648 -4.4814224 10.741503 -4.6070275 4.3218613 0.26123685 -5.853291 9.511554 -0.5941481 5.7257624 -5.760329 -3.8469641 0.13428561 10.413516 0.04416389 -3.984658 -0.5924474 0.94398046 14.544513 2.4928067 7.013097 5.6891413 8.176564 7.0178237 0.7927128 1.9199524 3.1212292 5.2203927 -0.8344761 -10.003814 12.444418 -7.315175 -0.31211564 4.0479345 0.77623224 4.016323 10.409659 -4.2187634 8.137693 6.181069 2.6628413 -4.074423 -2.4727328
back 5.091033 -3.2771175 4.699016 1.8628492 4.2030997 -5.013735 2.1440377 3.2022386 -1.7729597 -3.7415824 -3.8005605 1.1171844 -1.0765176 -1.0756489 -0.49491218 2.5053139 -2.333532 1.0622559 -0.67905015 -4.332696 -3.9213994 0.44825417 2.0270374 3.5794835 6.275175 5.378294 -3.502727 -5.433542 -0.19893876 -0.88240266 3.7829583 -1.1520752 3.9767177 1.0947093 -3.0417206 0.27628216 -1.3516148 3.253795 2.5829725 -0.38340464 2.8830054 5.567554 1.8202606 -3.7125788 -4.180886 3.650191 -1.514682 1.4923376 2.0511243 -0.9159602 0.262583 -2.9620674 -1.4162718 -0.07132049 0.21283405 0.39662382 3.0242252 -4.2476125 1.1581633 -2.0955071 2.3035972 -0.75623125 -2.7210102 -0.30373326 -5.4783497 -2.2291138 -7.1351933 0.11601849 0.99675405 -2.2763991 -0.36722454 2.3568118 3.122936 -0.8870383 -0.22095168 -5.4672146 -2.507952 0.18395773 -0.48769587 -4.158535 0.82451606 0.19037409 -5.2394466 -3.4710412 2.3059635 1.1102246 -3.3475938 2.5577288 3.4888206 -0.09469422 3.545196 0.82307005 -3.0175135 0.28322032 -1.1658304 -1.1892732 2.3808892 5.861061 -1.041036 -1.3523295 0.23655438 -1.5964248 -0.55445045 0.34041145 0.030679991 2.116117 -1.6190882 1.8251396 0.68444705 -1.5034496 -4.0766516 1.1901653 -5.106361 -0.29371616 3.7685177 -0.6933005 1.7160336 1.4083364 0.9445252 -4.250521 -0.63966835 3.188928 3.2251596 1.9164306 -2.1412969 0.5137013 -2.940097 -1.8260543 2.5778108 0.9910078 -1.7947843 -2.9355345 5.172852 -5.16538 -1.2830625 -1.6819773 -1.8629282 5.747419 2.9271283 -5.513337 -3.2691123 -0.66805637 -3.4846847 -0.294379 2.2708259 -4.889009 -3.8324983 2.1993191 -1.4780914 1.3467598 1.8284705 3.1036553 -3.1676624 1.3244609 6.365028 -7.235752 -0.31482902 1.3505288 -1.5949823 -3.6616476 3.210541 -0.49066296 -0.24267255 2.7633631 0.62922007 -0.41739243 1.533717 0.5665309 0.20751965 -3.8873749 -0.6375606 2.7360907 2.3294556 -0.19338688 0.8532053 2.578883 -3.831927 1.0191457 4.7470775 -5.1046476 -7.385334 2.3666341 -1.70851 -3.7455664 -4.5859203 3.0962656 2.6739786 -1.3254677 0.045709588 2.5530958 0.12647061 -0.19711109 -0.107655175 1.1629782 -0.27676752 -1.059258 -0.6179728 -4.2567773 -2.8275745 -4.2791996 -1.6981864 -0.14334132 1.1697485 -1.2503922 -2.514122 -1.9022765 -0.3222856 -0.029977892 1.20779 -4.863733 -6.4034843 1.0030097 1.0412358 0.67586625 -4.893781 1.4376842 -0.5981929 -0.6264693 -2.15725 -2.9794018 3.1192036 -4.9021015 2.965551 2.3668728 2.6557043 4.4614844 -0.1784904 -3.4314778 1.6707212 -1.7687887 -2.4998188 2.2981408 -2.1581624 -0.715843 3.3147 4.314626 -2.3574376 -1.7879926 1.9785867 0.6555436 -0.8544988 -1.4340712 -0.9360839 -0.23102114 2.195303 -3.7754102 -0.47964928 0.75877637 4.8699093 0.23538879 -2.5032597 3.7150059 -1.5164883 1.4693465 1.6704262 -0.71252275 2.0022376 0.23468064 1.0204782 -1.1210678 3.6479695 -1.8403447 2.5415392 -1.3158315 4.820343 3.0282388 -2.5697424 4.812482 2.4001546 -1.9306754 2.4845574 -4.476151 -3.1477134 1.6592394 1.0915115 3.69523 -0.2235001 -4.9385476 -7.8859453 -3.997349 0.67427343 -2.1983702 -3.3614876 -1.691099 4.3979793 1.0910293 5.9137654 0.071840934 3.9408765 3.1361878 -4.797395 -3.9725666 -3.441954 1.0887319 -0.32431057 -1.5718954 -1.1924968 3.6183538 -2.6134665 -1.0401549 -0.31369147 -1.8317014 2.2403247 -1.9612732 4.5103045 -0.06513632 2.7152572 -0.87940395 2.13281 4.318752 2.2177944 -1.1189817 2.106889 1.6235662 0.42348748 6.6842513 1.0777023 1.0386381 0.07396431 -1.3251343 1.3735967 -0.22973064 2.9490974 1.4750133 3.1062021 3.4675841 -1.0250994 -1.3491434 -0.036043536 3.518192 2.1561658 1.821163 0.411935 1.7830485 1.1793907 -6.5924025 -5.438941 3.8707292 3.573558 -1.5233386 -2.4739873 0.0151168015 -2.7737973 4.3313947 0.10822208 0.055030495 1.3054727 3.265271 -1.1121173 0.23868209 -0.7287186 0.23186943 -0.60285425 -2.7788782 -1.5780833 0.049653262 0.26910374 -3.2749805 1.0062344 0.46413302 -0.49658397 -0.27704328 1.466559 0.28429386 0.56330085 -2.8087475 1.9933983 2.1529515 -0.60586613 1.3157921 4.273065 -1.8737882 4.3791714 -3.560742 -4.1431627 -0.3528933 -0.17478617 -3.6165466 -1.8046806 -3.8671756 1.6453664 5.19155 -3.0908601 0.7865499 0.32587704 3.0082357 5.4270105 5.2042036 -3.6319711 -3.5847337 -2.9015574 6.230458 -2.0246525 -0.37793452 -1.1256671 3.2253788 1.4702685 -1.6807777 2.0125198 -0.9477843 -1.2383913 1.006664 0.11052908 0.80653 -3.3335652 -1.0173746 -4.3066916 0.99933857 0.766237 1.0991095 3.8984532 -0.6020246 0.46090785 -0.798108 1.7821894 3.8517632 -1.8418553 -0.3673416 -3.4754086 -4.469678 -1.6195128 -1.2463794 -0.71001124 -2.1568487 6.399008 1.7025906 -1.7995145 2.6204698 0.9246686 0.73019 1.9581317 -5.174848 1.4062349 0.52021235 -3.484276 0.16270359 1.5587521 0.08483191 3.21132 0.54310006 0.5298719 -0.0740261 -0.6415549 -1.2458388 -3.9437966 -0.92814744 4.344866 -2.9413455 -0.9155552 -4.425618 -0.037415586 3.1797376 3.5111904 2.575812 2.3995116 0.519688 1.6648798 1.3137045 -1.7887821 5.0180354 -1.7490861 2.0645885 0.46351555 -3.1135166 4.3679366 -0.9580746 3.0420725 -2.0801208 -1.3243253 0.09364669 4.9916286 -0.5128853 -2.0107286 -0.7698272 0.7912298 6.0634074 0.71565914 3.3859591 2.8894389 4.3229103 3.5479062 0.35629842 1.2554716 1.6686327 2.1310604 -0.6774664 -3.9237943 5.3038526 -3.114679 -0.5582609 1.8098495 0.14853907 1.5325345 5.1363554 -2.0871015 3.9233372 3.1039484 1.8262502 -2.4872181 -1.0865409
bad 4.5465875 -2.83252 3.7880838 1.8889256 3.852572 -5.1146336 1.9994737 2.8426423 -1.7993374 -3.5557852 -4.4585495 1.2756273 -0.6611779 -1.1358466 -0.39852178 2.489157 -2.3956735 0.63884515 -0.42992154 -3.6503625 -3.5150015 0.68455106 1.6368628 3.707405 6.339209 5.6635294 -3.6828413 -5.1877303 -0.035848983 -1.0508608 2.9521875 -1.5977395 4.1721997 1.1794107 -3.3255227 -0.32210848 -1.291615 2.384699 2.538245 0.12111643 2.8424768 6.112394 1.7744966 -3.5941057 -4.315886 3.6610262 -1.7352964 2.0814514 1.9240994 -0.5650011 0.2134919 -2.9385412 -1.002638 0.27055606 0.5103409 0.044330366 3.1060748 -3.6953998 0.74758834 -1.3468193 2.1618688 -1.5430168 -2.1447742 0.15852632 -5.4492445 -2.9896262 -7.1034455 -0.07981388 1.1039283 -2.291792 -0.68181854 2.3123224 3.0285568 -1.021045 -0.8339903 -5.403614 -1.842143 0.44830137 0.26565316 -4.0653834 1.2045484 0.06543552 -4.988242 -3.7748697 1.9770181 0.73784685 -3.633608 2.3652956 3.2960064 -0.14311936 2.8693218 1.223569 -3.1279366 0.61746144 -1.8099359 -0.62651056 2.1314101 6.365065 -1.1921918 -1.6056899 -0.42109764 -1.6438771 -0.8938632 0.42131767 0.27805004 1.8712839 -1.7181592 2.2588544 0.3056257 -1.5396287 -4.181014 0.3686233 -4.8768315 -0.5445648 3.787939 0.2021422 1.1418003 1.1576589 1.1588461 -3.737671 -0.32513598 2.6811883 2.403452 1.5424882 -2.5086513 0.96759295 -3.2999167 -1.5151004 2.4098303 1.4049324 -1.9533465 -2.9856622 4.1595306 -5.493542 -0.49639058 -1.939302 -2.1170385 5.749789 3.6092186 -5.4519124 -2.970607 -0.5849217 -3.232174 0.3854231 2.3694766 -4.4760523 -3.3800402 2.2119143 -0.6992091 1.2226137 2.045737 2.7643921 -3.724 1.3317704 6.4479837 -7.055659 0.30294883 0.39337748 -1.9091854 -4.0470457 3.0711083 -0.06968615 0.062067594 2.7715447 0.3002148 -1.3349239 2.0370696 0.15667886 -0.42952317 -3.8719199 -0.17337812 2.012107 2.2534065 0.14824848 0.33995247 1.7849036 -3.620787 1.0984681 3.7596407 -5.1303363 -7.6542854 1.5620546 -1.8742942 -3.1608853 -4.5987597 3.7196639 2.84568 -1.5479068 0.49332115 2.0912313 0.0062576896 0.21206522 -1.0545831 0.84876806 -0.2571235 -0.9959586 -0.5558624 -5.0439496 -2.129556 -3.726061 -1.3428582 0.2306502 0.8597693 -0.7270971 -2.4150803 -2.043242 -0.07871657 0.443466 0.6524764 -4.8134794 -6.7104573 0.48236105 1.4442291 0.35393515 -4.4247303 1.3397228 -0.45527524 -0.2311202 -2.126482 -3.5569923 3.54708 -4.332944 2.1950655 2.2764833 3.1817443 3.637292 0.2746552 -3.7905273 1.3552126 -2.624239 -2.5984957 2.9261162 -2.0226808 -1.0197723 2.855438 4.062273 -2.3348253 -1.4175717 1.7334911 0.39738214 -1.4145678 -1.3121091 -1.1008481 -0.16732587 1.6148344 -3.1816468 -0.5456146 0.36224407 4.578378 0.417574 -1.9752365 3.1457593 -1.1306666 1.2693006 1.4714558 -1.0826027 2.7081838 0.006828776 0.33416513 -0.92999786 3.601689 -1.4284983 2.8511548 -0.94634145 5.5146646 2.829645 -2.5282092 4.506381 2.6918428 -1.4173219 3.2485507 -4.5703416 -3.044882 0.8770031 1.1156157 3.4229221 -0.6800861 -4.605987 -7.1826324 -3.2659836 0.06891849 -2.430513 -3.0144596 -2.076253 3.7618313 1.6302143 5.277185 -0.7331831 3.8646812 3.8773448 -4.1658645 -3.3984544 -3.431492 1.5405636 0.07468371 -2.403426 -0.96670675 2.9400487 -2.5850546 -0.76899993 -0.60413253 -1.5578723 2.049613 -1.8774799 4.077054 0.13972436 3.072297 -0.31563652 2.3987644 3.9383523 1.965181 -0.85165596 2.5895982 1.8517109 0.6827972 7.0820456 0.9808525 0.44402182 0.7462534 -1.7869868 1.3851199 -0.80967957 2.3755026 1.4779825 3.288757 2.8191192 -0.8874532 -0.9831911 0.24376951 3.8897715 1.8119057 1.3047837 0.6351033 1.2555069 1.8759227 -6.314329 -4.7513275 4.376831 3.5211475 -2.2137268 -1.8864728 0.18947022 -2.5818145 3.7635636 -0.28114837 -0.15079357 0.416253 2.3129458 -1.1619886 -0.24676615 -0.3947373 0.85468423 -0.04085723 -3.1125596 -1.4037498 0.4528064 0.60205853 -3.5759914 1.1539176 0.35727936 -0.21806136 -0.007385471 0.7277226 0.07633896 0.6961904 -2.6091912 2.2709315 1.7232641 -0.5433703 1.6422291 3.388692 -1.476103 4.6103573 -3.3525107 -3.696812 -0.8474807 -0.17867966 -3.5860465 -1.4612005 -3.2738369 1.1641463 4.7793245 -2.7030807 -0.018503513 -0.29313633 2.6897697 5.2936325 5.6748867 -3.4261255 -3.2872462 -2.9073868 5.778185 -2.1195595 0.18362592 -0.6579473 3.7289026 1.0844352 -1.7548285 2.3866966 -0.7046447 -1.2317262 1.082281 0.6159961 1.052668 -3.5420215 -1.2251498 -3.5561378 0.25972173 1.1634855 0.7774319 3.339653 -1.3275377 0.8506427 -0.59397423 1.8682029 3.854821 -1.8627661 0.060211465 -3.4949741 -4.9384985 -1.578414 -0.6715096 -0.7554739 -1.5970896 6.196525 1.6713052 -1.1102868 3.3128178 0.29160473 -0.09526606 1.8715347 -4.793629 1.4672021 0.20112413 -3.9757738 -0.2534591 1.9389087 0.5894758 2.685236 0.9079936 0.6087771 0.14389847 -0.51816344 -1.4124303 -3.7347617 -0.6373936 3.8148441 -3.3241317 -0.6713054 -3.5609968 -0.107623346 2.9823596 3.04377 2.7250135 3.0187492 0.43191463 2.4458642 1.6275567 -1.4814148 4.444637 -2.2319064 1.9189672 0.02777967 -2.5452492 4.3085456 -0.87518597 3.042046 -2.310595 -1.8084925 -0.1016652 5.0018964 0.3235343 -1.8794159 -0.60192597 0.12093304 5.88113 0.77973986 3.3224204 2.349525 3.4001687 2.8852654 0.10068787 0.82373595 1.3321918 2.2486138 -0.028200474 -4.4088492 5.467226 -2.951846 -0.5253671 2.027395 0.45534027 2.2247977 4.1515784 -1.8488259 3.3095336 2.6315296 1.7239974 -2.4564133 -1.4242114
be 26.107208 -16.351948 23.903387 8.841988 24.361822 -27.999989 10.325207 15.522932 -11.039536 -22.256948 -22.16542 7.4830375 -4.1170025 -3.5721693 -1.0055915 15.156268 -13.297599 5.5578895 -2.2752912 -21.532879 -18.473423 2.7763417 10.661663 20.563267 36.19544 31.17872 -21.399231 -31.182001 0.80996555 -4.7304854 18.739407 -7.2768493 21.448643 7.9385357 -16.80464 -0.123358965 -6.2970667 14.808395 14.406424 -1.4361864 14.023721 32.309765 8.440692 -20.105541 -22.820253 20.357697 -9.547661 9.950801 11.540511 -2.9138575 2.5099914 -18.00585 -5.487653 1.1673657 2.3097758 0.92363214 17.850039 -21.74163 4.9141555 -9.503588 14.210642 -5.7648726 -13.190083 -0.19883244 -29.929728 -14.190557 -39.55797 -0.78279793 7.508015 -9.922666 -0.8453487 15.0790825 16.199238 -6.631116 -3.2839928 -30.919462 -11.518902 3.0395176 -0.5393261 -21.103716 7.2835526 2.2696786 -27.593687 -18.503721 11.858353 4.253506 -18.976862 12.425055 17.413069 -0.6614513 18.703014 4.867875 -15.207041 1.3476017 -9.108923 -4.768696 12.982791 33.93075 -6.2458897 -8.928767 -1.4425132 -8.830961 -3.4655635 0.5703699 -1.3941592 11.015862 -9.839259 10.580849 1.6270053 -7.6758747 -21.272858 4.2169785 -25.177614 -0.36514986 20.710152 -0.98262656 6.974959 8.510719 7.0987697 -21.203436 -2.2547507 16.274437 15.485493 9.23444 -12.333411 3.465915 -17.518187 -9.724737 11.452864 7.6936917 -9.439343 -17.963411 26.28211 -29.079082 -5.163094 -11.50419 -9.695758 33.184727 17.744637 -28.160719 -16.962196 -2.0127268 -18.50362 0.0032028966 13.546906 -24.245268 -19.356798 9.993436 -6.9096723 5.99497 9.305032 14.830343 -19.08951 4.614658 33.02504 -38.84004 0.4728765 5.0555825 -8.319867 -21.490282 17.20709 -3.0357466 -0.50287247 14.1636505 2.8857727 -5.2866955 9.329574 2.9143336 -0.22353773 -23.159603 -0.8419215 13.998948 10.578826 1.5668744 2.7828188 12.178003 -22.797398 6.854325 23.897919 -28.842184 -41.278164 10.29315 -7.92623 -19.515133 -26.530077 18.519018 16.22083 -6.267456 2.0433278 12.878912 1.3798742 -1.7072039 -3.301392 7.176922 -3.0305479 -8.775332 -2.5753858 -25.171675 -14.610246 -22.722376 -9.463457 -0.7071286 3.4161205 -5.8021183 -12.254888 -13.303449 -2.9118233 -0.07134313 4.1076164 -25.398993 -35.154472 5.393766 7.403831 3.0945175 -27.619534 6.1823177 -2.6033893 -1.8354502 -14.388138 -17.647442 18.294865 -24.726305 13.6884575 12.783208 16.739634 22.357817 1.0154096 -18.92998 9.074668 -11.842513 -12.486306 13.483902 -13.332246 -3.402695 17.821514 24.755104 -10.919619 -8.441751 9.087216 2.9434226 -5.5161486 -8.477037 -4.143668 -2.4478621 10.552384 -19.315277 -3.584052 2.6969025 26.673729 3.9006145 -12.760548 20.007936 -8.496495 6.3990774 9.59285 -4.3898616 13.26333 0.15586178 4.4753985 -5.4337416 17.909492 -9.97426 13.872477 -6.040145 29.299086 16.65238 -11.784115 27.564928 14.185464 -8.416705 15.347448 -25.092196 -19.408203 6.745796 6.0052676 21.283447 -4.2382536 -27.055593 -41.283634 -19.738417 2.597976 -11.104562 -17.87847 -8.414909 24.209265 7.5073843 29.70157 -1.2252016 18.880238 19.52192 -25.040493 -19.627996 -20.060625 8.549743 0.4127998 -11.195783 -5.0103865 17.628565 -13.756627 -5.19682 -1.8628644 -9.751341 12.144013 -8.2100935 24.602375 -0.44073832 16.699905 -3.444858 13.321391 23.92217 10.216564 -7.2005577 12.75393 10.968331 4.5647063 38.728962 5.838545 3.9597785 2.3406124 -9.095329 9.135967 -2.1941564 15.005607 9.071898 15.938954 18.63185 -6.8622184 -5.0967855 2.3778667 20.545591 9.613988 9.260145 0.93104124 9.482197 8.889116 -35.262333 -29.869955 22.061548 20.529753 -10.099446 -11.730445 -0.29175714 -14.409901 20.96233 1.1857462 1.1699138 4.996075 15.839842 -6.7937756 -1.4165092 -3.3909926 3.1938848 -2.2417145 -15.094435 -8.550553 2.0083678 3.5371127 -20.20778 6.016536 2.0517774 -3.9435563 -1.6251879 5.5734825 -0.4548249 5.74254 -16.485086 12.868971 11.097705 -3.523981 8.302985 21.343594 -9.621653 24.406656 -19.137287 -22.317873 -2.8913026 -2.1884356 -20.5773 -8.839783 -18.308771 6.3660426 26.752312 -15.847503 1.7626487 0.042050857 14.997431 28.943945 29.840101 -19.393963 -17.51817 -15.271892 32.025467 -9.469286 0.6825298 -5.995029 20.179815 6.7109523 -7.5721993 11.86166 -4.2622037 -7.3140006 7.187071 3.0340738 5.3888583 -17.793938 -4.9976764 -21.200766 2.9503987 3.8515117 3.2319744 18.729042 -5.4584703 4.549114 -3.0600405 11.771292 22.298485 -10.776378 0.061503462 -20.20425 -27.703253 -7.235722 -5.6105065 -5.476171 -10.0733185 32.98504 10.579975 -8.514819 15.604529 2.8771596 1.5886855 10.498858 -25.611536 9.898925 2.961158 -20.808136 -0.4175704 9.084743 1.8230727 16.325872 2.8982701 2.726161 1.4180733 -0.89839023 -7.5197163 -20.931688 -3.7048311 22.98947 -17.902445 -5.95791 -22.723894 -0.99472946 15.719538 17.061378 15.638775 15.538221 4.006579 11.129832 6.364451 -10.049313 27.462624 -11.882085 11.581339 0.49046198 -14.241785 23.75853 -2.9762726 14.982708 -13.888645 -8.976873 1.4684105 25.149881 -1.3888216 -9.314172 -2.606707 1.8662175 35.113586 6.4926744 16.069168 15.593751 21.279314 18.077478 2.2834368 3.7514534 6.9967184 12.869132 -2.5551293 -23.567705 31.665339 -17.194157 -1.4844828 9.439215 2.0591018 10.722117 25.885754 -9.7149 20.387333 16.383108 6.911633 -10.788148 -5.6274567
beach 3.6955032 -1.7065831 3.553433 1.1009248 3.1663132 -3.992179 1.2349805 2.4451041 -1.593479 -3.1080923 -2.7597413 1.0939572 -0.3669893 -0.6019176 -0.14152716 2.2737625 -1.331286 0.18474911 -0.39480144 -2.5958917 -2.262811 0.33611006 1.558716 2.2582102 4.4375587 4.338809 -3.0675888 -4.4949026 -0.023200057 -1.045707 2.3893065 -0.5129203 2.7690763 0.71890455 -2.001423 0.11283477 -0.5666581 1.9280051 1.6863985 0.017668165 1.9189451 4.2671323 0.68443274 -2.2075856 -2.8739786 2.1793857 -0.901576 1.0206031 1.4347985 -0.24620831 0.07206241 -2.5375004 -0.7144628 0.4261892 0.71454674 0.24780972 2.7651305 -2.352041 0.09928577 -0.9540208 1.3735464 -0.8090731 -1.2566417 0.38569033 -3.801005 -1.4282151 -5.3063993 -0.6449971 1.043972 -1.7813054 0.086659744 1.6290405 2.351543 -0.916746 0.08489522 -3.9280884 -2.016173 0.44131285 0.34264278 -2.525054 0.5169414 -0.19896081 -3.4372258 -2.4013417 1.650464 1.0216047 -2.997711 1.6073276 1.8424251 -0.27315077 2.218813 0.30528516 -1.5220677 0.5115762 -1.5366454 -0.9208051 2.0708704 4.193328 -0.67046905 -1.5841072 -0.21987197 -1.5728345 -0.41084614 0.17786096 0.027460108 1.1324687 -0.8716555 1.8332132 -0.2534326 -1.4221988 -2.6601279 0.5582307 -3.7223456 0.049308054 2.309298 0.22812958 0.69966704 1.519202 0.8084532 -2.6223173 -0.39427555 1.7384574 2.5571952 1.6211047 -2.010609 0.35003853 -2.7964504 -0.86424494 1.0726895 1.0387679 -1.0863074 -2.2072499 3.1222792 -3.9919353 -0.53906906 -1.3379849 -1.316204 4.4739795 2.7242692 -3.6613164 -2.405398 -0.52154845 -2.1389315 -0.011492316 1.6089805 -2.8920538 -2.723666 1.7285749 -0.9102449 0.444234 1.0735797 1.9842077 -2.7586372 0.50686234 4.106722 -5.1385593 -0.20115788 1.0755932 -0.7962916 -3.201613 2.747916 -0.6519242 -0.34045097 1.7332897 0.80212176 -0.6985532 1.663663 0.48423436 -0.17874819 -3.2385669 0.3227436 2.0618515 1.719283 0.5339041 0.7848924 1.1989406 -2.47671 1.1028768 2.5621324 -3.1879737 -5.758994 1.6164261 -1.451136 -2.2599974 -3.1735198 2.3482132 2.085139 -0.8292932 0.21939053 1.7715241 -0.3392546 -0.5060942 -0.13852745 1.449317 -0.09416362 -1.5324235 -0.83554965 -3.765945 -1.4897668 -2.9877422 -1.4300883 0.3630364 0.25040817 -1.0558697 -1.7659112 -1.2097245 -0.18024623 0.11509103 0.32634565 -3.0956264 -4.0397663 1.2247659 1.1397661 0.7069131 -3.8616705 0.67436826 -0.21708137 0.26225156 -2.278466 -1.856048 2.4168599 -2.789766 1.3447475 1.5536262 1.9635973 3.3191292 0.06476358 -2.6302881 0.63338864 -1.9342252 -1.3265986 2.0880504 -1.8185354 -0.20209974 2.3951497 3.294824 -1.9527434 -1.5430564 0.7829168 0.054196924 -0.65058655 -1.1197118 -0.7346475 -0.680882 1.145035 -2.6499004 -0.8059637 0.77207726 2.8946357 0.06306578 -1.8645542 2.1666508 -1.3772237 0.7747589 1.714515 -0.72995824 1.4914638 -0.069512434 0.24220935 -0.74331653 2.5182066 -0.92376107 2.0970318 -0.44766203 3.3764894 2.0908985 -1.1119385 3.3056555 1.6168585 -0.9475361 2.1910279 -3.209072 -2.6422465 1.1369787 1.3028475 2.3268738 -0.1000515 -3.3628318 -5.256804 -2.3674145 0.022951394 -1.5934579 -2.5345922 -1.3892577 3.112728 1.511522 3.6064882 -0.21915403 2.854713 2.4395618 -2.855356 -2.312193 -2.7561085 1.4500031 -0.33706206 -1.3971921 -0.18309464 2.5306084 -2.0847144 -1.094086 0.074343555 -1.4285938 1.4425706 -0.8200265 2.8457472 0.016918957 1.7914125 -0.32348445 2.0080693 3.4151728 1.3114027 -1.0234196 1.4021469 1.0071108 0.49421152 4.6299214 0.6937302 0.3341493 -0.110311076 -1.2171713 0.9211841 -0.39835405 1.8253223 1.1751522 2.4808893 1.9582607 -0.8946256 -0.852572 -0.2062256 2.7872062 1.5648271 1.6076969 -0.23190673 0.7545471 0.8181105 -4.2794456 -3.9512963 2.5395095 2.2436736 -1.2528789 -1.3516254 -0.1695091 -2.1042435 2.8565998 0.575235 0.5290511 0.89986086 1.5869457 -0.4534787 -0.49612787 -0.32246584 0.75563264 -0.16549774 -1.912067 -0.77158076 0.43307254 0.40892848 -2.2206097 0.6990666 0.5630181 -0.5594973 0.24924481 1.2063955 -0.27943724 1.0010132 -2.5766218 2.084055 1.792662 -0.63118654 0.65720063 2.6742892 -0.99507475 3.3826287 -2.286828 -2.9193544 -0.14063576 -0.42714834 -2.6018424 -1.1624019 -1.9401895 1.2630256 3.2475698 -2.0524752 0.37381953 0.31967512 1.8494462 3.603783 3.9015384 -2.2756536 -2.1358223 -2.0669482 3.7451417 -1.231442 0.05479309 -0.37146813 2.5929208 0.9428548 -0.702259 1.2766877 -0.87066114 -0.8550752 0.69278914 0.4001043 1.0192595 -2.0730793 -0.2071928 -3.1862457 -0.06604001 0.040644396 0.40631106 2.2207894 -0.52389497 0.1950312 -0.111408845 1.6144279 2.5020254 -1.2999899 0.02343019 -3.0516164 -3.377687 -1.2565931 -0.7565254 -0.3893309 -1.0694966 4.2338862 1.6787753 -1.374306 1.6488336 0.64432335 -0.16447262 1.1821549 -3.472656 1.184072 0.28977376 -2.9055927 -0.19748466 1.5446787 -0.1510772 2.480802 0.3102787 0.20169619 -0.18838353 0.38256502 -0.50234044 -2.735065 -0.8777901 2.9855163 -2.0114608 -1.076135 -3.4160442 0.26253998 2.296395 1.8930203 1.783809 2.0755758 0.5627558 1.4218677 0.4681945 -1.5499485 3.177023 -1.9986733 1.3002802 -0.34509996 -2.0942178 3.1767876 -0.1972698 1.8932906 -2.134001 -0.70437425 0.63246423 3.2737207 0.15028055 -0.8327057 -0.42963737 0.5239115 4.574381 0.95358026 1.8524076 1.6065049 3.1591864 2.1537318 -0.11792641 0.06324983 0.9121699 1.4592488 -0.64672595 -2.7021556 3.8283973 -2.2913916 0.048882406 1.3703504 0.42243448 1.5987332 3.7733305 -1.5795251 2.3053653 1.7613611 0.60773844 -1.5112307 -0.7744641
because 5.90891 -4.2515965 6.0115952 1.8490033 6.2913947 -7.057322 2.5476072 3.9000025 -3.1553879 -5.7535458 -5.292644 1.8185253 -0.9412047 -1.0249901 -0.07789162 4.30389 -2.799416 1.0267113 -0.31940663 -5.0214624 -4.8362117 1.1478823 2.6124961 4.563252 9.349135 8.107911 -4.9185863 -7.2775383 -0.198604 -0.63012123 4.354207 -1.6369797 5.2108645 1.4854668 -4.5241284 0.5329553 -1.3745967 3.8090243 3.5771303 0.1759593 2.8964517 7.5427485 2.0835023 -5.3144593 -5.4947805 5.215116 -1.8722457 2.6809635 3.2523887 -0.6677181 0.84887093 -4.553046 -1.4930515 -0.12722543 1.0680798 0.55959797 4.5967917 -5.375646 1.324668 -1.79948 3.3380651 -0.9685252 -3.3855662 -0.44004145 -6.8639603 -3.969485 -9.866854 -0.27895898 1.5358696 -2.8175824 -0.22059077 3.4381292 3.6725214 -1.3506275 -0.8581014 -7.6795716 -3.3519368 0.718979 -0.17908075 -5.150968 1.2323954 0.40819108 -6.3605056 -5.095378 2.586237 0.762613 -4.747083 2.5079384 3.8381824 -0.14194348 4.4084826 0.59851944 -3.312276 -0.07452157 -2.2364328 -1.1008631 3.3424704 8.074954 -1.2107285 -2.2758045 0.0075963726 -2.2585728 -0.87713635 0.073613934 -0.10340611 2.7999227 -2.7438667 3.0592132 0.3616432 -1.6479602 -4.8159738 1.3602617 -5.935916 -0.31346038 5.5622296 -0.6278812 2.121393 1.5567043 1.4681549 -4.998356 -0.5584676 4.0530896 3.6580968 1.9027634 -2.566736 0.521473 -4.093187 -2.7736464 3.0181172 1.9657917 -1.9509257 -4.6963754 6.7406764 -7.124221 -1.3543363 -2.617997 -2.5758371 8.500402 4.226508 -6.5964017 -3.8385801 -0.1084854 -4.528505 -0.23680638 3.6559448 -6.4257245 -5.0714054 2.4704177 -1.5895548 1.983726 2.526849 3.4561648 -4.787204 1.1308821 8.386501 -9.811566 0.24118716 0.9135769 -2.1632926 -4.811387 4.445244 -0.4453215 -0.48444122 3.4170735 0.2848741 -1.4694391 1.9480714 0.47835332 0.11315875 -5.4056797 -0.65189093 3.598943 2.504175 0.4572529 0.9573396 2.7916589 -5.147928 1.8313186 6.03284 -7.083247 -9.902469 2.0977702 -2.1256142 -4.5403557 -6.239485 4.492406 3.9461117 -1.7950736 0.9329269 2.946672 0.13042025 -0.6679478 -0.69838583 2.2590506 -0.45674556 -1.7197783 -0.5363279 -6.5043354 -3.9373705 -5.9588375 -1.8649178 -0.33253682 1.1425414 -1.7383237 -2.6675103 -2.835141 -0.97307307 0.48456234 0.61924094 -6.2707887 -8.198801 1.2121382 1.776183 0.99823934 -6.8269873 1.2453516 -0.044984464 0.0490375 -3.1091468 -3.9936316 4.5422406 -6.233999 3.0003905 3.275551 4.472547 5.1481247 0.014995619 -4.2985325 2.1051602 -3.4677198 -2.8263884 3.7934146 -3.1150477 -1.038853 4.597022 5.6763005 -2.382553 -2.25877 1.8670992 0.54538095 -0.7983631 -1.5733427 -1.4031831 -0.57693475 2.3050709 -4.69834 -1.3871078 0.7978426 6.000267 0.39246163 -2.972281 5.2960763 -1.947585 1.8849779 2.90603 -0.6147283 3.4686852 0.46744487 0.5278168 -1.1002169 4.169352 -2.2106235 3.3380532 -1.6596175 7.3643847 4.002017 -3.3931584 6.4048257 3.4538121 -2.0241363 3.9036732 -5.8789983 -4.5755744 1.874814 1.2209096 5.404213 -0.41771647 -6.3178535 -9.82318 -4.7316437 0.53397024 -3.1552026 -4.0732207 -1.7995079 5.9543185 2.3576202 7.6012154 -0.28812715 4.7331944 4.8415413 -6.020852 -5.3017397 -4.8806357 1.9579118 -0.3881261 -2.4687462 -1.5160059 4.3222823 -2.9486997 -1.5541244 -0.35080484 -2.5238147 2.9179895 -2.4850068 5.9594464 0.13557559 3.9752433 -0.91123533 3.255175 5.323391 2.1154268 -1.7300674 2.9212334 2.3961477 0.8354226 9.082364 1.4602871 1.038231 0.93853664 -1.8937812 2.2401428 -0.7530115 3.3955793 1.9255959 4.196818 4.5395417 -1.426757 -1.8119637 0.35815835 5.025855 2.8977356 2.6307063 0.7917536 2.5919185 2.3947477 -8.910944 -7.4207234 5.5548596 5.27962 -2.003056 -2.9265757 -0.37121537 -3.9489706 5.49518 -0.052691363 0.5253818 1.6291333 3.8581636 -1.3010445 -0.3194737 -0.7231065 0.81733495 -0.87536657 -3.8224816 -1.6085843 0.57392794 0.54450434 -4.9491696 1.3198125 0.46206447 -1.1032532 -0.44359 1.1294403 0.23712194 1.8112535 -4.47572 2.738053 2.9351642 -0.62421274 2.4974456 5.30557 -2.5676625 6.523632 -4.5306973 -5.887693 -0.32751647 -0.46090356 -5.476651 -2.1032207 -4.069115 1.2137178 6.3631015 -3.843706 0.76685476 0.43592831 3.7748208 7.231936 7.326264 -4.444659 -4.4533987 -3.7452493 7.52331 -2.662516 -0.2716098 -1.1182256 4.795799 1.8622158 -2.1788201 2.9846752 -0.7353714 -1.7624061 1.3560477 0.7498728 1.2557986 -4.1069274 -1.1307849 -5.0218673 0.81164086 0.7944786 0.81080055 4.6340895 -1.3275287 0.9403664 -1.183205 2.8835082 5.294814 -2.6349506 -0.26335004 -4.881148 -6.388874 -1.6410695 -1.2894007 -1.4570222 -2.2360446 8.359735 2.1854525 -1.6470828 4.4331045 1.0550724 0.58438784 2.4669878 -6.219556 2.0565407 1.0991312 -4.9293427 -0.20007074 2.34195 -0.06076605 4.129989 1.2447059 0.096186094 0.69770217 -0.57435894 -1.6597106 -4.6472726 -0.6863231 5.414724 -4.1008043 -1.1008582 -5.594333 -0.3986087 4.2410336 4.0555177 3.6246524 3.5317073 1.0454692 2.814594 1.4641051 -2.554419 6.2919993 -2.8179483 2.442881 0.56073266 -3.5597925 5.473032 -0.57013184 3.371888 -3.6246364 -1.8671045 0.62077516 6.6726093 -0.14475213 -2.7465007 -0.752039 0.22045887 8.424728 1.6060728 4.287271 3.9902143 5.3725567 3.8639665 0.31009743 1.3570629 1.5051045 2.9679193 -0.3884033 -5.607466 7.7209353 -3.866963 -0.074280076 2.4175255 0.677464 2.891885 6.6711044 -1.9433359 5.275155 3.8679972 1.4692676 -2.2665575 -1.9646484
